been 0.17903287708759308 -0.07724931836128235 -0.1746506541967392 -0.39064541459083557 -0.3001312017440796 -0.2175806164741516 0.08374503999948502 0.1335902363061905 -0.06136693060398102 0.16281768679618835 0.5139344930648804 0.0459880456328392 -0.20718811452388763 -0.38916435837745667 -0.39470306038856506 0.16336631774902344 -0.2899380326271057 0.2510419487953186 -0.4062471389770508 0.19851548969745636 -0.23480398952960968 -0.07485335320234299 -0.5182587504386902 0.13929465413093567 0.0024986322969198227 0.3786333501338959 -0.06541851907968521 0.02719155140221119 -0.2727673053741455 0.12195196002721786 0.35772547125816345 -0.2916274964809418 0.13284005224704742 0.09502315521240234 -0.15995177626609802 -0.09394708275794983 -0.600435733795166 -0.12524999678134918 0.07995937764644623 -0.1089005246758461 -0.4488498866558075 0.04564416781067848 0.06152202561497688 -0.3696097731590271 -0.2605046033859253 -0.30401068925857544 -0.1774175465106964 0.09156610816717148 0.33589935302734375 -0.056975964456796646 -0.022479461506009102 -0.07407289743423462 0.1320163607597351 -0.39792150259017944 -0.18448100984096527 -0.6802309155464172 0.6229650378227234 -0.11041687428951263 -0.21421374380588531 -0.2893902659416199 -0.2677595317363739 0.49360886216163635 -0.20026391744613647 0.10574831068515778 0.2496281862258911 0.2919119596481323 0.21555498242378235 -0.24629901349544525 -0.30450674891471863 0.07627872377634048 -0.11654635518789291 0.1707238405942917 0.5295820832252502 0.1094084233045578 -0.19540727138519287 -0.36429643630981445 -0.04375404119491577 -4.3986874516122043E-4 -0.252347856760025 0.2068280577659607 0.48965227603912354 -0.19387447834014893 -0.5113952159881592 -0.39695486426353455 -0.6124817132949829 -0.08239132165908813 0.2223222702741623 -0.19102296233177185 -0.7357156872749329 0.14508037269115448 0.23199138045310974 0.053215231746435165 -0.556462287902832 -0.5236625075340271 0.18355967104434967 -0.18506589531898499 0.18627026677131653 -0.10228362679481506 -0.1647469848394394 0.01120502408593893
year 0.02319122664630413 0.173054501414299 0.1433110535144806 -0.07646317034959793 -0.31546729803085327 -0.3918893337249756 0.18414214253425598 0.33216387033462524 -0.1869802176952362 0.29611122608184814 -0.3406446874141693 -0.05906388908624649 -0.11078035831451416 -0.2222031205892563 -0.03680901229381561 -0.15215954184532166 -0.4579976201057434 -0.2909514904022217 0.034496307373046875 0.11305467039346695 0.11544620990753174 -0.4974818229675293 0.14837267994880676 -0.31950515508651733 -0.31116536259651184 0.1814512014389038 0.1461690366268158 -0.24336691200733185 -0.3537689447402954 0.1811547577381134 0.2589958608150482 -0.2499898076057434 0.3233233094215393 -0.3325987458229065 -0.016332129016518593 0.04272962361574173 -0.4584343731403351 -0.18296116590499878 0.20180532336235046 -0.06764569133520126 -0.1566018909215927 -0.16040004789829254 -0.20711684226989746 -0.2723853886127472 -0.014531773515045643 -0.08398883044719696 -0.14570733904838562 -0.11551101505756378 -0.10351739823818207 0.37390801310539246 -0.14256155490875244 0.27495044469833374 0.07802309840917587 0.2933803200721741 0.11074807494878769 0.27069351077079773 0.39337775111198425 -0.17790988087654114 0.06604694575071335 -0.3894364833831787 -0.3508598208427429 -0.03748783841729164 0.1777733713388443 0.2570803761482239 0.04284963384270668 -0.14116141200065613 0.23228585720062256 -0.09542044997215271 0.02714395709335804 0.27564170956611633 0.17296023666858673 -0.2185278981924057 -0.2109588235616684 -0.03069995529949665 0.14068768918514252 -0.040152084082365036 -0.14392177760601044 0.5996894836425781 -0.1303161233663559 -0.004297402687370777 -0.056717853993177414 -0.3989920914173126 0.023269690573215485 -0.045368798077106476 -0.1290382593870163 0.0609375424683094 0.25770077109336853 -0.10160449892282486 0.09902219474315643 0.03774770349264145 -0.04208040237426758 -0.10700788348913193 0.01961326226592064 -0.0025680121034383774 -0.38891997933387756 0.11875295639038086 -0.25789129734039307 0.5686895251274109 0.13782866299152374 -0.23722083866596222
about -0.01097790151834488 0.06222867965698242 -0.13078652322292328 0.38858410716056824 0.013469298370182514 -0.08391387015581131 0.5672829747200012 0.04602137580513954 -0.08591993898153305 0.08916635066270828 0.3597477376461029 -0.06986501067876816 -0.1772920936346054 -0.23942223191261292 0.09327828884124756 -0.1737280786037445 0.24258461594581604 -0.3070756196975708 -0.38235947489738464 -0.16714905202388763 -0.02843969687819481 0.026970919221639633 0.23865120112895966 -0.5017484426498413 -0.019211258739233017 0.3803286850452423 -0.35587814450263977 -0.32263752818107605 -0.19137921929359436 0.27347737550735474 0.35301128029823303 -0.154459148645401 0.07040359824895859 -0.20202386379241943 -0.21640309691429138 0.04016702622175217 -0.0576794371008873 -0.05657890811562538 -0.08345742523670197 -0.3626233637332916 0.09195321798324585 0.3364969789981842 0.07742422819137573 0.4060690701007843 -0.2199796587228775 7.133725739549845E-5 0.09308991581201553 0.10352130234241486 -0.25557202100753784 -0.05363035574555397 -0.14883007109165192 0.34207117557525635 -0.3425445556640625 0.16636686027050018 0.1281472146511078 -0.3021969199180603 -0.3828209936618805 0.1091146320104599 0.28103089332580566 0.07554832100868225 0.0397832952439785 -0.040649376809597015 -0.02320094034075737 -0.25247639417648315 -0.14782775938510895 0.17361436784267426 -0.0028880781028419733 -0.3230994939804077 0.30457964539527893 0.04394681006669998 0.34222090244293213 0.09560255706310272 0.17313991487026215 0.312422513961792 0.1173306256532669 0.13802631199359894 -0.044070858508348465 0.011599402874708176 -0.05563630908727646 0.006612069439142942 -0.3389451503753662 -0.054591868072748184 0.061113838106393814 -0.22638744115829468 0.02836480922996998 -0.4330305755138397 -0.1484076976776123 -0.22267737984657288 0.1892889440059662 -0.20419377088546753 0.21060018241405487 0.05507981404662132 0.014001515693962574 -0.20057262480258942 0.12043270468711853 0.2035321444272995 0.28676193952560425 0.07712795585393906 -0.25662514567375183 -0.1822943538427353
your -0.2852611243724823 -0.07032368332147598 -0.01271808985620737 0.1342739760875702 0.3430878520011902 0.38190552592277527 -0.06234565004706383 -0.17120720446109772 0.05317704752087593 -0.007611211389303207 0.09836005419492722 -0.09455902129411697 0.08075916022062302 0.23046599328517914 -0.16030694544315338 -0.2895440459251404 -0.16120389103889465 -0.177272230386734 0.051815465092659 0.07507547736167908 -0.07869057357311249 0.24919816851615906 0.20700104534626007 0.24942386150360107 0.10972587764263153 0.0035585116129368544 0.10446011275053024 0.031306006014347076 0.03904704749584198 -0.25476449728012085 -0.0623774379491806 0.14666655659675598 -0.11361530423164368 -0.3620310127735138 -0.1959424614906311 -0.10724467784166336 -0.2969299256801605 -0.1410163938999176 0.1659376323223114 0.1175876334309578 0.3341321349143982 -0.3219062089920044 0.11484714597463608 -0.02215634658932686 -0.3398347496986389 -0.09687741845846176 0.355350524187088 0.06419160962104797 0.10444292426109314 -0.227973073720932 -0.07849355041980743 0.4759739339351654 -0.23667502403259277 -0.2076045125722885 0.3787018060684204 -0.2368689924478531 -0.1789342314004898 -0.11666739732027054 -0.005292225629091263 -0.04656936600804329 0.022374704480171204 0.3522643744945526 -0.16265404224395752 -0.015711670741438866 -0.16001248359680176 0.10141360014677048 -0.02772608958184719 -0.03866637498140335 0.20731310546398163 -0.11577745527029037 0.14803670346736908 -0.09738348424434662 0.07662636041641235 0.11094632744789124 -0.09045091271400452 -0.050694726407527924 -0.4545312225818634 0.037681225687265396 -0.4987298250198364 0.21239469945430756 -0.4490061104297638 0.07099112123250961 -0.17534640431404114 -0.22085264325141907 0.3396584689617157 -0.31467896699905396 -0.3349435329437256 0.6613515019416809 0.21536661684513092 -0.2284976840019226 -0.22769543528556824 0.043657150119543076 -0.07357528060674667 -0.14224477112293243 0.07841247320175171 -0.25400492548942566 -0.03265135735273361 0.16031739115715027 0.5411195158958435 0.003299862379208207
without 0.06037284433841705 0.04917808622121811 0.24081678688526154 0.21245358884334564 0.08604711294174194 0.002720157615840435 0.12534432113170624 -0.10687705874443054 0.15520338714122772 0.03329259902238846 0.07489684969186783 0.16257992386817932 0.19143913686275482 -0.06304407864809036 0.06219238415360451 0.01400117576122284 -0.20606571435928345 0.02818763069808483 0.0609954372048378 0.004627957008779049 0.16920088231563568 0.16527937352657318 0.2784295976161957 -0.13455817103385925 -0.1670343428850174 -0.0164068304002285 -0.030210256576538086 0.26236334443092346 -0.09518908709287643 -0.04829302802681923 0.04559938237071037 -0.0204892847687006 -0.16156116127967834 -0.41988012194633484 -0.20778430998325348 0.06441056728363037 -0.07584644109010696 -0.13591785728931427 0.0017892603063955903 -0.10399382561445236 -0.027601778507232666 0.16654327511787415 -0.31556034088134766 -0.14930012822151184 -0.2697623074054718 -0.32833561301231384 -0.09224075824022293 0.028720058500766754 0.33302921056747437 0.09148358553647995 -0.03765353560447693 0.18385569751262665 -0.29999840259552 -0.09518911689519882 -0.06871583312749863 -0.029234152287244797 0.07417301833629608 -0.23278027772903442 0.023958370089530945 -0.02188415825366974 -0.0790766105055809 -0.028099577873945236 0.10697522014379501 -0.12053824961185455 0.056049540638923645 -0.3435311019420624 0.08530328422784805 -0.2497868686914444 -0.11818807572126389 -0.020609823986887932 0.4948822557926178 0.16653092205524445 -0.10101599991321564 0.09751684963703156 -0.11563367396593094 -0.5408014059066772 0.008830058388411999 0.07772235572338104 0.2768675982952118 -0.18998461961746216 0.01695280894637108 -0.14539071917533875 0.1302403211593628 -0.017873451113700867 -0.2645905315876007 -0.1779123693704605 -0.09633023291826248 -0.10211462527513504 0.0108239920809865 -0.29051655530929565 0.11324607580900192 -0.050660908222198486 -0.14096443355083466 0.05568002536892891 0.11401762068271637 0.1519831418991089 0.32138681411743164 0.09331201016902924 0.20488624274730682 -0.001584113808348775
these -6.928878137841821E-4 -0.1267324537038803 0.1931949406862259 -0.35440871119499207 -0.025025734677910805 0.21540158987045288 0.11935314536094666 0.19519539177417755 0.02890595979988575 0.43752384185791016 -0.07124367356300354 0.3230735957622528 0.15100432932376862 0.23120954632759094 -0.3234899044036865 -0.08391150832176208 -0.2511175274848938 0.0694672241806984 0.3869607746601105 -0.16514025628566742 0.002556765452027321 -0.31342804431915283 -0.06557727605104446 -0.21379821002483368 0.18997488915920258 0.08990397304296494 0.25476929545402527 -0.23780886828899384 -0.15890929102897644 -0.29062238335609436 -0.026063617318868637 -0.13953359425067902 -0.3803989887237549 -0.33456337451934814 0.2654211223125458 -0.1809401512145996 -0.13210606575012207 -0.12098327279090881 0.08886038511991501 0.24425557255744934 -0.0547097772359848 0.11752308905124664 -0.2632720470428467 0.02731468714773655 -0.10124891996383667 -0.024045951664447784 0.25332897901535034 -0.03822411224246025 -0.5317363739013672 0.04765487462282181 -0.15990924835205078 -0.24966412782669067 0.03404765576124191 -0.2845083475112915 -0.12303871661424637 -0.06426741182804108 -0.3135553002357483 0.05040937662124634 -0.1438688337802887 -0.2924153804779053 0.20469984412193298 0.13179442286491394 -0.10935021191835403 0.029952889308333397 -0.13667871057987213 0.003647688776254654 0.06375589966773987 -0.07002393901348114 0.08362932503223419 0.014413218013942242 -0.18214000761508942 -0.05746942758560181 0.016371924430131912 -0.24019083380699158 0.16732856631278992 -0.22511082887649536 0.3310689330101013 -0.24802367389202118 -0.022517843171954155 -0.13915051519870758 -0.1820930689573288 -0.009225635789334774 -0.23806217312812805 0.17242009937763214 0.041230082511901855 -0.2870274782180786 -0.5019035935401917 0.5983354449272156 -0.20402655005455017 -0.24945800006389618 -0.2252032458782196 0.10565841197967529 -0.35618844628334045 0.3057975172996521 0.01701943948864937 0.19058384001255035 0.07179959118366241 -0.3413177728652954 -0.3865668475627899 0.3280809223651886
companies -0.092734195291996 7.13628891389817E-4 -0.038368307054042816 -0.15922221541404724 0.00672089122235775 0.0031428972724825144 9.020388242788613E-4 0.11542303115129471 0.09532162547111511 0.18205441534519196 -0.2289011925458908 -0.023393524810671806 0.11668465286493301 -0.05703272297978401 -0.05606694519519806 0.07274743914604187 -0.16000907123088837 0.021394062787294388 0.06502847373485565 -0.06816564500331879 -0.019375430420041084 -0.19527320563793182 0.022242756560444832 0.07688350975513458 -9.7747053951025E-4 0.14029064774513245 0.1538240760564804 -0.2238890677690506 -0.0858866348862648 0.013907474465668201 -0.12384139001369476 -0.10146234184503555 -0.04129109904170036 -0.3046707212924957 -0.04181758686900139 -0.09021587669849396 0.13822850584983826 -0.004769827239215374 0.21529127657413483 0.03786284849047661 -0.07015268504619598 -0.09926848858594894 -0.017897222191095352 -0.14908024668693542 -0.12242384254932404 -0.09762522578239441 -0.016545437276363373 0.14432786405086517 0.023435985669493675 0.04155701771378517 0.028359822928905487 -0.12376999109983444 0.024110544472932816 -0.08272603899240494 -0.14875268936157227 -0.08827009797096252 -0.17529895901679993 0.02187386341392994 -0.05995434895157814 -0.03369133174419403 0.061457179486751556 0.1011461466550827 -0.013359595090150833 0.1658502221107483 -0.017604075372219086 -0.007315435446798801 0.012294165790081024 -0.09129657596349716 -0.009084973484277725 0.056761302053928375 -0.12169200927019119 0.028431154787540436 -0.1360033005475998 -0.062406111508607864 0.09255186468362808 -0.026736915111541748 0.059057969599962234 -0.017324121668934822 0.16015391051769257 -0.08007925748825073 0.027008086442947388 -0.07557247579097748 -0.022152110934257507 0.09173936396837234 0.13725069165229797 -0.06258828192949295 0.15234985947608948 0.1896214634180069 -0.1800190955400467 0.03802942484617233 -0.2427411675453186 0.059183839708566666 -0.044701699167490005 -0.02696252427995205 0.08541040122509003 0.21138863265514374 0.17216655611991882 -0.11304283887147903 -0.17499496042728424 0.39011505246162415
music 0.0036859484389424324 0.1301644891500473 0.18399149179458618 0.07049146294593811 0.05094097554683685 0.030808642506599426 -0.02059890702366829 -0.20495305955410004 0.14324313402175903 0.0635058730840683 -0.17325520515441895 -0.050556134432554245 -0.15804049372673035 -0.06655962765216827 -0.028024805709719658 0.17025905847549438 -0.17352703213691711 0.04683087021112442 -0.01623561978340149 -0.06429757922887802 -0.12945948541164398 -0.16522574424743652 0.05791950225830078 0.11949856579303741 0.19987335801124573 0.12253579497337341 -0.030834795907139778 -0.1316337287425995 -0.04425766319036484 0.22907334566116333 0.2493470162153244 0.02640337310731411 0.215697780251503 -0.10312093049287796 0.09455621987581253 0.2507532238960266 -0.042037226259708405 0.03892792388796806 -0.06900078803300858 0.03323353826999664 -0.004471650347113609 0.018764181062579155 -0.008615539409220219 0.08983519673347473 0.20380401611328125 0.1680728793144226 -0.03461695834994316 -0.004381129518151283 0.222528338432312 -0.045878104865550995 -0.12263096868991852 0.27056750655174255 0.21439334750175476 -0.07433411478996277 0.08499772846698761 -0.1569511741399765 -0.10730308294296265 -0.022469405084848404 -0.009043006226420403 0.24583522975444794 -0.024690644815564156 0.022032106295228004 -0.1661156713962555 -0.1334698349237442 -0.2174774557352066 -0.17580175399780273 -0.002520536771044135 0.06038918346166611 -0.08157169818878174 -0.01513117179274559 -0.19090162217617035 0.1098068356513977 -0.15243911743164062 0.306939035654068 0.021669765934348106 0.046692006289958954 -0.1864926815032959 0.10684376209974289 0.08231961727142334 0.15756863355636597 0.07735834270715714 0.13686199486255646 0.011029279790818691 -0.017680775374174118 -0.042665522545576096 0.0824880376458168 0.12273722887039185 -0.026091258972883224 0.33589932322502136 0.04803045466542244 -0.3152247667312622 0.082753486931324 0.3047986328601837 -0.040491919964551926 0.03570658341050148 -0.17026931047439575 -0.12534715235233307 0.11132408678531647 -0.33131295442581177 -0.011690701358020306
would 0.08152730762958527 0.0706535130739212 -0.1522912234067917 -0.017538178712129593 0.12031468749046326 0.007687990553677082 0.11376229673624039 -0.24183256924152374 0.17578758299350739 -0.18024322390556335 -0.13551457226276398 0.20186714828014374 0.22491809725761414 0.1669892966747284 -0.022998007014393806 0.28854531049728394 -0.23630699515342712 0.26280534267425537 -0.1862807273864746 -0.38707807660102844 -0.19890250265598297 0.2059583216905594 0.18626843392848969 0.2370680570602417 -0.23615208268165588 -0.2837296724319458 0.0980205163359642 -0.10884258151054382 -0.4512367248535156 0.362111359834671 -0.12735246121883392 -0.00553665217012167 -0.3061862289905548 -0.1730075478553772 0.06553637236356735 -0.08347808569669724 0.07549046725034714 0.05436454340815544 0.10778581351041794 0.21359382569789886 -0.28330862522125244 0.12878306210041046 -0.18632479012012482 -0.108515664935112 -0.3703646659851074 0.11670967936515808 -0.13153702020645142 0.0676654726266861 0.3236441910266876 0.2637544572353363 -0.1653212457895279 -0.19500374794006348 0.06944753974676132 -0.12084212154150009 0.0980658307671547 0.011049142107367516 0.3428213894367218 -0.2153303027153015 0.09340649843215942 -0.10325589030981064 0.015656527131795883 -0.20585978031158447 -0.08443322032690048 -0.15208008885383606 -0.19804221391677856 -0.08545682579278946 -0.059454578906297684 0.10513453930616379 0.09349291026592255 0.005362935364246368 0.10364317893981934 0.08127103000879288 0.10013747960329056 0.16788342595100403 -0.1125587522983551 0.29633405804634094 0.14467830955982208 0.32881584763526917 0.1029500961303711 0.08260452002286911 -0.2066798210144043 -0.06583724170923233 -0.28434136509895325 0.05980435386300087 -0.03425823152065277 0.15802140533924103 -0.16909177601337433 -0.26348966360092163 0.16276928782463074 0.21426063776016235 0.3427330553531647 -0.36305880546569824 -0.1344744712114334 0.04375912994146347 0.2537355422973633 0.33539047837257385 0.058754973113536835 -0.2800282835960388 0.027116386219859123 -0.15171924233436584
because 0.08995044976472855 0.10936551541090012 0.032958194613456726 0.2074383795261383 0.12082426995038986 -0.05069394037127495 -0.0182361900806427 -0.1894984394311905 -0.0011862440733239055 0.008656811900436878 0.31320780515670776 0.09389933198690414 0.10231491923332214 0.05794437229633331 0.21943998336791992 -0.01924525760114193 -0.042225584387779236 -0.1040002852678299 -0.18309250473976135 0.10948166996240616 -0.05147228762507439 0.219423308968544 0.04885709658265114 0.028962600976228714 0.08182039111852646 -0.06206170842051506 -0.16209030151367188 -0.0469314269721508 -0.17845474183559418 0.026097873225808144 0.03680514916777611 -0.18330954015254974 0.045626576989889145 -0.09979568421840668 0.03264271095395088 0.012507354840636253 0.15396511554718018 -0.09456408768892288 0.12371661514043808 0.11226559430360794 0.05853860825300217 -0.021519169211387634 -0.3570369780063629 -0.2040514498949051 -0.09844634681940079 0.29032155871391296 -0.07732915878295898 0.03940477594733238 -0.20761993527412415 0.06835664808750153 -0.228303462266922 0.07403991371393204 -0.1537693291902542 0.04986938089132309 -0.11367370933294296 -0.1531619280576706 0.03508594632148743 0.23007142543792725 0.06955759227275848 0.10525960475206375 -0.0710974931716919 0.0034632463939487934 0.07529006898403168 -0.24126528203487396 0.038998786360025406 -0.2914797067642212 0.09405326098203659 -0.08001281321048737 0.04062698781490326 -0.036144502460956573 -0.0968741700053215 0.16321922838687897 -0.09703151136636734 -0.07732067257165909 -0.10028951615095139 -0.2796275317668915 0.09174594283103943 0.0360991433262825 0.08851686865091324 -0.16380885243415833 -0.015686124563217163 -0.04401193559169769 0.06968024373054504 -0.07114440947771072 -0.13884495198726654 0.13251708447933197 0.10689078271389008 -0.1039150208234787 0.2325594574213028 0.10216011106967926 0.18308474123477936 0.12490115314722061 -0.13489104807376862 0.09004361927509308 0.11516790091991425 -0.04973099008202553 -0.19733686745166779 -0.07659952342510223 -0.26848602294921875 0.021062199026346207
state -0.2551024854183197 0.05555373802781105 0.03691016510128975 -0.08880320936441422 -0.11008314788341522 -0.12318561971187592 -0.084817074239254 0.06639587134122849 0.15226095914840698 0.1043434664607048 -0.09289328008890152 -0.06281420588493347 -0.03800874203443527 -0.22806884348392487 0.07348644733428955 -0.06430450826883316 -0.38217195868492126 0.08633039146661758 0.2593318521976471 -0.08729564398527145 0.08218839019536972 -0.16701030731201172 -0.015002710744738579 0.04848121106624603 -0.18744462728500366 0.3222443759441376 -0.10389212518930435 0.2837930917739868 -0.13574981689453125 0.056208379566669464 0.33457663655281067 -0.1952289342880249 0.10241677612066269 -0.29915744066238403 -0.10222994536161423 0.22134923934936523 -0.07309231907129288 -0.14886996150016785 0.09563565254211426 -0.02397295832633972 0.02520839311182499 -0.016034230589866638 -0.11681574583053589 0.0020829231943935156 0.07822369784116745 0.009057406336069107 -0.18214917182922363 -0.06080902740359306 0.11306698620319366 0.01164865680038929 -0.06245394051074982 -0.02228854037821293 0.19048216938972473 -0.11192769557237625 -0.052477359771728516 -0.14057742059230804 -0.12234371155500412 0.01194600760936737 0.18060219287872314 0.195465087890625 -0.0012468595523387194 -0.08506987243890762 -0.09035009890794754 0.08245247602462769 -0.2638625204563141 -0.15983043611049652 0.14216749370098114 0.0312209390103817 -0.05374797433614731 0.33714744448661804 -0.13691149652004242 0.18019509315490723 -0.22643040120601654 0.1550922393798828 0.14479702711105347 -0.22119919955730438 -0.1377120316028595 0.10999926179647446 0.07219401746988297 -0.004826901480555534 -0.1651025265455246 -0.10436443239450455 -0.03885170817375183 -0.08018960058689117 0.20239080488681793 -0.04258492961525917 0.1602715104818344 0.11837685853242874 0.02381831593811512 -0.20950676500797272 -0.40092745423316956 0.09596215188503265 0.15771788358688354 -0.03664800897240639 -0.1628326177597046 0.24306179583072662 0.10137486457824707 0.2494027465581894 -0.2220439612865448 0.02748844400048256
they 0.12278502434492111 0.12271375954151154 0.21438375115394592 -0.18874438107013702 0.03888290748000145 0.24162745475769043 0.015341697260737419 0.021630413830280304 0.09573304653167725 0.05737221613526344 -0.04609180614352226 0.2216111123561859 0.22666893899440765 0.1518762856721878 -0.0023335698060691357 -0.010610369965434074 -0.24720430374145508 0.049063947051763535 -0.09775173664093018 0.10763588547706604 8.733961149118841E-4 0.01736004836857319 0.10821875929832458 0.0212118960916996 0.07516948878765106 -0.0938967615365982 0.19240900874137878 -0.14423277974128723 -0.034082356840372086 0.12141796201467514 0.011256452649831772 0.17642664909362793 -0.09875388443470001 -0.06329209357500076 0.02460678108036518 -0.012818289920687675 0.23270773887634277 0.0366230309009552 0.38440024852752686 -0.43532153964042664 0.09021393954753876 -0.20619799196720123 0.2603397071361542 0.20512811839580536 -0.19889593124389648 -0.30354124307632446 0.031893420964479446 -0.11810897290706635 -0.18431773781776428 -0.1334691345691681 -0.21944104135036469 0.04398015886545181 -0.0360383540391922 0.020955728366971016 0.14584264159202576 0.15462203323841095 -0.23822905123233795 -0.0535908117890358 0.09295973926782608 -0.3640150725841522 0.046137984842061996 -0.1735706329345703 0.278652548789978 0.007172982208430767 -0.010544383898377419 0.26188528537750244 -0.34894973039627075 0.162408709526062 -0.013049289584159851 0.17959359288215637 -0.20724676549434662 -0.04967048019170761 0.11064893752336502 -0.23298321664333344 -0.08038803935050964 0.03604428097605705 0.12423093616962433 0.09658301621675491 0.12517049908638 -0.021792534738779068 0.029891911894083023 -0.43098893761634827 -0.0679587870836258 0.1921042799949646 -0.026781335473060608 -0.023980682715773582 -0.19907444715499878 0.09535812586545944 -0.0365062840282917 -0.1535605639219284 -0.10705690085887909 0.18977776169776917 -0.1340426206588745 0.27369633316993713 -0.0667496994137764 0.33026552200317383 0.3012331426143646 -0.12413724511861801 -0.03500969707965851 0.24312017858028412
you -0.095667265355587 0.1118117943406105 -0.2613237798213959 -0.3200315237045288 0.2428719401359558 0.18232598900794983 -0.08465278893709183 -0.10228098183870316 0.23214763402938843 0.19550983607769012 -0.027066361159086227 0.035013340413570404 0.4071609079837799 -0.11160218715667725 -0.13762947916984558 -0.3640105128288269 0.20981363952159882 0.10646136105060577 -0.19911329448223114 -0.1663738340139389 -0.33274486660957336 0.028173023834824562 0.32998403906822205 0.1855524629354477 0.04163224250078201 0.018792662769556046 -0.1632075011730194 -0.030698098242282867 0.24449370801448822 0.158406600356102 -0.13180764019489288 -0.020740121603012085 0.2771298587322235 -0.19760267436504364 0.07481860369443893 0.08461958169937134 -0.15883567929267883 0.2624491751194 0.005219235084950924 -0.07003138959407806 0.009132999926805496 -0.2182573825120926 0.2939212918281555 0.1247723251581192 -0.20140670239925385 -0.1904819905757904 -0.07786159962415695 0.010029394179582596 0.0051054442301392555 -0.10451290011405945 -0.28363409638404846 -0.05236900597810745 -0.06274601072072983 0.009342668578028679 0.22324156761169434 0.2011883556842804 -0.02708476036787033 -0.19028320908546448 0.32302913069725037 -0.33226868510246277 -0.0084458589553833 -0.18130800127983093 0.11976154148578644 -0.05821719393134117 0.05494556948542595 0.008957547135651112 -0.6454827189445496 0.06092790141701698 -0.13538621366024017 -0.03333238139748573 -0.17155031859874725 0.02894703485071659 0.052502330392599106 -0.1908627301454544 -0.15863646566867828 -0.024569859728217125 0.017936289310455322 -0.1315518617630005 0.14461302757263184 -0.13174955546855927 -0.033285606652498245 -0.0750846266746521 0.006783959921449423 0.11842739582061768 -0.06998086720705032 -0.07989323884248734 -0.10646571218967438 0.06342800706624985 -0.08816281706094742 0.04194001108407974 0.038295332342386246 0.24531066417694092 -0.10336622595787048 -0.019011152908205986 -0.13567344844341278 0.25117436051368713 -0.146029531955719 0.09122906625270844 0.03203172609210014 0.30322176218032837
$ -0.02542198821902275 -0.029975516721606255 0.0057191625237464905 -0.003385468851774931 0.0012516062706708908 0.013966783881187439 -0.02781768888235092 0.009761528111994267 9.878010023385286E-4 0.02799268253147602 -0.026228658854961395 -0.049901384860277176 0.018375338986516 -0.03532107174396515 -0.00829892698675394 -0.004856940824538469 -0.026994165033102036 -0.0035241590812802315 -0.013975454494357109 -0.024471236392855644 0.04434472694993019 -0.017603041604161263 0.03706969693303108 0.008515416644513607 -0.018773458898067474 -0.01709119603037834 0.04404950886964798 -0.010825704783201218 -0.010773004963994026 -0.02817399427294731 -0.028850527480244637 -0.03582717105746269 -0.03276420757174492 -0.019312767311930656 -0.008463891223073006 -0.028560131788253784 0.015800366178154945 -0.019503431394696236 0.042204007506370544 0.0208587683737278 -0.032937005162239075 -0.02535918354988098 -0.011696631088852882 -0.03227047249674797 0.0056722164154052734 -0.005811454728245735 -0.026988133788108826 0.01859945058822632 0.018594153225421906 4.3386570177972317E-4 3.472925163805485E-4 -0.014595864340662956 -0.038818906992673874 0.007212609052658081 -0.030868085101246834 -0.0047425380907952785 0.0024901183787733316 -0.02197142317891121 -0.005662768147885799 -0.017265072092413902 -0.028803035616874695 -0.005633711814880371 -3.577533643692732E-4 -0.00627843476831913 0.01924588344991207 -0.0010313282255083323 0.0011098955292254686 0.019182419404387474 -0.014573861844837666 -0.02136750891804695 -0.00405451375991106 -0.016987668350338936 -0.010001138783991337 -0.009731413796544075 0.034117959439754486 -0.004154423717409372 0.013121012598276138 -0.007581508718430996 0.021672576665878296 -0.0019026906229555607 0.00402169581502676 -0.004664226435124874 -0.022378990426659584 0.011922175996005535 0.021636653691530228 -1.9418622832745314E-4 0.01233071181923151 0.00829252228140831 0.023757463321089745 0.01740841194987297 -0.006694657262414694 0.023117251694202423 0.012417410500347614 0.009205766953527927 -0.006076212041079998 -0.0030193564016371965 0.00998258963227272 -0.015812695026397705 0.0026558982208371162 0.02273859828710556
going -0.2128356248140335 -0.6155357360839844 0.1740168333053589 -0.10264529287815094 0.09479168802499771 -0.014238962903618813 0.2276177555322647 -0.2851424217224121 -0.08164038509130478 0.27342602610588074 0.11340636014938354 -0.5922513604164124 0.07842279225587845 0.1470709592103958 0.07271410524845123 0.003462668275460601 0.2497807890176773 0.11355815082788467 0.042369499802589417 0.20327883958816528 -0.0623195581138134 0.15734732151031494 0.2889929711818695 0.0869441106915474 0.08166120946407318 -0.2886432707309723 0.1973254382610321 -0.23795723915100098 -0.07018297165632248 -0.07370135933160782 -0.22438117861747742 -0.04281695559620857 0.08436469733715057 -0.11984743177890778 0.05548272654414177 0.20337070524692535 -0.4953913390636444 -0.35752367973327637 0.3398706018924713 0.16267700493335724 0.07394079864025116 -0.551118016242981 -0.11047540605068207 0.09175136685371399 0.05216190591454506 0.08376821875572205 -0.17290525138378143 -0.06595185399055481 -0.28220367431640625 0.2945157289505005 -0.2545015811920166 0.0031830270309001207 0.08774228394031525 -0.1753748655319214 0.01835043355822563 -0.05715702101588249 0.027674363926053047 -0.133277028799057 -0.06533940136432648 0.15835846960544586 0.06282385438680649 0.15828503668308258 0.089483343064785 -0.1440049707889557 0.39350441098213196 -0.3528752028942108 -0.4428054094314575 0.11346986889839172 0.04404306039214134 -0.1385064423084259 -0.08273357897996902 -0.0449860617518425 0.2859445810317993 -0.35500597953796387 -0.05411811172962189 0.008504791185259819 -0.23641718924045563 0.3612266778945923 -0.2542423903942108 -0.12859295308589935 -0.13559307157993317 -0.16521571576595306 -0.14897167682647705 -0.04113845154643059 0.08050186932086945 -0.1679498851299286 -0.3437757194042206 -0.07005388289690018 0.8738803267478943 0.10735136270523071 0.6490018367767334 -0.046263497322797775 0.05213569104671478 -0.1093759685754776 -0.1194329559803009 -0.05373331904411316 0.24646949768066406 -0.3287947177886963 0.15073995292186737 -0.07700234651565552
old -0.41410741209983826 -0.30901989340782166 0.1979733109474182 0.13229002058506012 -0.2478908896446228 -0.2105565369129181 0.06563712656497955 -0.14281822741031647 -0.03079589083790779 0.2505476772785187 0.06295327097177505 0.03216826170682907 -0.08562521636486053 0.33228591084480286 -0.2871626913547516 -0.02332185208797455 0.20083363354206085 0.22725820541381836 0.23719163239002228 0.03702854737639427 0.11696626245975494 -0.13580074906349182 -0.16728174686431885 -0.13040563464164734 0.07923011481761932 0.023858055472373962 0.12723389267921448 -0.17762482166290283 -0.28448790311813354 0.12513181567192078 -0.007236374542117119 -0.3271354138851166 -0.19902919232845306 -0.11796347796916962 0.20703735947608948 -0.032503243535757065 -0.09774976968765259 0.03223701938986778 0.006620828062295914 0.27616071701049805 -0.0915885865688324 -0.20949961245059967 -0.15373431146144867 0.004146243445575237 0.23572199046611786 0.11311424523591995 -0.17585326731204987 -0.30343663692474365 0.22531573474407196 -0.10580633580684662 0.05720355361700058 -0.13603012263774872 0.30003058910369873 -0.399883508682251 0.17819049954414368 -0.22033026814460754 -0.19946874678134918 0.04504716023802757 -0.1359604299068451 0.02830531820654869 0.1473313271999359 0.03576846793293953 -0.3810707926750183 0.16277183592319489 -0.24946174025535583 -0.07746236026287079 0.03614805266261101 -0.10437760502099991 -0.4098365008831024 -0.04316135123372078 -0.26163092255592346 0.0837615430355072 0.14154531061649323 0.2591131329536438 -0.015443069860339165 -0.09531185775995255 -0.288840651512146 -0.12903276085853577 0.05055106803774834 -0.2684636116027832 -0.22703701257705688 -0.1328779011964798 0.10326635837554932 0.16836334764957428 0.2747687101364136 -0.21716304123401642 -0.008538021706044674 0.04140010103583336 0.019804229959845543 -0.07872308045625687 -0.24716557562351227 0.034380801022052765 -0.14808042347431183 0.06874410063028336 -0.00802396610379219 -0.018250029534101486 -0.08181896060705185 -0.29398083686828613 0.0214422345161438 0.14959244430065155
want -0.48277759552001953 -0.20804978907108307 0.14984415471553802 0.3424735367298126 0.4017561674118042 0.40192949771881104 -0.3028353452682495 -0.11301086097955704 0.23078733682632446 -0.16200536489486694 -0.07665230333805084 -0.1087130680680275 0.41793978214263916 -0.08732869476079941 0.18323400616645813 -0.09172067046165466 0.2239689975976944 0.10098062455654144 0.017474710941314697 -0.23186422884464264 0.1489308625459671 -0.008490798063576221 0.3819206953048706 -0.14582675695419312 0.15568169951438904 -0.1715124100446701 0.22419126331806183 0.035505183041095734 -0.17575109004974365 0.011405601166188717 -0.1771978884935379 0.2355865240097046 -0.1973274052143097 -0.0889127105474472 -0.16248929500579834 0.13116976618766785 -0.09889422357082367 -0.28042709827423096 -0.2692096531391144 0.07700254768133163 0.23539507389068604 0.0510980561375618 -0.019053146243095398 0.1462821662425995 -0.13991692662239075 -0.2849210500717163 0.06892164796590805 0.2122836410999298 -0.05359726771712303 0.17745524644851685 -0.23192381858825684 0.1030363142490387 -0.1897963583469391 0.12322036921977997 -0.1958015263080597 0.08216031640768051 0.45187345147132874 -0.46494144201278687 -0.010208646766841412 -0.06939315795898438 -0.06648670136928558 0.018427778035402298 0.13027937710285187 -0.5227380990982056 0.0017265041824430227 -0.2952720820903778 0.16128499805927277 0.21949835121631622 0.12321064621210098 -0.1899038553237915 0.3067937195301056 -0.16926904022693634 -0.3462895452976227 -0.1172715350985527 0.03702826052904129 0.040609389543533325 0.1780550479888916 0.059380605816841125 0.3043235242366791 -0.17328238487243652 -0.034058187156915665 0.2343073934316635 -0.12189736217260361 -0.2478383183479309 0.28462255001068115 0.05963330343365669 -0.26664304733276367 -0.11574548482894897 0.371516615152359 0.20708778500556946 0.13363362848758698 -0.20553335547447205 -0.11126081645488739 -0.0798102468252182 0.27835455536842346 0.34838274121284485 0.1837196797132492 -0.22264018654823303 -0.08248284459114075 -0.07010900974273682
night -0.11161252111196518 0.08887868374586105 0.48616912961006165 0.21239909529685974 -0.1018318384885788 -0.036245789378881454 -0.13292433321475983 -0.17458029091358185 -0.1986830085515976 0.19442783296108246 0.046721041202545166 -0.06770294159650803 -0.021059688180685043 0.05641534551978111 -0.39432215690612793 0.07711532711982727 -0.07948161661624908 -0.25506827235221863 -0.0979175716638565 0.1878989040851593 0.03616443648934364 -0.5275816321372986 0.30470550060272217 -0.2410774827003479 0.17330069839954376 0.0610024593770504 0.0555628277361393 -0.020998617634177208 -0.29392966628074646 0.22400419414043427 0.08250431716442108 -0.21711485087871552 0.30383652448654175 0.17356082797050476 0.16959375143051147 0.03161323070526123 -0.24217800796031952 0.05770040675997734 0.1337130218744278 -0.06924913078546524 -0.2138276845216751 -0.07905185967683792 -0.23850883543491364 -0.2507435381412506 0.12363272160291672 -0.10782139003276825 -0.02003619261085987 -0.2598423957824707 0.048649005591869354 0.039003703743219376 0.14391672611236572 -0.019974099472165108 0.15533138811588287 0.10110362619161606 0.10482675582170486 0.006860317196696997 0.25474676489830017 0.10059282928705215 0.22589290142059326 -0.29559582471847534 -0.024313833564519882 -0.06412927061319351 -0.3569183051586151 0.32512980699539185 -0.0418367013335228 -0.09410368651151657 0.36598145961761475 0.19306980073451996 -0.10944228619337082 -0.015838779509067535 0.04112812504172325 -0.198314368724823 -0.1641213297843933 0.1404445469379425 0.3297785520553589 0.11783302575349808 0.050990764051675797 0.5162843465805054 0.07341977208852768 0.2418959140777588 0.05266071483492851 -0.3337356150150299 0.005508525762706995 -0.4732409715652466 -0.06837508082389832 0.1429397612810135 0.05963142216205597 -0.20557214319705963 0.09086619317531586 -0.25085359811782837 0.03561731427907944 -0.11652565747499466 0.27189528942108154 0.16775819659233093 -0.2454516738653183 0.018356509506702423 -0.32454875111579895 0.43695566058158875 0.09029131382703781 -0.27186119556427
them -0.0038455247413367033 0.23465196788311005 0.0452381856739521 -0.06134498864412308 -0.04477069154381752 0.07665269821882248 -0.15873266756534576 0.13044430315494537 0.1226428896188736 -0.048485077917575836 0.00341657642275095 0.03777439147233963 -0.06753657758235931 -0.07667452841997147 -0.13045623898506165 -0.025087757036089897 -0.2821865975856781 -0.041042376309633255 -0.07490979880094528 -0.28556662797927856 -0.17086318135261536 -0.11781486123800278 0.1929313987493515 0.07086788862943649 0.17302918434143066 0.03173792362213135 0.3172680139541626 -0.2032856047153473 0.17296873033046722 -0.0954541563987732 -1.8117623403668404E-4 -0.13821649551391602 0.08265625685453415 -0.354094535112381 0.11085010319948196 -0.1259743720293045 -0.142464280128479 0.06655175983905792 0.22474388778209686 0.3284226059913635 0.04518834128975868 -0.34181493520736694 0.013918779790401459 -0.022191304713487625 -0.11413884907960892 0.1772163063287735 -0.0672680214047432 0.10780047625303268 -0.053146615624427795 -0.2307182252407074 -0.31112587451934814 0.017611507326364517 -0.12235984951257706 -0.019357943907380104 0.09247015416622162 -0.008707044646143913 0.1831578016281128 -0.043161459267139435 -0.38009899854660034 -0.21433977782726288 -0.06351641565561295 -0.06105443462729454 0.13310803472995758 0.1354627162218094 0.15613535046577454 -0.08307996392250061 0.20526538789272308 0.1937953680753708 -0.0812842845916748 -0.23232364654541016 -0.26659104228019714 -0.06844095885753632 -0.011934708803892136 -0.3149156868457794 0.27940335869789124 -0.07502657920122147 0.4000716805458069 0.21954317390918732 0.43940627574920654 -0.03569883108139038 -0.2211495190858841 0.18126536905765533 -0.47621795535087585 -0.06912696361541748 0.14219455420970917 0.08909478783607483 -0.2120124250650406 0.3112702965736389 -0.011531827971339226 0.17769692838191986 0.01818070374429226 0.12097437679767609 -0.0075154793448746204 0.3046826422214508 0.054683927446603775 -0.14494673907756805 -0.11484591662883759 -0.04816703125834465 -0.2971610724925995 0.09861619770526886
then -0.085689976811409 0.09060128033161163 0.20116375386714935 -0.028890060260891914 -0.028688212856650352 -0.10531444102525711 -0.15746362507343292 0.15606176853179932 -0.35309216380119324 -0.11313168704509735 0.04749544709920883 0.1429392397403717 -0.23969069123268127 0.22043009102344513 0.1129087433218956 -0.13693737983703613 -0.04635321721434593 0.060737207531929016 0.07713787257671356 0.12277229875326157 0.13887937366962433 -0.11465661227703094 0.08112139254808426 0.11452944576740265 -0.28367796540260315 -0.15485195815563202 0.13974687457084656 -0.18977494537830353 0.06717733293771744 0.05550629273056984 -0.17108626663684845 -0.030124632641673088 0.026418251916766167 0.03346654400229454 -0.06782122701406479 -0.06436417996883392 -0.11526444554328918 0.03584165498614311 0.13738928735256195 -0.24157708883285522 0.03147698938846588 -0.3012982904911041 -0.1401767134666443 -0.06593633443117142 -0.11671203374862671 -0.12322912365198135 0.4179188311100006 -0.06442546844482422 -0.014917895197868347 0.030095448717474937 0.08977337926626205 -0.19823144376277924 0.2530803382396698 -0.15809765458106995 0.07196030020713806 -0.004365826025605202 -0.1370219588279724 0.03998533636331558 0.17958180606365204 -0.027521099895238876 -0.35899755358695984 0.04298907890915871 0.051989346742630005 -0.21908746659755707 0.011182805523276329 -0.5657108426094055 0.16649004817008972 0.13003790378570557 0.01040100958198309 -0.15006257593631744 0.056327901780605316 -0.08256879448890686 -0.10665901005268097 -0.22056269645690918 0.07136020809412003 0.0561661534011364 -0.056480083614587784 -0.09251577407121658 -0.08569825440645218 0.23621594905853271 -0.06380460411310196 0.06643666326999664 0.13311806321144104 -0.11029662191867828 0.17437702417373657 -0.032767049968242645 -0.23423326015472412 -0.048212286084890366 -0.23937059938907623 -0.25391122698783875 0.24025453627109528 0.08717133849859238 0.07523861527442932 0.2494196742773056 -0.1590818464756012 0.14616289734840393 0.15943624079227448 0.09427905827760696 -0.08852420747280121 -0.29207509756088257
court -0.16543026268482208 0.07987356930971146 0.04913688823580742 -0.028130335733294487 0.14458107948303223 0.06677595525979996 -0.0913408175110817 -0.22355683147907257 0.20088884234428406 0.20638889074325562 0.15008923411369324 -0.3212219476699829 0.13334469497203827 -0.07760039716959 -0.11906784027814865 -0.09586010873317719 -0.18035024404525757 0.14903739094734192 0.05146320164203644 0.10293548554182053 0.15359094738960266 0.045333269983530045 -0.031144123524427414 0.049590978771448135 -0.06305044889450073 -0.0997430831193924 -0.03871834650635719 0.08318423479795456 -0.12811359763145447 0.024131469428539276 0.1293967068195343 -0.12246246635913849 -0.025779560208320618 -0.22224025428295135 0.026530297473073006 0.29862210154533386 -0.14365117251873016 -0.19359900057315826 0.11496356874704361 -0.035293471068143845 0.07620255649089813 -0.09081904590129852 0.08616308867931366 0.06767778098583221 0.22924117743968964 0.07048951834440231 -0.08155802637338638 -0.2387230396270752 0.11304742842912674 -0.09236655384302139 0.13008630275726318 0.10981355607509613 0.10806838423013687 -0.10893907397985458 0.047436777502298355 0.09392359107732773 0.10174502432346344 -0.05773826315999031 0.04335586354136467 0.06646724790334702 -0.10553969442844391 -0.036495938897132874 -0.07026863843202591 -0.139080211520195 -0.12038128823041916 -0.1407945603132248 0.045251358300447464 0.20425786077976227 -0.018657391890883446 0.23918485641479492 -0.28001269698143005 0.021403688937425613 -0.10559963434934616 -0.041316691786050797 0.06899388879537582 0.03987588733434677 -0.1729779839515686 0.07165250927209854 0.11061292141675949 0.2744571268558502 -0.010297859087586403 -0.0522104948759079 0.15486116707324982 -0.20074006915092468 -0.06796187162399292 0.1054820567369461 0.18631677329540253 0.002659645862877369 0.34168171882629395 -0.26061752438545227 0.013878824189305305 0.012084558606147766 0.1739255040884018 -0.16753681004047394 -0.12756508588790894 0.06677073240280151 0.06537687033414841 0.2132072001695633 0.21310581266880035 -0.10411174595355988
an -0.47212499380111694 -0.19865959882736206 0.1682072877883911 -0.10218867659568787 -0.13851965963840485 -0.2293110191822052 -0.23613660037517548 -0.03769765421748161 0.03220422565937042 0.22694021463394165 -0.17805658280849457 -0.031968701630830765 0.09548278898000717 0.10018880665302277 0.012167755514383316 -0.08317423611879349 0.06056571006774902 -0.037412989884614944 0.018429206684231758 0.18995608389377594 0.09586894512176514 0.025676541030406952 0.18908675014972687 -0.09976048767566681 -0.08712020516395569 -0.07824090868234634 0.21439337730407715 0.0856589749455452 0.03782815486192703 0.012681656517088413 -0.0932157039642334 -0.1797691434621811 0.21116723120212555 -0.17214487493038177 -0.15231221914291382 -0.03710104525089264 -0.13761401176452637 -0.01881486363708973 0.20185250043869019 -0.00904011633247137 0.06497137248516083 -0.11161475628614426 -0.010567236691713333 -0.09000664949417114 -0.0029234876856207848 -0.2602715790271759 -0.2429523915052414 -0.08899816870689392 0.3332141041755676 -0.16354361176490784 -0.08884166181087494 -0.07968824356794357 -0.09671267122030258 -0.032287415117025375 -0.06327575445175171 -0.1253824084997177 -0.06129426881670952 0.04158893600106239 -0.019949451088905334 0.14409831166267395 0.03309507295489311 0.22204649448394775 -0.06925889849662781 0.13306856155395508 0.03966663405299187 0.05246042460203171 0.06085352227091789 -0.031741123646497726 -0.1608629673719406 -0.11026463657617569 -0.023441338911652565 0.10602729022502899 0.08258922398090363 0.017446957528591156 -0.07395309954881668 -0.02421918883919716 -0.0403577983379364 0.2658121883869171 0.08387243002653122 -0.10093343257904053 -0.01990521512925625 -0.047814082354307175 -0.05824488773941994 -0.05157075449824333 0.18749840557575226 -0.1514613777399063 -0.011648803018033504 0.040814921259880066 0.14829877018928528 -0.04428274184465408 0.20437780022621155 0.038538943976163864 0.1808021366596222 -0.1307491958141327 0.14518524706363678 0.04524056613445282 0.20568744838237762 0.39523088932037354 0.1812392920255661 -0.15689408779144287
- -0.09017320722341537 0.01133208628743887 0.033342767506837845 -0.07374176383018494 -0.10591864585876465 -0.01287039089947939 -0.06209244206547737 0.027317272499203682 -0.10566913336515427 0.046743642538785934 0.014561018906533718 -0.0328206792473793 -0.22333940863609314 0.014859138987958431 0.010991410352289677 -0.03822581097483635 -0.028879905119538307 -0.06648151576519012 -0.05085550248622894 -0.06411338597536087 0.004629605449736118 -0.0640176385641098 0.05220949649810791 -0.096756711602211 -0.01650995761156082 0.01884789578616619 0.1102219745516777 -0.12772567570209503 -0.08945375680923462 0.020038776099681854 0.02800777740776539 -0.09112890064716339 0.06376112252473831 -0.08266667276620865 -0.031365904957056046 -0.02471446432173252 -0.09214287251234055 0.013341196812689304 0.07842879742383957 -0.08178091794252396 0.03901277482509613 -0.055220335721969604 0.006779723800718784 0.024747371673583984 0.09180247038602829 -0.06850934773683548 -0.08675278723239899 -0.07751669734716415 0.05682288482785225 0.023445362225174904 -0.028225040063261986 0.01758686825633049 0.0322561077773571 -0.06621455401182175 -0.004869482479989529 -0.004828114993870258 -0.06167178228497505 0.09010106325149536 -0.00720791844651103 -0.017232878133654594 -0.037281349301338196 -0.011832371354103088 -0.06944037973880768 0.020629500970244408 0.041012827306985855 -0.15032877027988434 0.09532242268323898 -0.049432121217250824 -0.03735950589179993 0.01879681460559368 0.044585928320884705 -0.06063731759786606 0.017575159668922424 0.014443779364228249 0.051153555512428284 -0.04313957318663597 -0.0431235134601593 0.10117551684379578 0.008489159867167473 0.0030790152959525585 -0.164046049118042 -0.03935671225190163 0.014014579355716705 -0.11967375874519348 0.006528742145746946 -0.0748729258775711 -0.03824228048324585 0.02852029912173748 0.012005200609564781 -0.06370047479867935 0.01155492290854454 0.017740877345204353 0.023742256686091423 -0.10272151976823807 -0.034381888806819916 0.07162705063819885 -0.042590223252773285 0.16764570772647858 -0.08740635216236115 -0.07190453261137009
each -0.17747762799263 0.008478649891912937 0.3452451527118683 0.0356869213283062 -0.23087044060230255 0.2185850292444229 -0.1009916365146637 0.09975169599056244 0.12772922217845917 0.09080501645803452 -0.14720533788204193 -0.3255407512187958 0.016749007627367973 0.1550069898366928 -0.37364432215690613 0.19185014069080353 -0.3551470637321472 -0.0703326016664505 -0.21915854513645172 -0.25589117407798767 -0.03745707869529724 -0.2737926244735718 0.3693925440311432 0.23349174857139587 0.2792697250843048 -0.18598546087741852 0.11023250222206116 0.04978581517934799 -0.024978328496217728 -0.4509734511375427 -0.06751974672079086 -0.30481162667274475 0.07512370496988297 -0.21888573467731476 -0.024410439655184746 -0.26069915294647217 -0.15030299127101898 0.25551435351371765 0.438429057598114 0.07089044153690338 -0.1921866536140442 0.1963844895362854 -0.08697611838579178 -0.28305819630622864 0.2843158543109894 0.016188930720090866 -0.0569537952542305 0.1191839873790741 0.38525646924972534 -0.006909281946718693 -0.1086302250623703 -0.25110411643981934 -0.4083574712276459 0.0991067886352539 -0.3760818839073181 -0.23818141222000122 -0.07636145502328873 0.23116563260555267 -0.001648973091505468 -0.11650876700878143 -0.09740663319826126 -0.0941166877746582 0.01816554367542267 0.20117340981960297 -0.14703652262687683 -0.06260250508785248 0.42478489875793457 0.282833456993103 0.10117549449205399 -0.10000430047512054 -0.30293601751327515 -0.34444189071655273 -0.15735960006713867 -0.24933575093746185 0.004620708059519529 -0.005231705494225025 0.20597749948501587 -0.040001995861530304 0.25546857714653015 -0.0036745741963386536 -0.07588232308626175 0.17146871984004974 -0.20216262340545654 -0.268180787563324 0.3562390208244324 0.16222985088825226 0.22065310180187225 0.4086447060108185 0.37598899006843567 0.1869439333677292 0.25881314277648926 -0.05108538642525673 0.09306949377059937 0.02871045470237732 0.21095839142799377 0.37487292289733887 0.23012344539165497 -0.1542615294456482 -0.10191759467124939 0.5458924174308777
former -0.033717378973960876 0.01825510896742344 0.0026097840163856745 -0.041335329413414 -0.021920794621109962 -0.04806487262248993 0.022916296496987343 0.04283520579338074 0.007828261703252792 0.05691611021757126 -0.04482215270400047 -0.012866156175732613 -0.04020701348781586 0.02325374074280262 -0.008147379383444786 -0.005847441963851452 -0.036231838166713715 0.04763888195157051 0.034707069396972656 -0.028381936252117157 0.013753951527178288 -0.02149301953613758 -0.01946120336651802 -0.036367569118738174 0.019700603559613228 0.06316814571619034 -0.009953619912266731 -0.011227717623114586 -0.014767454005777836 -0.007948989048600197 0.0359824001789093 -0.026297731325030327 -0.010896237567067146 -0.03086068481206894 -0.012890733778476715 0.051394786685705185 -0.056299757212400436 -0.005431364290416241 0.007009559776633978 0.011405707336962223 0.03918150067329407 0.028769230470061302 -0.025483274832367897 -0.005002806428819895 0.0713738352060318 0.01797395944595337 -0.03199208900332451 -0.04015986993908882 0.059211477637290955 0.0010485019301995635 0.006924027111381292 -0.034545060247182846 0.0014582814183086157 -0.045292723923921585 -0.03921616077423096 -0.037628620862960815 -0.0018050031503662467 0.029136087745428085 -0.017512833699584007 0.016108514741063118 0.004038738552480936 0.010500798001885414 -0.04308396577835083 0.0174415223300457 -0.04386025667190552 -0.04397257789969444 0.029430054128170013 -0.020320992916822433 0.017579691484570503 0.05814044922590256 -0.05685853958129883 0.057976629585027695 -0.015771597623825073 0.012102469801902771 0.023385174572467804 -0.0036467339377850294 -0.08214310556650162 0.02684321440756321 -0.01596355251967907 0.023343045264482498 -0.039986737072467804 0.01900363154709339 0.013271219097077847 -0.06141706556081772 0.020288899540901184 0.005224894732236862 0.049970049411058426 0.01632140763103962 5.055309156887233E-4 -0.0362839438021183 -0.08119338005781174 -0.013163424097001553 0.060888081789016724 -0.03871294483542442 -0.012584508396685123 0.02925349771976471 -0.037143900990486145 0.06372257322072983 -0.013618643395602703 -0.010028859600424767
as -0.14236921072006226 0.30428701639175415 -0.028844615444540977 -0.15895749628543854 0.12525483965873718 0.05086114630103111 0.1076640635728836 0.04873216152191162 0.29294952750205994 0.23120637238025665 0.19926786422729492 0.07076310366392136 -0.1962936818599701 -0.21974781155586243 0.11382561177015305 0.10937394201755524 0.20440573990345 9.976888541132212E-4 0.0545060858130455 0.28270694613456726 0.14465142786502838 0.32924124598503113 0.41453662514686584 -0.3661947548389435 0.460218220949173 -0.22826990485191345 0.09206975251436234 -0.04944372922182083 0.005003799218684435 -0.08961278945207596 0.10818096250295639 0.07443071156740189 -0.021089421585202217 -0.09162899851799011 -0.14627514779567719 0.17647784948349 0.05453016236424446 0.1499677151441574 0.15411871671676636 0.18094971776008606 -0.5492050051689148 0.08238911628723145 -0.19711412489414215 -0.20107817649841309 -0.07202757894992828 -0.2091352492570877 -0.6153228878974915 -0.24611280858516693 -0.09451316297054291 -0.1286361664533615 0.007029468193650246 0.29502490162849426 -0.32125890254974365 0.0542018748819828 0.05871906131505966 -0.16086317598819733 0.16488026082515717 -0.08469788730144501 0.19973541796207428 -0.05878877639770508 0.2946469783782959 -0.12691262364387512 -0.010402854532003403 0.0712062269449234 0.3245407044887543 -0.22292611002922058 -0.23499932885169983 0.006970908958464861 -0.23608162999153137 -0.006084690801799297 0.13395920395851135 -0.44770193099975586 -0.035290010273456573 -0.30031782388687134 0.053415220230817795 -0.22562319040298462 -0.22882302105426788 0.3466801345348358 -0.31517738103866577 -0.2239891141653061 -0.04007529094815254 0.28489407896995544 0.04060836136341095 -0.13888274133205414 -0.1873151957988739 0.19531016051769257 0.5496870279312134 0.34395110607147217 -0.47812092304229736 0.020040562376379967 -0.4160296320915222 -0.1335611194372177 0.09788151830434799 -0.07284779846668243 0.018162742257118225 0.1316327601671219 -0.23495250940322876 -0.2989552915096283 -0.2810923457145691 -0.043118275701999664
at 0.17336437106132507 0.2795112431049347 0.4058225452899933 0.0781942829489708 -0.11848653107881546 -0.25768834352493286 -0.1865392029285431 0.1935383677482605 0.043539561331272125 -0.11696553230285645 -0.030358584597706795 -0.10279662162065506 -0.2760077714920044 -0.015329503454267979 -0.07349584996700287 0.06823676824569702 0.3079431653022766 -0.25133875012397766 0.18134088814258575 0.3547224998474121 -0.2644915282726288 0.021349411457777023 -0.05468039587140083 -0.1397741436958313 0.18113675713539124 0.02718517929315567 -0.2270965576171875 0.1917816400527954 -0.14144492149353027 -0.1774432510137558 0.24578291177749634 -0.27453750371932983 -0.15513302385807037 -0.0683555081486702 0.18072570860385895 0.26785755157470703 0.009908456355333328 0.2633618116378784 0.5507216453552246 -0.32596492767333984 0.4472911059856415 -0.013693636283278465 -0.533768355846405 0.018603580072522163 0.08908487856388092 0.08459640294313431 0.09804070740938187 -0.5765844583511353 0.033977556973695755 0.2044336348772049 -0.004699263256043196 -0.22042351961135864 -0.4036629796028137 -0.20145314931869507 -0.07667383551597595 -0.5333710312843323 0.06755895912647247 -0.018747743219137192 -0.13774621486663818 -0.01914704032242298 -0.15441736578941345 0.002221730537712574 0.12776857614517212 0.03435378149151802 -0.12658445537090302 0.05245493724942207 0.3360385000705719 0.16379070281982422 0.019068095833063126 -0.07400664687156677 -0.09741507470607758 -0.010409812442958355 0.22164124250411987 -0.017684191465377808 0.20224478840827942 0.36867982149124146 0.05590543895959854 -0.033890221267938614 -0.15416109561920166 -0.42998605966567993 -0.3632965683937073 -0.19075793027877808 -0.2515595555305481 -0.5966939926147461 0.10793249309062958 0.36903682351112366 -0.16192205250263214 -0.1257036030292511 0.12689600884914398 -0.14609138667583466 0.03437886759638786 0.18370749056339264 -0.07622969895601273 0.3578343987464905 -0.09673779457807541 0.1718168556690216 0.04936905950307846 0.06593801081180573 -0.17603355646133423 -0.0200395118445158
left 0.11851394176483154 -0.08666632324457169 0.01879173144698143 -0.20057299733161926 -0.059153880923986435 -0.3835153877735138 0.06511995196342468 -0.03035896271467209 -0.030815334990620613 0.2721446752548218 -0.06302408128976822 -0.009233985096216202 -0.24011991918087006 -0.2197350114583969 -0.20373652875423431 0.009072354063391685 -0.07546131312847137 0.09338676929473877 -0.0664166510105133 -0.17485855519771576 -0.027387091889977455 -0.13325899839401245 -0.07419692724943161 -0.045201849192380905 -0.24941277503967285 -0.08967238664627075 0.05392394959926605 -0.18324604630470276 -0.18230049312114716 0.1927604079246521 0.015568042173981667 -0.32258686423301697 -0.12127728015184402 -0.16256575286388397 0.15192840993404388 0.0035472996532917023 -0.1453908085823059 -0.21361170709133148 -0.043118782341480255 -0.0013609309680759907 -0.09800945222377777 -0.05506611242890358 0.07570920139551163 -0.08864051848649979 0.02987038344144821 0.009992227889597416 0.04769784212112427 0.05964158847928047 0.09349530935287476 -0.005167781841009855 0.04907000809907913 -0.22847507894039154 0.09158212691545486 -0.34938502311706543 -0.25011134147644043 -0.13260656595230103 -0.008815720677375793 0.25985607504844666 -0.24901315569877625 0.1605573445558548 -0.05534021556377411 0.08771997690200806 -0.26709863543510437 -0.3274190425872803 0.20772966742515564 -0.22430096566677094 0.19853061437606812 -0.009526954963803291 -0.3112677335739136 -0.19243277609348297 0.12690888345241547 0.07796359807252884 0.2834630608558655 0.0041976673528552055 0.10875263810157776 -0.0629609152674675 -0.1267642229795456 -8.51572840474546E-4 -0.05976484715938568 0.18026383221149445 0.1101730540394783 -0.1317020058631897 -0.1552373170852661 -0.1572636216878891 -0.2065802663564682 -0.17323780059814453 0.06155622377991676 -0.11782052367925644 -0.1733388751745224 -0.14811961352825165 0.05526706576347351 0.2590401768684387 -0.26098063588142395 -0.12117995321750641 0.06163362041115761 0.12911741435527802 0.008617721498012543 0.08983798325061798 -0.10017820447683334 0.14139559864997864
much 0.016632873564958572 0.3097182810306549 0.372285395860672 0.9089383482933044 -0.2825925350189209 -0.40351784229278564 -0.2906394898891449 -0.26025453209877014 0.0504838265478611 0.2713809609413147 0.02501952089369297 -0.008794695138931274 0.08538290858268738 -0.13272753357887268 -0.01907392032444477 -0.12657195329666138 -0.08525553345680237 -0.10323625057935715 -0.34838637709617615 -0.3318188786506653 -0.1957182139158249 0.06400430202484131 -0.03433387354016304 0.43646734952926636 0.11711631715297699 -0.26721280813217163 -0.007462888024747372 -0.31138429045677185 -0.21583598852157593 -0.12123948335647583 0.005243347957730293 -0.16663573682308197 0.1567845344543457 -0.29432886838912964 0.26224252581596375 -0.4964929223060608 0.44051459431648254 -0.022971494123339653 -0.04925788193941116 -0.14666813611984253 -0.061631228774785995 -0.1965765655040741 0.09429316222667694 -0.061690349131822586 -0.13412201404571533 0.03177327290177345 0.22973473370075226 0.07442417740821838 0.40500861406326294 -0.09373443573713303 -0.23142725229263306 0.1880561262369156 0.2870355248451233 -2.636779972817749E-4 0.4631202518939972 0.1498633772134781 -0.18488630652427673 0.2666494846343994 -0.4135889708995819 0.23899847269058228 -0.3172321915626526 -0.04506126791238785 0.21760563552379608 0.09540443867444992 0.10875453799962997 0.3735203444957733 -0.036445923149585724 0.02893759310245514 -0.1977711021900177 -0.25291234254837036 0.0028747827745974064 0.2675777077674866 0.05617481470108032 0.1145906075835228 -0.25177887082099915 -0.09493903815746307 -0.16367793083190918 -0.06679662317037582 0.22795982658863068 -0.3208353519439697 0.1591869294643402 -0.052802152931690216 0.13762961328029633 0.39872509241104126 0.12074290215969086 -0.1543555110692978 0.07679896056652069 -0.21148112416267395 0.013355206698179245 0.30407097935676575 -0.11033830046653748 0.06707050651311874 -0.21137097477912903 -0.43472567200660706 0.3215847313404083 -0.45656242966651917 -0.3268619477748871 -0.34024521708488464 -0.007333905436098576 0.22887076437473297
be 0.05829140916466713 -0.016611745581030846 -0.1310274600982666 -0.30521342158317566 -0.004688686691224575 -0.2987831234931946 0.14460711181163788 -0.1573978066444397 0.1366654485464096 -0.01843429170548916 0.16914311051368713 -0.19870544970035553 0.43975383043289185 0.12435547262430191 0.26795923709869385 -0.020231114700436592 -0.36670106649398804 -0.025811079889535904 0.07129646092653275 0.5302063822746277 -0.056328631937503815 0.17990919947624207 -0.02301693893969059 -0.11393557488918304 0.044481709599494934 0.35168078541755676 -0.15636061131954193 0.3876425623893738 -0.007574878167361021 0.10673242807388306 0.13798588514328003 -0.1781686395406723 0.09517194330692291 -0.159030944108963 -0.07524650543928146 -0.11508579552173615 -0.31823620200157166 -0.09273280203342438 0.09561483561992645 -0.09161011874675751 -0.20956555008888245 0.3450719714164734 -0.4098128080368042 -0.18204529583454132 -0.001921993913128972 -0.13089905679225922 -0.27796313166618347 0.04467778652906418 -0.10199261456727982 0.056384243071079254 -0.04223279654979706 0.10832210630178452 -0.031873103231191635 0.1177411675453186 0.30557379126548767 0.05852445587515831 0.07101210951805115 -0.18841423094272614 -0.21276433765888214 -0.08886897563934326 -0.30682674050331116 -0.08083683252334595 0.3362823724746704 0.07020355761051178 0.28222596645355225 0.3511349558830261 0.06952007114887238 0.13611961901187897 -0.34615451097488403 0.11807122081518173 -0.07179008424282074 0.18401992321014404 0.20157279074192047 0.1613394320011139 -0.3755320608615875 -0.19672277569770813 0.16773100197315216 -0.06889205425977707 0.23291268944740295 -0.010544749908149242 0.3601738512516022 -1.4946854207664728E-4 -0.1527058333158493 -0.023844873532652855 -0.06057511642575264 -0.17310963571071625 0.2776249051094055 0.18184152245521545 -0.4670529067516327 0.01611313968896866 0.10701877623796463 0.14002425968647003 -0.12110228091478348 -0.2932017743587494 0.12609392404556274 -0.057573892176151276 0.2693137228488922 0.454799085855484 -0.12346881628036499 -0.07678396254777908
another 0.047224562615156174 0.1358012706041336 -0.04299091175198555 -0.16380926966667175 -0.059682175517082214 -0.18251097202301025 0.029418576508760452 -0.030625751242041588 -0.14474374055862427 -0.23002897202968597 -0.18959173560142517 -0.030195368453860283 0.1545703411102295 0.17307259142398834 0.20075681805610657 -0.27575990557670593 -0.13664236664772034 0.06416734308004379 -0.28527408838272095 -0.14557874202728271 0.20312000811100006 0.21004727482795715 0.2050531655550003 -0.005303687881678343 0.030538400635123253 -0.2098712921142578 0.46793702244758606 -0.00995147880166769 0.0025624462869018316 0.1435060352087021 -0.2126552015542984 -0.31396543979644775 0.05827520042657852 0.32654979825019836 -0.07184305042028427 -0.12107878923416138 -0.4348537027835846 -0.11234775185585022 0.028395818546414375 0.07813595235347748 0.2967971861362457 -0.20511257648468018 0.035430535674095154 -0.25580543279647827 0.23693975806236267 -0.3521419167518616 -0.11744837462902069 0.12003729492425919 0.3276980519294739 -0.26815563440322876 -0.029674241319298744 -0.13552330434322357 -0.20244581997394562 -0.1575203239917755 -0.15593507885932922 0.17567318677902222 0.13594357669353485 0.16420765221118927 0.03353400528430939 -0.02594791352748871 4.484253440750763E-5 -0.20571856200695038 -0.2926045060157776 0.17785407602787018 0.10121572017669678 0.025541340932250023 0.15247541666030884 0.13886848092079163 -0.1578129082918167 0.07526973634958267 -0.029739582911133766 0.12334002554416656 -0.09430303424596786 0.5248138308525085 -0.1279013752937317 -0.29941919445991516 -0.01826910488307476 0.11656550318002701 -0.2928074598312378 0.20443286001682281 -0.06722622364759445 0.04437514767050743 -0.2633875608444214 -0.12438998371362686 0.06512290984392166 0.03779780492186546 -0.12825947999954224 0.31203341484069824 0.02137923613190651 0.04856377840042114 -0.03986376151442528 0.022500883787870407 0.08639135211706161 0.10290876030921936 -0.00890874769538641 -0.25200769305229187 -0.27897655963897705 0.4991644620895386 0.32238271832466125 -0.11153946071863174
two 0.2697632908821106 -0.08444438874721527 -0.010013256222009659 -0.37974798679351807 -0.28199753165245056 -0.14360156655311584 0.24550609290599823 0.44196853041648865 0.02285400591790676 0.7255734801292419 -0.1361551284790039 -0.14790958166122437 -0.38739079236984253 -0.029183026403188705 -0.1539638638496399 -0.161682590842247 -0.1408022791147232 0.2310892641544342 -0.10580188781023026 -0.36517128348350525 0.24649678170681 -0.290395051240921 -0.09718233346939087 -0.015881313011050224 -0.13838252425193787 0.008290709927678108 0.3845793306827545 -0.40513134002685547 -0.3994888663291931 -0.10428238660097122 -0.1457674652338028 -0.5453121662139893 -0.21846458315849304 -0.40143099427223206 -0.07670356333255768 -0.34713515639305115 -0.26216647028923035 -0.27115872502326965 0.34511083364486694 0.1493251919746399 -0.15312102437019348 -0.04047607257962227 0.05014314129948616 -0.14983288943767548 -0.029092036187648773 -0.3207537531852722 -0.2215057909488678 -0.09792839735746384 0.2151573896408081 -0.25263163447380066 0.23811782896518707 -0.12470109760761261 -0.018372822552919388 -0.3799079954624176 -0.2593490481376648 0.3182348310947418 0.0701942965388298 -0.1229708269238472 -0.06577114015817642 -0.6029441356658936 -0.2630196809768677 -0.15716925263404846 -0.170276939868927 0.00626414455473423 0.2024616003036499 -0.38125526905059814 0.2569514513015747 0.15842357277870178 -0.18506838381290436 -0.27101629972457886 -0.2677142322063446 -0.4235212802886963 -0.018211551010608673 0.24390871822834015 0.11140549927949905 -0.004406908061355352 0.04668339341878891 -0.05501770228147507 -0.1435137838125229 0.27607491612434387 -0.3730986416339874 -0.04890614002943039 -0.0058040255680680275 -0.4500035345554352 -0.15074938535690308 -0.06518933922052383 0.10863040387630463 0.23896470665931702 -0.10667983442544937 -0.09544523060321808 -0.06384281069040298 0.2510121464729309 -0.21028980612754822 -0.051569901406764984 -0.005320979747921228 0.1751897633075714 -0.17887748777866364 0.2806929051876068 0.32110175490379333 0.05712553486227989
long -0.34419381618499756 -0.15523655712604523 0.3040126860141754 0.542975902557373 -0.6099939942359924 -0.2236592322587967 0.003085834439843893 -0.16650134325027466 -0.14689290523529053 -0.11165347695350647 0.37865743041038513 -0.04871058091521263 -0.03326072543859482 0.302827388048172 0.07086940109729767 -0.08270745724439621 0.2745741009712219 -0.1516585499048233 0.005864805541932583 0.08034572005271912 0.2012098878622055 0.5793660879135132 0.05131828039884567 -0.327995240688324 -0.12356741726398468 -0.01043725572526455 -0.04026718810200691 -0.36751312017440796 -0.2591361701488495 0.09191969782114029 -0.005623472388833761 -0.19352063536643982 0.6363304853439331 -0.05465206503868103 -0.0592697374522686 0.044772855937480927 -0.13695421814918518 0.14237889647483826 -0.045046791434288025 -0.33884042501449585 -0.13642027974128723 -0.5106449723243713 -0.04027548059821129 -0.19982267916202545 -0.311806321144104 -0.04880146309733391 -0.1699558049440384 0.09611345082521439 0.2685830891132355 -0.192773699760437 0.19537056982517242 -0.0630636066198349 0.011427272111177444 -0.3233293294906616 0.32041922211647034 0.14014127850532532 0.07414329797029495 -0.5495345592498779 -0.628966748714447 -0.4958782494068146 -0.3830510973930359 0.12361820787191391 -0.018090538680553436 0.9262041449546814 0.384567528963089 0.28961101174354553 0.484676718711853 -0.07687925547361374 -0.31109216809272766 0.33392804861068726 0.029259582981467247 -0.1303507536649704 0.3623366057872772 0.3912343680858612 0.08781334012746811 0.16764044761657715 -0.09407614171504974 0.1918652504682541 -0.2671348452568054 -0.32544851303100586 0.20382216572761536 -0.37625962495803833 0.4388812184333801 0.1933388113975525 -0.36516430974006653 -0.00983402132987976 0.13007882237434387 -0.026068825274705887 0.11674415320158005 -0.006941656116396189 0.3757758140563965 -0.23307646811008453 -0.29501840472221375 -0.1369294673204422 -0.1806790977716446 -0.3898077607154846 0.068829745054245 -0.04468251392245293 0.7091253399848938 0.011670231819152832
into -0.11404351890087128 0.16882841289043427 -0.0973135381937027 -0.02691454067826271 0.11681026965379715 0.23937870562076569 -0.06868436932563782 -0.06161249056458473 0.06661967933177948 -0.1357858031988144 0.23860131204128265 0.07170750200748444 0.12715402245521545 -0.05534332990646362 0.07854104787111282 -0.16002875566482544 0.19664333760738373 -0.0036846157163381577 -0.1437409520149231 0.187327578663826 0.1704540103673935 -0.06793806701898575 0.23660582304000854 -0.01968628168106079 0.09608129411935806 0.024748682975769043 0.39001354575157166 -0.02502002753317356 9.020090219564736E-4 0.12466763705015182 -6.356655503623188E-4 -0.1625349074602127 0.04932612553238869 -0.014870424754917622 -0.030968036502599716 -0.013788214884698391 -0.1016853079199791 -0.006103266030550003 0.18217729032039642 0.31163111329078674 0.15092556178569794 -0.24234910309314728 -0.2289453148841858 -0.06629548221826553 -0.03728368878364563 -0.033234838396310806 -0.012428591027855873 -0.07320373505353928 -0.10338239371776581 -0.08539339154958725 0.2861919403076172 0.12739627063274384 -0.06368692964315414 -0.10580538958311081 -0.09555181115865707 -0.20688371360301971 -0.10114606469869614 -0.21228234469890594 0.043833307921886444 -0.18318819999694824 0.18122553825378418 0.18602371215820312 0.03908323496580124 0.07081865519285202 -0.03605885058641434 0.0889597088098526 -0.08285412937402725 0.08648783713579178 -9.204769157804549E-4 -0.17199797928333282 0.029710296541452408 0.05205795541405678 -0.1042923852801323 0.11614926904439926 0.2517566382884979 0.003310218919068575 0.16760693490505219 -0.12056992202997208 0.3273352384567261 0.07848312705755234 0.012043456546962261 -0.08865276724100113 -0.04424058273434639 -0.036850910633802414 0.07541606575250626 0.08984741568565369 0.01848120056092739 -0.15788476169109344 0.047852881252765656 -0.0625944659113884 0.013056296855211258 -0.11809363216161728 0.09776836633682251 0.18476085364818573 -0.08277076482772827 0.04958480969071388 -0.004817233420908451 0.28556007146835327 0.38378313183784485 -0.09530958533287048
how -0.3179074823856354 0.23651032149791718 0.3537590801715851 0.296906441450119 -0.029072757810354233 0.194516122341156 -0.20446690917015076 -0.08514474332332611 -0.1475955843925476 0.14730633795261383 0.29129308462142944 0.26196083426475525 -0.033451735973358154 -0.49899259209632874 0.43933939933776855 -0.17285402119159698 -0.014580129645764828 -0.43163102865219116 -0.25240132212638855 -0.2813281714916229 0.26173678040504456 -0.05083945766091347 0.2925051748752594 -0.13917620480060577 0.19034603238105774 -0.09702251851558685 0.06654991954565048 -0.1279575526714325 0.04010101780295372 -0.419027179479599 -0.31196337938308716 0.40894976258277893 0.19023650884628296 0.22013622522354126 -0.0949290320277214 0.1404079794883728 -0.073269322514534 0.22614191472530365 0.13730870187282562 0.29322782158851624 -0.18284226953983307 0.10577590018510818 -0.09860101342201233 -0.09626049548387527 0.0700213685631752 -0.15864883363246918 -0.45356285572052 0.10730510205030441 0.3986571729183197 0.16451087594032288 0.04965871199965477 0.16301654279232025 -0.050663456320762634 0.17343661189079285 0.05564768984913826 -0.3309175372123718 0.14703334867954254 0.10041041672229767 0.22628866136074066 -0.13829241693019867 0.13733342289924622 -0.0017914548516273499 0.1815403252840042 0.2199198603630066 0.2433653473854065 -0.14823909103870392 -0.5111110806465149 0.07068666815757751 0.16248171031475067 -0.18879781663417816 0.163395956158638 -0.3882182836532593 0.05855197459459305 -0.5733177661895752 -0.06081123650074005 -0.4182359278202057 -0.17409542202949524 -0.20762942731380463 0.04038136079907417 -0.027962390333414078 -0.11126221716403961 0.3397819399833679 0.08469094336032867 0.14569935202598572 0.2399938851594925 0.08131051808595657 0.0750136598944664 0.0581454336643219 -0.16544008255004883 0.07510094344615936 -0.040982116013765335 0.041140273213386536 -0.02445526234805584 -0.11875354498624802 -0.3315178155899048 -0.02988491952419281 0.13990429043769836 -0.06709649413824081 -0.2305830717086792 -0.2247217297554016
see 0.15793749690055847 0.23247678577899933 0.26828134059906006 0.2758154571056366 0.38810229301452637 0.2156282365322113 0.1977953463792801 -0.1525578498840332 0.061140276491642 -0.05305479094386101 0.21024616062641144 -0.006742818281054497 0.26787522435188293 0.06997666507959366 0.18368034064769745 0.039367370307445526 -0.01134640071541071 -0.16269215941429138 -0.051093362271785736 0.25621968507766724 0.11576928943395615 0.3039267957210541 0.5073233842849731 -0.05400490015745163 -0.2232460379600525 0.02184208668768406 0.15101245045661926 0.1380675584077835 -0.12023323029279709 0.0017377166077494621 0.08107386529445648 0.10081911832094193 -0.2749713659286499 -0.1695842742919922 -0.2658473551273346 0.02195923402905464 0.020028216764330864 -0.24191610515117645 0.06787628680467606 0.164691761136055 0.06924784183502197 0.2686423361301422 -0.12417827546596527 -0.03849271312355995 -0.21528971195220947 -0.004494642838835716 0.11255140602588654 0.028361093252897263 -0.11972519010305405 0.02454829402267933 0.1273002028465271 0.031200487166643143 -0.16983816027641296 0.02291485108435154 -0.09243305772542953 0.1648307740688324 -0.11930406838655472 -0.13911670446395874 -0.03384004533290863 0.08613298088312149 -0.001799741410650313 -0.11058900505304337 -0.2486990988254547 -0.07263360917568207 0.010892923921346664 0.18030545115470886 0.1815188229084015 -0.1703367382287979 -0.14435656368732452 -0.08166763931512833 0.3338586390018463 -0.07955840229988098 -0.09981650859117508 0.19763584434986115 0.001959000714123249 -0.32654574513435364 0.3509632647037506 -0.11621521413326263 0.22861896455287933 0.23103965818881989 -0.04338642209768295 0.027988217771053314 -0.025056064128875732 0.12500187754631042 0.1466536968946457 -0.22767286002635956 -0.16590289771556854 -0.4218014180660248 0.07460916042327881 -0.059936802834272385 0.022735068574547768 -0.20887771248817444 -0.23569071292877197 -0.026110051199793816 0.15811990201473236 -0.06739430129528046 0.06889603286981583 0.2982494533061981 -0.2553791105747223 -0.024511750787496567
found 0.3530908226966858 -0.10446106642484665 0.11945127695798874 -0.029947850853204727 -0.038129255175590515 -0.13743440806865692 -0.06348610669374466 0.018663523718714714 -0.06843982636928558 -0.118079774081707 -0.04045512154698372 0.04932354390621185 -0.15621457993984222 -0.05558639019727707 -0.10008981823921204 0.07950850576162338 0.0679018646478653 0.005886969622224569 -0.22560793161392212 -0.033350035548210144 -0.009678320959210396 -0.03532331809401512 0.1906317174434662 -0.16860972344875336 -0.2240058332681656 -0.412818044424057 -0.0726727694272995 0.1815013587474823 -0.19391509890556335 -0.09633699804544449 0.13510136306285858 -0.2976219952106476 0.07984727621078491 -0.07803676277399063 0.12909390032291412 0.2038779854774475 -0.17458690702915192 0.028271526098251343 -0.13044752180576324 -0.0051148454658687115 -0.1257644146680832 -0.027132045477628708 -0.1090984046459198 -0.27215343713760376 -0.18734954297542572 -0.005769762676209211 -0.044868677854537964 0.08768891543149948 -0.06289386749267578 0.06236105412244797 -0.10297862440347672 -0.3290424346923828 0.13460673391819 -0.11243263632059097 -0.3145618736743927 -0.1714106798171997 0.14416317641735077 0.19696806371212006 -0.016997821629047394 0.02142116241157055 0.11458204686641693 0.1567712277173996 -0.31943926215171814 -0.3055407702922821 0.2955859899520874 -0.03187982738018036 0.2912560999393463 0.048423197120428085 -0.052072230726480484 -0.024431675672531128 0.19266276061534882 0.0706716775894165 0.1550789475440979 0.17198726534843445 0.06418031454086304 0.04015826806426048 -0.17768558859825134 0.11115570366382599 -0.0530741885304451 0.2437244951725006 0.16217868030071259 0.0626458153128624 -0.07586152106523514 -0.044380735605955124 -0.23946774005889893 0.0012354295467957854 0.20880265533924103 -0.32811999320983887 -0.11017574369907379 -0.06901656836271286 0.16692879796028137 0.14106158912181854 -0.2999442517757416 -0.12385877221822739 0.062469232827425 0.013900240883231163 0.05699652060866356 0.03569744527339935 0.12361139804124832 0.09424012899398804
same 0.21842938661575317 0.32943055033683777 0.4718337655067444 0.07379431277513504 -0.2986871004104614 -0.2616889178752899 0.05006759241223335 -0.4339880347251892 0.12083586305379868 -0.08982381969690323 0.14426419138908386 0.0369427353143692 -0.21482110023498535 -0.08351221680641174 -0.06156841292977333 0.14861121773719788 0.2818756103515625 0.4363498091697693 0.39033401012420654 -0.11333438754081726 -0.04810459166765213 0.3352260887622833 -0.16823674738407135 -0.13072095811367035 0.2970770597457886 0.06805834919214249 0.010031018406152725 0.33368849754333496 -0.05343572050333023 -0.17875173687934875 0.2047593891620636 -0.21447493135929108 -0.39417046308517456 -0.3464811444282532 0.04437677562236786 0.16158625483512878 -0.523265540599823 -0.20382221043109894 0.04455333948135376 -0.09953835606575012 0.024640845134854317 0.04510220140218735 -0.015082172118127346 0.2629326283931732 0.29180219769477844 0.06623203307390213 0.037885747849941254 -0.15261298418045044 0.29891759157180786 -0.050499267876148224 0.02829642966389656 -0.11364351958036423 -0.27720412611961365 -0.40913936495780945 -0.13810013234615326 -0.0679263323545456 -0.24495960772037506 -0.06160539388656616 0.027377087622880936 -0.053570471704006195 0.09824438393115997 -0.07712791860103607 -0.28593578934669495 0.1363261193037033 -0.02938765101134777 -0.15100961923599243 0.3034529387950897 -0.22702063620090485 0.22838644683361053 0.40562576055526733 -0.48998206853866577 0.1794053167104721 0.025417011231184006 -0.16557370126247406 0.0374123752117157 -0.2655099034309387 -0.3193807005882263 -0.14903812110424042 0.4498140811920166 -0.250093549489975 0.025812221691012383 -0.3572358787059784 0.014058145694434643 0.0015496971318498254 -0.22117528319358826 -0.16338974237442017 0.3272632360458374 -0.03383195772767067 0.08443285524845123 -0.3556869626045227 -0.30664998292922974 0.2316717803478241 -0.04990284517407417 -0.09757355600595474 0.14092764258384705 0.11563350260257721 -0.08699047565460205 0.5102591514587402 0.24716632068157196 -0.02350332774221897
are -0.4155295193195343 -0.1258431375026703 0.22008177638053894 0.14484266936779022 -0.352538138628006 0.37658363580703735 0.06285972893238068 0.07939692586660385 0.15934081375598907 0.060459353029727936 0.06750940531492233 -0.6398500204086304 0.2815769612789154 0.17476022243499756 -0.2521940767765045 0.23275582492351532 0.07473080605268478 0.4096313714981079 0.40470436215400696 -0.42228177189826965 0.029107293114066124 -0.0900542214512825 0.14164623618125916 -0.10735347867012024 0.35429197549819946 0.021074892953038216 -0.20896296203136444 0.46433839201927185 -0.2998567223548889 -0.05427207425236702 0.13100995123386383 -0.12656822800636292 -0.2638280391693115 0.11684569716453552 -0.03883390128612518 -0.19471673667430878 0.13331948220729828 -0.04702756553888321 0.03256142884492874 0.22985287010669708 -0.3515070378780365 -0.13581427931785583 -0.22563159465789795 -0.41771334409713745 -0.28201958537101746 -0.19458907842636108 0.19619092345237732 0.3389528691768646 -0.1332847774028778 0.39594459533691406 -0.07863946259021759 0.17611682415008545 -0.13964933156967163 0.08258520066738129 0.509046733379364 0.08195411413908005 -0.3148750364780426 0.06716451048851013 0.32292431592941284 0.15865108370780945 -0.30764567852020264 0.210419163107872 -0.24177074432373047 -0.3670903742313385 -0.04541248083114624 -0.10669957846403122 0.23530398309230804 0.39011648297309875 -0.27093058824539185 -0.0626504197716713 -0.09127940237522125 -0.3116682171821594 -0.05446264520287514 -0.25255945324897766 0.08333666622638702 -0.06379809975624084 0.22700539231300354 -0.3150617778301239 0.1151982992887497 0.4607900381088257 1.8776007345877588E-4 -0.11796199530363083 -0.47394421696662903 0.31185176968574524 0.12244047224521637 -0.08087281137704849 0.12593838572502136 0.4322710335254669 -0.06963174045085907 0.13823777437210083 0.1459769308567047 0.23007813096046448 -0.1044665053486824 0.015227007679641247 -0.06255431473255157 -0.061392396688461304 -0.05326443165540695 -0.4435977041721344 -0.4184468388557434 -0.026860423386096954
does 0.15479810535907745 0.18423239886760712 0.06926316767930984 -0.21191561222076416 -0.07153230160474777 0.19544219970703125 0.12391329556703568 0.240989550948143 0.10785375535488129 -0.26813143491744995 -0.10899750143289566 0.4376605153083801 -0.036725688725709915 0.13790176808834076 -0.027599424123764038 -0.13842956721782684 0.29377540946006775 0.4045450687408447 0.14337585866451263 0.22962689399719238 -0.1713571548461914 0.0057590799406170845 0.05828898400068283 0.12431320548057556 0.21618595719337463 -0.26767754554748535 0.020871033892035484 0.16056939959526062 -0.5258098244667053 0.11406712234020233 0.14506052434444427 0.24936941266059875 0.3297919034957886 -0.2874276041984558 -0.08921607583761215 0.11302471905946732 -0.14454154670238495 0.5078786015510559 0.007134660612791777 0.06517131626605988 0.2718292474746704 0.05387028306722641 -0.06216457486152649 -0.19794966280460358 -0.2918734550476074 -0.11816816031932831 0.18192218244075775 -0.06317663937807083 0.04356823489069939 -0.4153676927089691 -0.10922214388847351 -0.38738393783569336 0.37410151958465576 -0.33717653155326843 0.18837298452854156 -0.4512869715690613 0.22506578266620636 0.02678993158042431 0.006943397223949432 -0.13720858097076416 0.2135189175605774 -0.09727773070335388 0.06223420798778534 0.045754626393318176 -0.5649558901786804 0.19749543070793152 -0.4443496763706207 0.13115249574184418 -0.17045660316944122 -0.3820648789405823 -0.143076553940773 -0.061428818851709366 -0.0361393466591835 0.06515965610742569 -0.30688706040382385 0.35356995463371277 -0.1779063194990158 0.35654065012931824 -0.14321090281009674 -0.09688318520784378 -0.002550782635807991 -0.11017065495252609 0.12835092842578888 0.316491961479187 0.06266139447689056 -0.1800263226032257 -0.6608318090438843 -0.010296709835529327 -0.10376220941543579 0.06799429655075073 0.15545609593391418 -0.8137302398681641 -0.12741205096244812 -0.2729615271091461 -0.0732131078839302 0.33401137590408325 0.2712301015853882 0.061812397092580795 -0.2229773998260498 0.032703086733818054
by 0.03490085154771805 -0.035558734089136124 -0.09512129426002502 -0.16579444706439972 -0.04535792022943497 0.1409052461385727 0.06962772458791733 0.14502845704555511 -0.02983839251101017 0.05153815820813179 0.03500252962112427 -0.1576957106590271 -0.026431424543261528 -0.020261205732822418 -0.028503023087978363 -0.18606014549732208 0.08285108953714371 0.1881791204214096 -0.14916649460792542 -0.05017692595720291 0.3246723413467407 0.07458028942346573 0.12990440428256989 -0.12069657444953918 -0.024509597569704056 -0.061428237706422806 0.19614772498607635 -0.00816170684993267 -0.11160262674093246 0.012314436957240105 0.10837341099977493 -0.18654955923557281 -0.20743326842784882 0.1351807415485382 -0.038340289145708084 0.12403159588575363 -0.14781109988689423 -0.06800966709852219 0.14384825527668 0.045275136828422546 -0.0744081437587738 -0.055933061987161636 -0.10740973055362701 -0.15133382380008698 0.14276066422462463 -0.2025219351053238 -0.0012786800507456064 -0.06634678691625595 0.0954805538058281 -0.19491542875766754 0.29235124588012695 -0.11039704829454422 -0.3233618438243866 -0.10652299970388412 -0.05987237021327019 -0.011722111143171787 -0.14823535084724426 -0.16716165840625763 -0.04192844405770302 -0.19000665843486786 -0.08221327513456345 -0.05466136336326599 -0.09033297002315521 -0.03938659653067589 0.16585257649421692 0.03998323529958725 -0.007006476633250713 0.16919992864131927 -0.14194273948669434 -0.09255609661340714 0.04505419358611107 0.021861128509044647 0.1265374720096588 0.12050621956586838 0.27289241552352905 0.0258649829775095 0.045833952724933624 -0.05517232418060303 -0.01991363987326622 0.12210395932197571 0.030209390446543694 -0.1330423355102539 -0.27103227376937866 -0.11099190264940262 -0.07714036107063293 -0.11110979318618774 -0.023401640355587006 -0.045150455087423325 -0.048163123428821564 -0.1971684843301773 0.057959817349910736 0.08182825148105621 0.030999615788459778 0.18627779185771942 -0.1285536289215088 -0.19593161344528198 -0.11796332895755768 0.3119875192642212 0.22510986030101776 -0.12194734066724777
national -0.0452689602971077 -0.003331616288051009 0.10389551520347595 -0.032171573489904404 -0.07308254390954971 -0.0063424804247915745 0.013174496591091156 -0.03647875040769577 0.05295543372631073 0.014820365235209465 -0.014342723414301872 -0.062130071222782135 -0.05684563145041466 -0.017165543511509895 -0.03930105268955231 0.005497165489941835 -0.0888083428144455 0.06861549615859985 0.07973486930131912 0.029948802664875984 -0.009961227886378765 0.0022408512886613607 0.025103725492954254 -0.04949188977479935 0.06352368742227554 0.12875865399837494 -0.05524073913693428 0.09028352797031403 0.06606300175189972 0.05743113160133362 0.12317285686731339 -0.08516412228345871 0.14594101905822754 -0.10251295566558838 -0.03401676192879677 0.17395572364330292 -0.06694234907627106 -0.047485288232564926 -0.007420595735311508 -0.037017785012722015 0.05070208013057709 -0.09545756131410599 -0.04916173219680786 -0.056374385952949524 0.04643246904015541 -0.020516712218523026 -0.031342703849077225 -0.05832592770457268 0.11994582414627075 -0.009503928013145924 0.031084846705198288 0.11989269405603409 -0.0029151916969567537 -0.07314042001962662 0.04236366227269173 -0.05118703097105026 -0.026648709550499916 -0.08043976128101349 -0.10746161639690399 0.07328277826309204 -0.017311926931142807 0.08630737662315369 -0.018238315358757973 0.04359092563390732 -0.04491041600704193 -0.026409266516566277 0.08412466198205948 0.05236832797527313 -0.10586202144622803 0.14110428094863892 -0.15646983683109283 0.013633916154503822 -0.06283867359161377 0.070420041680336 0.04300515726208687 9.035169205162674E-5 -0.12544821202754974 0.06733562052249908 -0.02787761576473713 0.04137788340449333 0.05633413791656494 -0.05007607117295265 0.10538403689861298 -0.05814085155725479 -0.08261151611804962 -0.01944033056497574 0.08049287647008896 0.09675769507884979 0.10394025593996048 -0.0783308893442154 -0.1707480549812317 0.00628419267013669 0.15388786792755127 -0.08962614089250565 -0.0335809551179409 -0.03262956067919731 0.018343036994338036 0.10682599991559982 0.021580852568149567 -0.0056596798822283745
where -0.5121535062789917 -0.19866715371608734 0.07660087198019028 -0.013728098943829536 -0.2877519130706787 0.2963666617870331 -0.25924745202064514 -0.13340812921524048 0.033234186470508575 -0.09073067456483841 0.3201594948768616 0.33767858147621155 0.012794013135135174 0.13432617485523224 0.26147931814193726 -0.18513192236423492 -0.15793126821517944 -0.06307139992713928 0.07780306786298752 0.01321825385093689 0.36424416303634644 0.2490355372428894 0.13092681765556335 -0.33111390471458435 -0.3796639144420624 0.027207687497138977 -0.13433538377285004 -0.0968485176563263 0.2661125361919403 -0.19696153700351715 -0.052906762808561325 -0.3412933349609375 -0.3576655387878418 -0.07322036474943161 0.24138985574245453 -0.20826633274555206 0.1859772801399231 0.050734054297208786 0.3340681791305542 0.18555386364459991 -0.17501959204673767 -0.05144113302230835 -0.00798868853598833 -0.04743611067533493 0.14656050503253937 0.13829301297664642 -0.1855192929506302 -0.34210434556007385 0.09099799394607544 0.18908467888832092 -0.004990310873836279 0.2954132854938507 -0.2993788421154022 -0.012815739028155804 0.002684433711692691 -0.009614015929400921 -0.19522036612033844 0.24309273064136505 0.051203347742557526 -0.03945406153798103 -0.0599604994058609 -0.1630418449640274 0.2545408308506012 0.06358356028795242 -0.491763174533844 -0.16126549243927002 -0.16245995461940765 0.10680598020553589 0.2917144000530243 0.2588510513305664 -0.1940930336713791 -0.15526387095451355 -0.12640465795993805 -0.2916615903377533 -0.14425955712795258 0.006635413970798254 -0.14056387543678284 -0.1797696053981781 0.1414688527584076 0.16249924898147583 -0.16907738149166107 0.21987108886241913 0.3837890923023224 0.21740306913852692 -0.01869059167802334 0.08744517713785172 -0.21012349426746368 0.03059682808816433 0.13871397078037262 -0.5015192627906799 0.4904688000679016 0.06261752545833588 0.020696565508842468 0.312188059091568 -0.06296714395284653 0.021195290610194206 -0.07958176732063293 0.46759527921676636 0.27713924646377563 -0.40524858236312866
after 0.04512707144021988 0.07359696924686432 0.11496426165103912 0.020238356664776802 -0.07507513463497162 -0.07007186859846115 0.06534747034311295 0.15136384963989258 -0.007371455430984497 0.06952723115682602 0.09949792176485062 -0.13374702632427216 -0.21007512509822845 -0.11553013324737549 0.06623110175132751 0.08994688093662262 0.3637150228023529 -0.09988351166248322 -0.14820817112922668 -0.18089766800403595 0.2502436339855194 -0.22723954916000366 0.3899971842765808 -0.3744393587112427 -0.11938821524381638 0.35437092185020447 0.06433408707380295 -0.1755540370941162 -0.2641907036304474 0.2747659683227539 0.19322741031646729 -0.2817278504371643 -0.040662750601768494 0.15548759698867798 0.07270289212465286 0.10336402803659439 -0.13798750936985016 -0.015048636123538017 0.4292382001876831 -0.17047061026096344 0.061692383140325546 -0.02707209810614586 -0.13112111389636993 0.024053113535046577 0.19532231986522675 0.16599994897842407 0.12378017604351044 -0.05800292640924454 0.062384095042943954 0.2903248071670532 0.1296258419752121 -0.05627712607383728 -0.29171034693717957 -0.26588377356529236 0.04091503471136093 -0.44674915075302124 -0.01111926045268774 0.020182082429528236 0.05150267109274864 0.02346646413207054 0.0745258703827858 0.04132013022899628 0.03288819640874863 -0.1200452446937561 -0.2766287922859192 0.08025435358285904 0.22104264795780182 0.1034623309969902 0.05198989808559418 -0.006446396932005882 -0.13330364227294922 -0.18970513343811035 -0.009871846996247768 0.17021462321281433 0.2728060185909271 -0.0561523512005806 0.18388131260871887 -0.2867819666862488 -0.08517351746559143 0.172673299908638 -0.22635003924369812 -0.17569248378276825 0.02252362109720707 -0.2975870668888092 -0.16516010463237762 0.058655038475990295 -0.23672151565551758 -0.034261200577020645 0.09283030033111572 -0.20338502526283264 0.13591472804546356 0.06526171416044235 -0.03682144358754158 -0.08705808967351913 -0.09077736735343933 -0.0021074265241622925 -0.157362699508667 0.42985156178474426 -0.01062806136906147 0.014771890826523304
so -0.19917438924312592 0.26563501358032227 -0.028806382790207863 0.008357413113117218 0.16168421506881714 0.11000814288854599 0.13913428783416748 0.06491059064865112 -0.2998269498348236 0.2612442970275879 0.2731586992740631 0.03681280463933945 -0.25980716943740845 0.0030834756325930357 -0.050026003271341324 0.141502246260643 -0.01040575373917818 0.08728643506765366 0.13893428444862366 -0.023259354755282402 0.17841723561286926 -0.060297224670648575 0.3138923645019531 -0.05939004197716713 -0.16732439398765564 0.13915076851844788 0.0967215746641159 -0.3474816083908081 -0.10187386721372604 0.11477440595626831 -0.09339359402656555 0.015956711024045944 0.051106326282024384 -0.15303108096122742 -0.28070375323295593 -0.09144436568021774 0.0017651431262493134 0.03343094512820244 0.38227394223213196 -0.13562293350696564 -0.11852507293224335 0.08302564918994904 0.2658783495426178 0.078028604388237 -0.09342751652002335 -0.18822352588176727 -0.06314775347709656 0.09430854022502899 -0.14702874422073364 0.042390819638967514 0.04149496555328369 -0.06839015334844589 0.07437140494585037 0.15186907351016998 -0.22328954935073853 0.08178714662790298 -0.2972266674041748 0.026245765388011932 0.19846177101135254 0.07615674287080765 -0.19611065089702606 -0.061525456607341766 -0.06852018088102341 -0.17674580216407776 -0.05261515825986862 -0.3435276746749878 -0.2529376149177551 -0.12035473436117172 -0.23509706556797028 -0.04791180044412613 0.09065403789281845 -0.17989793419837952 0.05231970548629761 -0.18440285325050354 0.005058949813246727 0.06448885798454285 -0.19440294802188873 0.25233983993530273 -0.11795943230390549 0.13129091262817383 -0.08417753130197525 0.2802780270576477 0.15031106770038605 -0.08316802978515625 0.04347146302461624 0.14800439774990082 0.12110377848148346 -0.13538168370723724 -0.24134647846221924 0.03179214522242546 0.11153212189674377 0.314297080039978 -0.01860903389751911 -0.15708480775356293 0.04847542941570282 -0.17040298879146576 0.38932856917381287 -0.23819763958454132 -0.3549857437610626 -0.15056215226650238
a 0.09604272991418839 0.1667473018169403 -0.2720943093299866 -0.26399388909339905 0.1533581018447876 0.019182633608579636 -0.11333972960710526 -0.24046990275382996 -0.4171833395957947 -0.3381793200969696 0.016170285642147064 -0.010716834105551243 0.1215151697397232 0.2110251486301422 -0.10412926971912384 -0.2058396339416504 -0.07892324775457382 0.1254650354385376 -0.2347908765077591 -0.15303993225097656 0.2996685802936554 0.2815245985984802 -0.013443395495414734 -0.3075006306171417 0.19894903898239136 0.07714986801147461 0.4988503158092499 -0.23867826163768768 -0.03809920325875282 0.17388492822647095 -0.25738534331321716 -0.21427232027053833 -0.021509235724806786 0.21612316370010376 -0.25636208057403564 -0.14534516632556915 -0.323536217212677 0.010233024135231972 0.07662603259086609 0.12517866492271423 0.2434452772140503 -0.3831726610660553 -0.0844588428735733 -0.1964440792798996 0.2597479820251465 -0.2583998739719391 -0.1366603821516037 0.23554563522338867 -0.010984553955495358 0.3639267385005951 0.17671306431293488 0.31893235445022583 -0.37062087655067444 -0.17360734939575195 -0.0024859942495822906 -0.3795088231563568 0.008792966604232788 -0.04903502017259598 -0.302681028842926 0.20285460352897644 -0.4512951970100403 0.07061638683080673 -0.21757447719573975 0.3429088890552521 -0.03581128269433975 0.32750940322875977 0.1633182317018509 -0.21256251633167267 -0.2453201711177826 0.0334264300763607 0.08569693565368652 -0.034979913383722305 0.3371986150741577 -0.066876120865345 -0.0877416729927063 0.06794224679470062 -0.5186479687690735 0.12032143771648407 -0.15895910561084747 0.14415426552295685 0.011978283524513245 -0.25250717997550964 -0.0578615702688694 -0.3242758512496948 -0.0867946445941925 0.06119526922702789 0.27122724056243896 0.31013771891593933 0.021986080333590508 0.2721399962902069 -0.4485841989517212 0.10934057831764221 0.04231109097599983 -0.4156787097454071 -0.07601787149906158 -0.07853751629590988 -0.10653276741504669 -0.13208690285682678 0.09868302196264267 -0.047359924763441086
think 0.34998196363449097 0.3707689344882965 0.14983005821704865 0.31668350100517273 0.05038021132349968 0.02307646907866001 -0.3974877893924713 -0.030945830047130585 0.30695977807044983 -0.37352633476257324 0.11161137372255325 0.28992578387260437 -0.1802232414484024 -0.17779669165611267 0.3320295810699463 0.15131549537181854 0.029744766652584076 -0.19430966675281525 0.06638715416193008 -0.032355766743421555 -0.01091255433857441 0.21642617881298065 -0.021475471556186676 0.18022996187210083 -0.3473859429359436 0.06944198906421661 -0.1041739210486412 -0.26898273825645447 -0.10204960405826569 -0.086250901222229 0.25982174277305603 0.1922244280576706 -0.06823719292879105 -0.03335750102996826 0.06145484372973442 -0.07497002929449081 -0.12502999603748322 0.02174663357436657 0.05459035933017731 -0.08980163931846619 -0.010079608298838139 0.02340388111770153 -0.3480556011199951 0.1491384655237198 0.027522413060069084 -0.24691760540008545 -0.0356513187289238 0.15620771050453186 -0.258868545293808 0.34024545550346375 -0.20300963521003723 0.09017816931009293 -0.06748026609420776 -0.008291010744869709 -0.0839790403842926 0.3079598546028137 0.1914922595024109 -0.2459316998720169 -0.07360720634460449 -0.004980179481208324 -0.04665764421224594 0.1051793247461319 0.013320481404662132 -0.016027536243200302 0.3024428188800812 -0.35841625928878784 0.07706911116838455 -0.37364891171455383 0.07600155472755432 -0.06472858041524887 0.25777995586395264 -0.14918379485607147 -0.21365149319171906 -0.03521111607551575 -0.07949209958314896 -0.25180843472480774 0.2159438282251358 -0.21996134519577026 0.20822691917419434 -0.26370859146118164 -0.08212438225746155 0.2691694498062134 0.059894513338804245 0.06696442514657974 -0.010429622605443 -0.11518537253141403 0.13220630586147308 -0.13455423712730408 -0.010347992181777954 0.2004777044057846 -0.03604208678007126 -0.11644651740789413 0.051283735781908035 -0.20460553467273712 0.00613283459097147 -0.1821357160806656 -0.1693936586380005 0.10713200271129608 -0.3699614107608795 -0.07176303118467331
set 0.1493806689977646 -0.07596079260110855 0.24806927144527435 0.15721964836120605 0.010091062635183334 -0.008093642070889473 -0.10423430055379868 -0.02017592452466488 0.026993578299880028 -0.15398447215557098 0.24025382101535797 -0.2178565114736557 0.0708078071475029 0.072037473320961 -0.07080642879009247 0.0010546828852966428 -0.035873424261808395 -0.04230356588959694 0.11105991899967194 0.19570565223693848 -0.03310026600956917 -0.06678593158721924 0.24123509228229523 -0.062075354158878326 -0.04018476977944374 -0.020173953846096992 -0.12613452970981598 0.13837915658950806 -0.0960913598537445 0.02389965020120144 -0.0259217768907547 -0.07728829234838486 0.04407862201333046 -0.06897404044866562 0.12183401733636856 -0.07258456200361252 0.10981246829032898 -0.21155191957950592 -0.08064282685518265 -0.058625731617212296 0.04507600888609886 -0.06609492748975754 -0.0038900254294276237 0.014042088761925697 -0.0474260188639164 0.06551367044448853 -0.0459345318377018 -0.08972208946943283 0.02529793605208397 -0.10716430097818375 -0.09165792167186737 0.01999584399163723 0.2076021283864975 -0.16304650902748108 0.06779074668884277 -0.20032444596290588 0.02132134698331356 -0.0021763683762401342 -0.1116105318069458 0.00986555963754654 -0.09241094440221786 -0.017123401165008545 -0.11534295231103897 -7.896841852925718E-4 0.2209201604127884 -0.2144254595041275 0.1682695746421814 0.15305858850479126 -0.17227618396282196 -0.05248461663722992 -0.05642038956284523 -0.09479180723428726 0.07792773842811584 0.006781032308936119 0.16062995791435242 -0.11946117877960205 0.08618436753749847 0.10387762635946274 0.22620975971221924 0.11715292930603027 -0.03911590948700905 -0.18133307993412018 0.020206686109304428 -0.22896263003349304 -0.07715537399053574 -0.2086268961429596 -0.20564094185829163 -0.11634218692779541 0.2654474675655365 -0.2632910907268524 0.1739414781332016 0.037926867604255676 -0.13226938247680664 -0.12647737562656403 0.04981675371527672 -0.08729054778814316 0.013981935568153858 0.14155219495296478 0.18778857588768005 -0.050344839692115784
