been -0.13719521462917328 -0.05958398059010506 0.06611929088830948 -0.39058297872543335 -0.5534377694129944 -0.17981888353824615 -0.16472484171390533 0.5378750562667847 0.6637885570526123 0.03506928309798241 0.13344021141529083 -0.32710036635398865 -0.016360528767108917 0.021092554554343224 -0.32711488008499146 0.13156811892986298 0.28228098154067993 0.472118079662323 0.0688231885433197 0.3558138906955719 -0.34675753116607666 -0.15639722347259521 0.13579829037189484 0.3229779005050659 -0.05295753851532936 0.06069565564393997 0.27191412448883057 -0.1941632330417633 -0.6084070205688477 -0.08273030072450638 -0.29938408732414246 -0.3525712490081787 0.14977127313613892 0.03188266605138779 -0.038116633892059326 -0.47483915090560913 -0.16027118265628815 0.1736881285905838 0.17290714383125305 -0.33104637265205383 0.08443361520767212 -0.44017258286476135 -0.40143051743507385 -0.3183552920818329 0.056106775999069214 -0.4496781527996063 -0.08427371084690094 0.42795586585998535 -0.21109038591384888 0.22501786053180695 0.137222021818161 -0.15775135159492493 0.26163002848625183 0.02070402167737484 0.20686596632003784 0.010202103294432163 0.6992630958557129 0.12932318449020386 0.051319338381290436 -0.17090682685375214 -0.33463630080223083 -0.021486474201083183 -0.4258423149585724 0.21648664772510529 -0.14896956086158752 -0.09492231905460358 0.29320311546325684 -0.1574985533952713 -0.5585514903068542 -0.1437874734401703 0.2119593471288681 2.1755509078502655E-4 0.29614338278770447 -0.06714338064193726 -0.1099814772605896 0.023607023060321808 -0.4357384145259857 -0.010715550743043423 -0.3392714560031891 0.1195133626461029 0.550415575504303 -0.3587525486946106 0.044735200703144073 -0.4878358244895935 -0.346195250749588 0.4365263879299164 0.3672294020652771 -0.28331121802330017 -0.06682305783033371 -0.2542792856693268 0.09326861798763275 0.5566058158874512 0.006151068024337292 -0.30740609765052795 0.30351167917251587 0.06506537646055222 -0.1266556680202484 0.06090191751718521 -0.09005075693130493 0.010226842015981674
year 0.23435895144939423 0.2127188742160797 -0.3184986710548401 0.12994761765003204 -0.0822821632027626 -0.07682405412197113 -0.028905248269438744 -0.02793976478278637 -0.17792141437530518 0.47519010305404663 -0.02664557285606861 0.025876585394144058 -0.02164595201611519 -0.025337347760796547 -0.005800122395157814 -0.2960907816886902 -0.30316266417503357 -0.09549438208341599 -0.15949374437332153 -0.18898166716098785 0.1933298110961914 0.17239278554916382 0.1522962749004364 -0.09631815552711487 -0.3053182065486908 -0.08807289600372314 -0.08239506185054779 -0.008662755601108074 -0.009518193081021309 -0.2348945587873459 0.05753907188773155 -0.3103529214859009 0.6889681220054626 -0.13678143918514252 -0.06550992280244827 0.20768947899341583 -0.4455929100513458 -0.10204343497753143 0.44279101490974426 -0.07323965430259705 -0.11193712800741196 -0.31112760305404663 -0.29028135538101196 0.05556214973330498 -0.12187509983778 0.03250737860798836 -0.12139274179935455 0.07892981171607971 0.17259274423122406 0.29219961166381836 0.3568250834941864 -0.18387889862060547 0.12936951220035553 -0.28323009610176086 -0.19811956584453583 0.10697238892316818 0.21698622405529022 -0.31026384234428406 -0.046765465289354324 -0.33251771330833435 -0.23163136839866638 0.22592619061470032 -0.11223597079515457 0.37817370891571045 0.12183963507413864 0.3506442606449127 0.17311207950115204 -0.08901038020849228 -0.2831679880619049 -0.0023188418708741665 0.05444534122943878 -0.03826569765806198 0.02732335589826107 -0.0383414663374424 0.2003999650478363 -0.09329112619161606 0.030672259628772736 0.4750896692276001 0.02868220955133438 -0.01443388219922781 -0.04761801287531853 -0.5284454822540283 -0.09272690117359161 0.013819597661495209 -0.1341988891363144 -0.141834557056427 0.2503228783607483 -0.17449939250946045 -0.21476544439792633 0.1507263332605362 -0.1488172560930252 -0.33620938658714294 0.2685973048210144 -0.17260491847991943 -0.1918388307094574 0.10510607808828354 -0.24859611690044403 0.40597641468048096 -0.05695264786481857 0.2645793855190277
about -0.28927624225616455 0.2715401351451874 -0.12297208607196808 0.05728005990386009 0.1834826022386551 -0.04630761593580246 0.09211893379688263 -0.13575126230716705 0.06282773613929749 0.12249291688203812 -0.24098365008831024 0.22442646324634552 -0.20890671014785767 0.14070048928260803 -0.0164981447160244 -0.01651933416724205 0.15275393426418304 -0.13649283349514008 0.20448794960975647 0.14078404009342194 -0.1374378651380539 -0.12420301139354706 0.1372007131576538 -0.07522103935480118 0.08250979334115982 0.23519429564476013 -0.24519141018390656 -0.5431921482086182 -0.17894892394542694 0.10429689288139343 0.1681622564792633 -0.08636107295751572 -0.017626263201236725 -0.13887262344360352 -0.15779802203178406 0.029515834525227547 -0.24960888922214508 0.21453210711479187 -0.19762744009494781 -0.0303775817155838 0.31594955921173096 0.20671290159225464 -0.2118692547082901 0.3095831573009491 -0.24679261445999146 0.013039791025221348 0.11467345058917999 -0.07791928201913834 -0.2266194075345993 0.05392465740442276 0.10518337786197662 0.35864782333374023 0.4106151759624481 -0.051340796053409576 -0.027230318635702133 -0.1363200843334198 0.1403619796037674 -0.163239985704422 -0.31964242458343506 -0.09662642329931259 0.044034894555807114 0.31550195813179016 -0.07221411168575287 -0.23580724000930786 -0.09258738905191422 -0.10570039600133896 -0.058033641427755356 -0.49664944410324097 0.33528217673301697 -0.22013972699642181 0.5038803219795227 -0.12995274364948273 0.07565921545028687 0.038718193769454956 -0.024236494675278664 -0.032108500599861145 -0.3192828893661499 0.3340983986854553 -0.2149401307106018 0.06916902959346771 -0.2940739691257477 -0.20094099640846252 0.08989152312278748 0.2530283033847809 0.29040202498435974 -0.1202501431107521 -0.2439403235912323 -0.494378000497818 -0.2880363166332245 0.05235813930630684 -0.15596485137939453 -0.05717051774263382 -0.08141795545816422 0.09480944275856018 0.32466572523117065 0.2515765130519867 0.1938297152519226 -0.0261843279004097 -0.3025883436203003 -0.2762059271335602
your -0.6255004405975342 -0.2023778259754181 -0.12485640496015549 0.13623878359794617 -0.13494791090488434 0.060085479170084 -0.12717506289482117 0.2800609767436981 -0.14534035325050354 0.5004940032958984 -0.24339976906776428 0.013204856775701046 0.15427042543888092 0.2423529475927353 0.027817662805318832 0.024602176621556282 -0.11793656647205353 0.11997084319591522 0.3005058765411377 -0.06472289562225342 0.10390005260705948 0.31805846095085144 0.15197741985321045 0.2916671931743622 0.20205731689929962 -0.25509214401245117 0.04438642039895058 -0.21357406675815582 0.20671327412128448 -0.23979918658733368 -0.3857966959476471 0.16928274929523468 0.11360850185155869 0.1277972310781479 -0.012591978535056114 -0.2260567992925644 -0.23330335319042206 0.010774665512144566 0.020892750471830368 -0.16592632234096527 0.24521026015281677 -0.18188759684562683 0.4810941219329834 0.11664269864559174 -0.09695153683423996 -0.07036767154932022 0.08452779799699783 0.09128963947296143 0.14119546115398407 -0.06353066861629486 0.0397564098238945 0.39982450008392334 -0.06030133739113808 -0.031211556866765022 0.29707780480384827 -0.31771260499954224 0.12446919083595276 -0.18098384141921997 -0.10559159517288208 -0.06884352117776871 0.029843036085367203 0.2886562645435333 -0.14689436554908752 -0.04145219922065735 -0.04542069509625435 0.33629733324050903 -0.3760591745376587 0.08212704211473465 0.2300061136484146 -0.19283820688724518 -0.15879298746585846 -0.07060077786445618 -0.11062938719987869 -0.21654833853244781 -0.06592187285423279 -0.22000227868556976 -0.22205358743667603 -0.0424157939851284 -0.1674385815858841 0.1364699900150299 -0.1387801170349121 0.05903088301420212 -0.2753332555294037 -0.19154492020606995 0.46589839458465576 -0.1448441594839096 -0.4611946940422058 0.32584047317504883 0.23983880877494812 -0.23260846734046936 0.0874025896191597 -0.014063234440982342 -0.4927673041820526 -0.1609068661928177 0.06046910583972931 -0.09701322019100189 0.4196188151836395 0.023469895124435425 0.0065576317720115185 0.07685086876153946
without -0.1490434855222702 0.2544483542442322 0.24352067708969116 0.12850308418273926 0.11684660613536835 0.02375331148505211 0.027221204712986946 -0.03914570435881615 0.149305060505867 0.12835447490215302 0.050166454166173935 0.2969101667404175 -0.04933253303170204 -0.1445513218641281 -0.03820420429110527 0.06154536083340645 -0.036157432943582535 0.29978376626968384 0.09844763576984406 -0.11023574322462082 0.10123075544834137 0.15640006959438324 0.12617838382720947 0.028016090393066406 -0.1781124621629715 -0.15767547488212585 0.043393924832344055 -0.09528125822544098 -0.08579651266336441 -0.07169898599386215 -0.28915536403656006 -0.10739875584840775 -0.14466868340969086 -0.18316060304641724 -0.029972409829497337 0.1092739999294281 0.18275389075279236 -0.0481843464076519 -0.18301010131835938 -0.0805845856666565 -0.25628164410591125 -0.03770499303936958 0.11111953854560852 -0.023902766406536102 -0.21035176515579224 -0.1713564693927765 0.0536290779709816 0.18051983416080475 -0.021701965481042862 0.05537957325577736 0.11342518031597137 -0.15716339647769928 -0.0789094865322113 0.06625733524560928 -0.1094033345580101 -0.014599960297346115 0.273388534784317 -0.20293551683425903 -0.06951408088207245 -0.050096604973077774 -0.19130578637123108 6.755681242793798E-4 0.28193432092666626 0.19502590596675873 0.23793961107730865 0.11524705588817596 -0.07392559200525284 -0.11713550984859467 -0.18580208718776703 0.03756628558039665 0.45854321122169495 0.015211155638098717 0.10128404200077057 0.06234554201364517 -0.22514937818050385 -0.0925857424736023 -0.10886064171791077 0.05856534093618393 0.23751778900623322 -0.018912160769104958 -0.04706868901848793 0.022767892107367516 -0.033074598759412766 -0.06494496762752533 -0.0175633542239666 -0.3612786829471588 -0.11082132905721664 -0.3629387617111206 -0.12636412680149078 -0.1592271327972412 0.08426137268543243 -0.048196084797382355 -0.25084513425827026 -0.19589871168136597 0.26898181438446045 0.0824848860502243 0.3914144039154053 -0.251285582780838 0.09164907038211823 0.33281034231185913
these 0.05152805149555206 -0.2175075113773346 0.24838320910930634 -0.31058797240257263 -0.14701628684997559 0.3747693598270416 -0.12219761312007904 0.24315081536769867 0.2521020770072937 -0.3364316523075104 0.17555363476276398 0.2939593195915222 0.08967964351177216 0.3403915762901306 -0.2683749496936798 0.2699819505214691 -0.17784370481967926 -0.23541171848773956 0.2785162627696991 -0.07181762903928757 -0.04222995415329933 -0.24993395805358887 -0.2845439016819 -0.00600450998172164 -0.19122979044914246 0.17392802238464355 0.23707517981529236 -0.06844627857208252 -0.08308210223913193 -0.22980408370494843 0.09082169830799103 -0.003476478159427643 -0.3294302821159363 -0.34777095913887024 0.24463069438934326 -0.07248424738645554 -0.1351018249988556 0.19647887349128723 0.19527997076511383 0.12475062161684036 0.11689209192991257 -0.49767109751701355 -0.06998604536056519 0.339949369430542 -0.03115115500986576 -0.09267228841781616 0.0856851115822792 -0.17171628773212433 -0.10860125720500946 -0.15982092916965485 0.051640503108501434 -0.3178279399871826 -0.12559446692466736 -0.3141428530216217 0.20372115075588226 0.14940567314624786 -0.36129844188690186 0.033157773315906525 -0.40398889780044556 -0.28162357211112976 0.21668080985546112 -0.05443161353468895 -0.11977357417345047 0.12107046693563461 -0.22279956936836243 0.1173069030046463 -0.018384017050266266 0.04349691793322563 -0.06999924033880234 -0.07662937790155411 -0.2604578733444214 -0.19902539253234863 -0.04757073521614075 -0.5171449780464172 0.08455754816532135 -0.18442875146865845 0.00552099384367466 -0.06301821768283844 0.1708896905183792 0.01909433864057064 -0.13556614518165588 -0.17984774708747864 -0.2733282744884491 0.2042611986398697 -0.10404558479785919 -0.3276646137237549 -0.19221046566963196 0.3231423795223236 -0.13957056403160095 -5.388617282733321E-4 0.23216000199317932 -0.06156761199235916 -0.1894780844449997 0.19305859506130219 0.24543818831443787 -0.03589022904634476 0.1332429200410843 -0.3222779333591461 0.3587804436683655 0.3181743919849396
companies -0.024473384022712708 0.0018736644415184855 0.22650714218616486 -0.1373804211616516 -0.18055950105190277 0.07119932025671005 0.06911469250917435 0.02120891585946083 0.07814951241016388 0.13531699776649475 -0.1934242844581604 -0.03909094259142876 0.061629172414541245 0.0513700433075428 0.05890285223722458 0.10932830721139908 -0.1014396995306015 0.047862064093351364 0.16845980286598206 -0.02392793633043766 0.053509484976530075 -0.24694786965847015 -0.1140548586845398 -0.03806379809975624 0.08955308049917221 0.22991961240768433 0.22882388532161713 0.11220609396696091 -0.060262370854616165 -0.017766769975423813 0.09778065234422684 0.0156798604875803 -0.1448785811662674 -0.16987262666225433 -0.11264532804489136 -0.09224017709493637 0.04168951138854027 -0.14329254627227783 0.12867264449596405 0.006288533098995686 0.0852920413017273 -0.17143714427947998 0.03822029009461403 0.05220136418938637 -0.06913550198078156 -0.02208518236875534 -0.04819037765264511 -0.05048804357647896 -0.009102116338908672 0.17411087453365326 0.20111462473869324 -0.2645472288131714 -0.13534767925739288 -0.11940427124500275 -0.1549600511789322 0.15610140562057495 -0.13915617763996124 0.023273872211575508 -0.09444190561771393 -0.10948877781629562 0.09069649130105972 -0.10726691782474518 0.14209464192390442 0.2128121554851532 -0.06379172950983047 0.0016132837627083063 -0.08394105732440948 0.04511731490492821 -0.016395390033721924 -1.5029218047857285E-4 -0.043251991271972656 -0.12271808087825775 0.030391594395041466 -0.20233799517154694 0.029490873217582703 0.05596138909459114 -0.09118381887674332 -0.004927732050418854 0.05329872667789459 -0.12451179325580597 0.05548270046710968 -0.1989358365535736 -0.02817186526954174 -0.048549581319093704 0.039674222469329834 -0.12478265911340714 0.10946526378393173 0.16512738168239594 -0.035884369164705276 -0.06158115714788437 0.016375988721847534 -0.06340689957141876 0.07685098052024841 0.04682650417089462 0.016772916540503502 -0.04153646528720856 0.00316692260093987 -0.09843742102384567 0.2070835679769516 0.19561932981014252
music 0.016867227852344513 0.22918742895126343 0.1005682498216629 -0.05536342039704323 -0.14928919076919556 0.16451412439346313 0.011294174939393997 -0.2599841356277466 -0.0788007602095604 0.20875316858291626 -0.1799318939447403 0.024496229365468025 -0.3396473526954651 0.15341421961784363 0.12299442291259766 0.1076221689581871 -0.2748359143733978 0.09552282094955444 0.17962920665740967 -0.10767597705125809 -0.08096802979707718 -0.0014154257951304317 -0.004012393765151501 0.04311356320977211 0.3865133225917816 -0.13262882828712463 0.06729811429977417 -0.009486798197031021 -0.17215734720230103 -0.021118974313139915 0.23374305665493011 -0.02436727285385132 0.09720989316701889 -0.07543504983186722 -0.037244703620672226 0.04158933460712433 -0.08396755158901215 -0.019588299095630646 -0.01753227598965168 0.032251618802547455 0.09850842505693436 0.03562856838107109 0.1595531702041626 -0.033359985798597336 0.16094639897346497 0.09872758388519287 -0.016833845525979996 -0.07843067497015 0.28385627269744873 -0.03175314888358116 -0.1355205774307251 0.16491809487342834 0.09590375423431396 -0.05620989575982094 -0.13771912455558777 -0.07502807676792145 0.002628055866807699 -0.07108825445175171 0.013151622377336025 0.06932410597801208 -0.038674246519804 0.0223827064037323 -0.09002427756786346 -0.16098710894584656 0.03916611149907112 -0.07421787828207016 0.0929005891084671 0.011245821602642536 0.03009650856256485 -0.012100967578589916 0.03263211250305176 0.1387975811958313 -0.06920482963323593 0.10008334368467331 -0.06242536008358002 -0.07706733793020248 0.011810334399342537 0.12303931266069412 0.09506143629550934 0.03641616180539131 0.07991793006658554 -0.02145977132022381 -0.12740199267864227 0.004380189813673496 -0.1315852701663971 0.10611426830291748 0.05781034752726555 0.26488372683525085 0.2526613175868988 -0.16620388627052307 -0.41432079672813416 0.08053692430257797 0.24087972939014435 -0.09274087846279144 -0.2284967601299286 -0.16959352791309357 0.005463351495563984 0.07101482152938843 -0.15756860375404358 -0.15554066002368927
would 0.229234516620636 0.21112172305583954 -0.5004649758338928 -0.2128198891878128 0.18848645687103271 0.012358913198113441 0.01623493991792202 0.009301711805164814 -0.016196569427847862 -0.171825110912323 -0.1152699738740921 0.18510495126247406 0.29225316643714905 0.0392364077270031 0.09181157499551773 0.018348481506109238 0.11478373408317566 0.5568801164627075 0.17147935926914215 0.0124445715919137 -0.12540335953235626 -0.09538115561008453 0.13048550486564636 0.028030946850776672 -0.13581113517284393 -0.5823231935501099 0.0700368881225586 0.19190143048763275 -0.2970382571220398 0.2796361744403839 0.22830136120319366 0.24893403053283691 -0.029690401628613472 -0.17083612084388733 0.1666816622018814 0.014825220219790936 -0.08357588946819305 -0.02476176619529724 0.09705204516649246 -0.40494465827941895 -0.22513951361179352 0.08048521727323532 0.1418510377407074 -0.234571635723114 -0.2598405182361603 -0.011129786260426044 0.11846014857292175 0.22771099209785461 0.3334907591342926 0.1939067393541336 -0.25626102089881897 -0.3003404438495636 0.040037088096141815 0.07156882435083389 -0.14277592301368713 0.19636504352092743 0.13605202734470367 0.039530910551548004 0.17598581314086914 -0.18477308750152588 0.05781641975045204 -0.16464795172214508 0.2541138827800751 -0.04213991016149521 0.054375529289245605 -0.03352804481983185 0.10617722570896149 0.12040304392576218 -0.04589947313070297 0.11735683679580688 0.03680656850337982 -0.004355692770332098 0.09157643467187881 -0.01845390908420086 -0.1274888664484024 0.18137530982494354 0.0381302684545517 -0.03066333197057247 -0.016199886798858643 0.13465319573879242 -0.03703327104449272 -0.010499267838895321 -0.06521157175302505 0.24567611515522003 0.20366573333740234 0.135238915681839 -0.027582213282585144 -0.13823029398918152 -0.10033868998289108 -0.02194545418024063 0.06739497929811478 0.06570535153150558 -0.3004906177520752 0.14648371934890747 -0.05003392696380615 -0.06680052727460861 0.19001105427742004 -0.37259605526924133 0.2113388180732727 0.030740536749362946
because -0.052556563168764114 0.2686275541782379 0.08941759914159775 -0.07766560465097427 -0.061516012996435165 0.006195383612066507 0.015160614624619484 -0.14613227546215057 0.010063269175589085 0.11951741576194763 -0.02070332132279873 0.19361262023448944 -0.15210649371147156 0.06499870866537094 -0.02084486559033394 -7.56826950237155E-4 0.06227252259850502 0.1734124720096588 0.12268389761447906 -0.0014617155538871884 -0.04530572146177292 0.23545944690704346 0.06738517433404922 -0.06489352136850357 0.15753963589668274 -0.2590889632701874 -0.022737031802535057 -0.07119817286729813 -0.06174926832318306 -0.237617626786232 0.08403412252664566 0.068380206823349 -0.08572538197040558 -0.13794732093811035 -0.16739878058433533 0.10415390878915787 0.161840558052063 -0.16556935012340546 -0.02550896443426609 -0.2693383991718292 -0.025579599663615227 0.0783681720495224 -0.0839497372508049 0.1352890282869339 -0.12004198879003525 0.16683994233608246 0.035097211599349976 0.11185787618160248 -0.08475329726934433 -0.06855426728725433 -0.23173867166042328 0.07677977532148361 0.016027603298425674 0.053294532001018524 -0.10498154163360596 0.0067910016514360905 0.012772309593856335 0.0715395137667656 -0.0478658452630043 0.13708923757076263 -0.0678027868270874 -0.2376183569431305 -0.11708717048168182 -0.029804881662130356 0.12977877259254456 0.035176027566194534 0.06527674198150635 0.024456698447465897 -0.10472381114959717 -0.09059196710586548 0.07180454581975937 -0.06788226962089539 -0.027353869751095772 0.0010455340379849076 -0.03081006556749344 -0.23203516006469727 -0.19563241302967072 0.02485036477446556 -0.015021244063973427 -0.02089470811188221 -0.022598251700401306 0.01105261966586113 -0.032570261508226395 0.08156733959913254 -0.0904964953660965 0.06429552286863327 0.1044897809624672 -0.20054353773593903 -0.07249893993139267 0.23241353034973145 0.21080869436264038 -0.04801451787352562 0.012367868795990944 0.0032514960039407015 0.03872746229171753 -0.20723994076251984 -0.12125356495380402 -0.22260890901088715 -0.1495160460472107 -0.013696853071451187
state -0.22679170966148376 0.13907064497470856 0.144285649061203 -0.11433736979961395 -0.1868395209312439 0.01225318107753992 -0.04452196881175041 -0.13173404335975647 0.030011506751179695 0.42766645550727844 -0.2966521382331848 0.04082003980875015 -0.17571383714675903 -0.1068524718284607 0.1551768183708191 0.0011925053549930453 -0.36648571491241455 0.25606828927993774 0.21491208672523499 -0.14156514406204224 0.00452740304172039 -0.09783246368169785 -0.27246910333633423 0.09388477355241776 -0.2801620364189148 0.1736190915107727 0.05043341591954231 0.07529719918966293 -0.2709236443042755 -0.10637710243463516 0.043353933840990067 -0.27025464177131653 0.017308790236711502 -0.14341971278190613 -0.2006099671125412 0.04048232361674309 -0.08568689227104187 -0.03183654323220253 -0.056294035166502 0.02039998210966587 0.019910460337996483 -0.1031203418970108 0.013099417090415955 0.13300499320030212 0.09687653183937073 0.023843180388212204 -0.15747052431106567 -0.09567494690418243 0.2926812767982483 -0.020383678376674652 0.0413656122982502 -0.06313572078943253 0.20892836153507233 -0.11420869082212448 -0.05296469107270241 0.06488312780857086 0.0792904645204544 -0.13347385823726654 0.0633983463048935 0.07703994959592819 -0.017310408875346184 0.02402069792151451 -0.03724157065153122 0.127935990691185 -0.2556588351726532 0.08711554110050201 0.2336120456457138 0.023478496819734573 -0.0904594287276268 0.18350021541118622 -0.07016157358884811 0.0803600549697876 -0.06205959618091583 0.11010716110467911 -0.09006389230489731 -0.20963867008686066 -0.01347180176526308 0.3429049253463745 0.22532927989959717 0.09868993610143661 0.1354243904352188 -0.17762012779712677 -0.13338088989257812 -0.04461628943681717 0.04362132400274277 -0.22375135123729706 -0.09457319229841232 0.1691291481256485 0.017103321850299835 -0.14414453506469727 -0.16441352665424347 -0.22548459470272064 0.2600875198841095 -0.06461790204048157 -0.03144824504852295 0.05916468799114227 0.155120849609375 0.14189445972442627 0.06819449365139008 0.13497620820999146
they -0.03867955133318901 0.09527440369129181 0.17007814347743988 -0.2947200536727905 0.20972521603107452 0.33705535531044006 0.023163923993706703 -0.016602447256445885 -0.024299362674355507 -6.784165161661804E-4 0.03647307679057121 -0.040883731096982956 0.28992387652397156 0.02763064205646515 0.04765688627958298 0.015841741114854813 0.07568047940731049 -0.21801790595054626 -0.07113497704267502 0.1017163097858429 -0.24965932965278625 -0.051690760999917984 -0.09999752044677734 -0.006643564440310001 -0.08369344472885132 0.012009458616375923 -0.004459845833480358 0.01142547745257616 0.34700778126716614 -0.03483376279473305 0.006207293830811977 0.2368919849395752 0.12302210927009583 -0.004719872493296862 0.27729111909866333 -0.002749089617282152 0.12016322463750839 0.1755981147289276 0.1909903734922409 -0.31052401661872864 0.02644847147166729 -0.12956087291240692 0.26854372024536133 0.06631280481815338 -0.03920603543519974 -0.08092936128377914 -0.14296399056911469 -0.21525265276432037 -0.236967533826828 -0.049767445772886276 -0.007395261898636818 -0.16770412027835846 0.07020411640405655 0.1555354744195938 0.10136832296848297 0.14131984114646912 -0.16025947034358978 0.08529797941446304 0.031999990344047546 -0.13344170153141022 0.07099178433418274 -0.036302000284194946 0.37102529406547546 0.42838677763938904 -0.20403043925762177 0.12268263101577759 -0.28452298045158386 -0.18236878514289856 0.06474581360816956 0.35037919878959656 -0.19121983647346497 -0.030222982168197632 0.012322874739766121 -0.12021036446094513 -0.025541894137859344 0.06863423436880112 -0.08532494306564331 0.034928832203149796 0.15149293839931488 -0.15525536239147186 -0.06482230871915817 -0.38447341322898865 0.16966909170150757 0.0554080531001091 0.041556376963853836 -0.16063477098941803 -0.1981162577867508 0.02676204778254032 -0.11424217373132706 -0.14880329370498657 -0.2505694627761841 0.13694381713867188 -0.27614647150039673 0.475248247385025 -0.10924919694662094 0.25248077511787415 0.12221665680408478 -0.16543570160865784 -0.03017580136656761 0.19123107194900513
you -0.11458833515644073 0.37308281660079956 -0.02783474139869213 -0.16308584809303284 0.2305804342031479 0.08894193917512894 -0.1190030500292778 -0.1553943157196045 0.4449476897716522 -0.10009997338056564 0.1474074125289917 0.13195694983005524 0.11186389625072479 -0.10687673836946487 -0.0928904265165329 -0.12614230811595917 0.07920798659324646 -0.07578632980585098 0.14451737701892853 -0.18397806584835052 -0.17204514145851135 -0.08530818670988083 0.2531788945198059 -0.1159142330288887 0.19040744006633759 0.33302241563796997 -0.10720378160476685 -0.2219064086675644 0.2663057744503021 0.19757424294948578 -0.052796654403209686 0.27612757682800293 0.20777559280395508 -0.02790644019842148 0.003587345127016306 0.1921892911195755 0.032331258058547974 -0.018075646832585335 0.08846195042133331 -0.12678225338459015 0.11658169329166412 -0.1015646830201149 0.23490823805332184 0.03648428991436958 -0.09705845266580582 0.2188621163368225 0.1203358992934227 0.09495776891708374 -0.03944975137710571 0.0821729302406311 -0.0369466170668602 -0.010458208620548248 -0.02248484455049038 0.18275335431098938 0.07076849043369293 0.30103063583374023 -0.020209329202771187 -0.21736297011375427 0.3425365090370178 -0.10817082226276398 0.06667640805244446 -0.017802609130740166 0.12429431080818176 0.28719449043273926 -0.4336620271205902 0.086673304438591 -0.4762559235095978 0.025959398597478867 0.11725564301013947 -0.04425282031297684 -0.22804446518421173 9.868767810985446E-4 -0.057152532041072845 0.06832946091890335 -0.09589135646820068 0.1772390604019165 -0.13601432740688324 -0.4101896584033966 -0.055577605962753296 -0.14476627111434937 0.16953422129154205 -0.25354617834091187 -0.1863437443971634 -0.008055071346461773 0.27645376324653625 -0.14495225250720978 0.005099894478917122 0.22259686887264252 -0.03363177925348282 -0.13392801582813263 0.053561482578516006 0.21461614966392517 -0.08224883675575256 0.2501280605792999 -0.16064268350601196 0.006616105791181326 -0.2218298614025116 -0.13434776663780212 -0.10016351193189621 0.06150930002331734
$ 0.007104693911969662 -0.015040915459394455 0.03009134903550148 0.01709623821079731 -0.019362470135092735 0.0057839336805045605 0.013447375036776066 0.009161841124296188 -0.009910722263157368 0.03534911945462227 -0.029189929366111755 -0.058929625898599625 0.017047632485628128 -0.02768956869840622 0.008231069892644882 1.8064165487885475E-5 -0.025909531861543655 0.005868576001375914 0.009165088646113873 -0.036611609160900116 0.0300858523696661 6.791790947318077E-4 0.03598816692829132 0.0039827595464885235 0.002581506036221981 6.84371218085289E-4 0.04805130511522293 0.05519377067685127 -0.011150496080517769 -0.0268388781696558 0.03503689542412758 0.005200190935283899 -0.02929263561964035 -0.011805906891822815 -0.010792124085128307 0.009907713159918785 -0.011979334056377411 -0.007817978970706463 0.02357286401093006 -0.031336307525634766 -0.0324440561234951 -0.02535143680870533 0.0178265068680048 -0.0056891068816185 -0.0013002804480493069 6.005801260471344E-4 -0.01695481315255165 0.024256695061922073 0.0294079277664423 0.019570695236325264 -0.016945209354162216 -0.02784835919737816 -0.03351714462041855 0.005772478878498077 -0.04041502624750137 -0.006678295787423849 0.003901237156242132 -0.021162455901503563 -0.013231048360466957 -0.008116604760289192 -0.01760266348719597 -0.035607051104307175 0.010721876285970211 0.01400250568985939 0.03133673220872879 0.021531343460083008 -0.03493848815560341 0.014387802220880985 -0.01357237622141838 -0.010432037524878979 0.010919459164142609 -0.025966858491301537 0.0040834522806108 -0.02694213204085827 0.0061372751370072365 -0.005751113407313824 -0.008409714326262474 -0.006567643955349922 0.028675125911831856 -0.036538299173116684 0.007826311513781548 0.005874676164239645 -0.018163487315177917 0.007380148861557245 0.006101022008806467 -0.019854659214615822 0.005007712170481682 0.010857939720153809 0.012758838944137096 -0.015962013974785805 -0.00393218407407403 0.013199597597122192 0.0040477486327290535 -0.00279957614839077 -5.044485442340374E-4 -0.011783244088292122 0.030868344008922577 -0.01336924359202385 0.03348500281572342 0.026168836280703545
going -0.483878493309021 -0.26684603095054626 -0.1264447569847107 -0.3155663013458252 -0.14936406910419464 0.0737246423959732 0.12532946467399597 -0.19269371032714844 -0.1199631541967392 -0.0929703488945961 0.24425014853477478 -0.2180846631526947 0.19991891086101532 0.11272905021905899 0.2923260033130646 -0.28228795528411865 0.2299426645040512 0.3278513252735138 0.2152404934167862 0.05233350396156311 0.060431256890296936 0.6381088495254517 -0.10518460720777512 -0.11640803515911102 0.2853659987449646 -0.3023340106010437 -0.17386482656002045 -0.0778169184923172 0.168731689453125 -0.2513027787208557 0.2292909175157547 0.37395626306533813 0.029843464493751526 0.08760536462068558 0.14291246235370636 0.601315975189209 -0.08582445979118347 -0.21001265943050385 0.0864090546965599 -0.12782423198223114 -0.2685053050518036 -0.436251163482666 0.3240011930465698 0.13878233730793 -0.09595169126987457 -0.17266227304935455 -0.11167611181735992 0.04756762087345123 -0.1839565932750702 0.3500228226184845 -0.179566890001297 0.10955046117305756 0.17366066575050354 -0.18006911873817444 0.08280274271965027 0.10032954812049866 -0.027906570583581924 -0.26143205165863037 -0.2944470942020416 -0.02044290490448475 0.17282307147979736 0.01538054272532463 -0.020414836704730988 -0.2660002112388611 0.110020712018013 0.13986462354660034 -0.6464138627052307 0.20830437541007996 0.3934445381164551 -0.09343177080154419 -0.4466986358165741 0.20215128362178802 0.0019966920372098684 0.06888678669929504 0.28033894300460815 0.2897421717643738 -0.3231331706047058 -0.0878034234046936 -0.27218422293663025 0.10689709335565567 0.07875971496105194 0.1543792188167572 -0.13298392295837402 0.08453146368265152 -0.07008448988199234 0.10727501660585403 -0.10532297194004059 -0.281501442193985 0.29431864619255066 0.011506590060889721 0.33787620067596436 -0.1496405452489853 0.31939253211021423 -0.04172051325440407 -0.1306919902563095 -0.0878484696149826 0.13935820758342743 -0.15264059603214264 0.22367633879184723 0.11752255260944366
old -0.2363329529762268 -0.20225116610527039 0.048769235610961914 0.051304928958415985 -0.12631013989448547 -6.816383101977408E-4 -0.013840239495038986 -0.15301191806793213 -0.06614730507135391 -0.13925297558307648 0.17095686495304108 -0.005702778697013855 -0.13599281013011932 0.2787638306617737 -0.08163861185312271 -0.14913253486156464 -0.3518220782279968 0.11950942873954773 0.15397240221500397 -0.15825174748897552 -0.02672407776117325 -0.26328185200691223 -0.26976636052131653 -0.19807180762290955 0.13182008266448975 -0.1662384569644928 -0.01096885371953249 -0.19236063957214355 -0.3082006275653839 -0.15036727488040924 0.17306071519851685 -0.36080867052078247 -0.18597185611724854 -0.2345031201839447 0.029468292370438576 -0.021548688411712646 0.05085698887705803 -0.12166930735111237 0.0047819651663303375 0.3268917202949524 0.13115274906158447 0.029362160712480545 0.0333266481757164 -0.021406764164566994 -0.09554688632488251 -0.22767120599746704 -0.35332396626472473 -0.38689449429512024 0.422856867313385 0.0740891620516777 0.04444105923175812 0.16255703568458557 0.013324753381311893 -0.24035651981830597 0.17120075225830078 0.0654153898358345 -0.4714822471141815 0.04885178431868553 -0.03567904978990555 0.06667979806661606 0.21844230592250824 -0.1533391922712326 -0.09875332564115524 -0.21595367789268494 -0.062484998255968094 0.18145421147346497 -0.07324112206697464 0.15037433803081512 -0.34385910630226135 -0.1358926147222519 -0.05316543206572533 9.725922427605838E-5 0.22253082692623138 0.028489790856838226 0.004772797226905823 0.04492582380771637 -0.2126375138759613 0.06894347816705704 -0.1819787174463272 0.0726127177476883 0.030480343848466873 -0.27311092615127563 -0.16552357375621796 -0.11075587570667267 -0.12976492941379547 -0.0409766286611557 0.05135732144117355 0.427010715007782 -0.021711261942982674 -0.30534884333610535 0.1141170784831047 -0.08325111865997314 0.05249261111021042 -0.052651241421699524 -0.13629800081253052 0.027512220665812492 0.13206377625465393 -0.1714763194322586 0.29692256450653076 0.2349432408809662
want -0.032300859689712524 0.055402979254722595 -0.184291809797287 0.16043494641780853 0.3382590711116791 -0.15334565937519073 0.06903955340385437 -0.2964887320995331 0.24876749515533447 -0.32634010910987854 -0.04730904474854469 -0.10049595683813095 0.42633333802223206 0.019018275663256645 0.15922148525714874 0.16127881407737732 0.27633243799209595 0.03591002896428108 0.2507784068584442 -0.33945003151893616 0.08385779708623886 0.1142628937959671 0.2159610390663147 -0.008190814405679703 -0.0420798733830452 -0.06341927498579025 0.023040134459733963 0.3034246861934662 -0.05435615032911301 -0.020210025832057 0.02380835823714733 0.34213075041770935 -0.34938716888427734 0.08424112200737 0.11426298320293427 0.4340738356113434 0.0875413715839386 -0.4040602743625641 -0.0012465298641473055 -0.23461608588695526 -0.11279450356960297 0.04079845920205116 0.4645079970359802 0.17414547502994537 -0.2462415248155594 -0.07031525671482086 0.2566029131412506 0.10228001326322556 -0.06823890656232834 0.008954192511737347 -0.18851344287395477 -0.007785692811012268 -0.22646883130073547 0.25160735845565796 -0.061195578426122665 0.06646054238080978 0.27237844467163086 -0.23153893649578094 -0.26723596453666687 -0.13093535602092743 0.10969547182321548 0.002288517775014043 0.11233935505151749 -0.0595657154917717 0.22162507474422455 0.0851287990808487 0.14458175003528595 -0.025165889412164688 0.14781226217746735 -0.009195166639983654 0.2885463237762451 -0.11281607300043106 -0.3741508722305298 0.05087075009942055 0.23456937074661255 0.2666492164134979 0.04574334993958473 0.20732848346233368 0.04326717555522919 -0.1975255310535431 -0.016543155536055565 0.2914654612541199 -0.3733791410923004 0.4614272713661194 0.18733733892440796 -0.1800113171339035 -0.22245903313159943 -0.005055003333836794 0.2626588046550751 0.11765072494745255 0.06458842009305954 -0.1382032334804535 0.014407281763851643 -0.0025609720032662153 0.1144387274980545 0.17702597379684448 0.5106894373893738 -0.1454487442970276 -0.22769850492477417 0.1386929601430893
night 0.2945600152015686 -0.09220582246780396 -0.1589338630437851 -0.05363127589225769 0.10457739233970642 -0.10010861605405807 -0.21616774797439575 -0.43157488107681274 -0.4682669937610626 0.10661249607801437 0.16302751004695892 -0.24211126565933228 0.1678025722503662 0.16038359701633453 -0.26569435000419617 -0.3156149387359619 0.028789205476641655 -0.01196186151355505 -0.26257988810539246 -0.04873618483543396 0.19339363276958466 0.2988543212413788 0.3688727021217346 -0.2025100439786911 0.04581010714173317 0.08665183931589127 0.03357570245862007 -0.007039258256554604 -0.15433764457702637 -0.05407912656664848 1.2472046364564449E-4 -0.08517642319202423 0.525834858417511 -0.1156027764081955 -0.07657939940690994 -0.028854871168732643 -0.28517067432403564 -0.06995692104101181 0.306451678276062 0.05692915618419647 -0.15596391260623932 -0.12168604880571365 -0.028209926560521126 0.09544101357460022 -0.2529827654361725 -0.16533920168876648 -0.06584292650222778 0.03320642188191414 -0.02922198362648487 -0.11055068671703339 -0.05401771143078804 0.057370688766241074 0.24085530638694763 -0.3354136347770691 -0.20639194548130035 -0.3245565891265869 -0.05354830622673035 -0.0726872980594635 0.18151406943798065 -0.3786669075489044 -0.3625966012477875 0.0753672868013382 -0.15536141395568848 0.17115022242069244 0.30260735750198364 0.018228819593787193 0.22188329696655273 0.1121654212474823 -0.38163167238235474 -0.08222274482250214 0.202672079205513 0.15666551887989044 0.023015128448605537 0.008091581054031849 0.0674835592508316 -0.11999186873435974 0.17383459210395813 0.2983015477657318 0.0669604167342186 0.11271611601114273 0.11201463639736176 -0.3094489872455597 -0.24063757061958313 -0.12856876850128174 -0.401177316904068 -0.06341776996850967 -0.06431256979703903 0.20974262058734894 -0.11073967069387436 -0.258070170879364 -0.27096354961395264 -0.07752571254968643 0.2115141898393631 0.17696672677993774 -0.15613333880901337 0.2680357098579407 -0.0714523047208786 0.346712201833725 0.13807888329029083 0.0322091244161129
them 0.028625233098864555 -0.06880226731300354 0.08341579884290695 -0.05045924335718155 -0.20178508758544922 0.17601901292800903 0.07227317243814468 -0.12417421489953995 -0.14679235219955444 -0.16433461010456085 -0.07526249438524246 -0.049244385212659836 -0.22014282643795013 0.31866246461868286 0.11861483752727509 0.15631884336471558 -0.12048299610614777 0.08393432945013046 0.08767595887184143 -0.2825496196746826 -0.17913997173309326 -0.11292420327663422 0.08203475177288055 0.09499627351760864 0.12103550881147385 -0.012458749115467072 0.25928640365600586 0.10922732204198837 -0.043843284249305725 -0.1647847592830658 0.07740085572004318 0.1762010157108307 -0.015438888221979141 -0.07137473672628403 0.14714786410331726 0.08947019279003143 0.0688452273607254 0.1137196272611618 0.21077026426792145 -0.13739782571792603 0.10487895458936691 -0.47175711393356323 0.08278415352106094 0.12311472743749619 -0.1974121481180191 0.15113183856010437 0.05684072524309158 0.10864759981632233 -0.08625394105911255 -0.24793997406959534 -0.11069349944591522 -0.2565810978412628 -0.30395781993865967 0.1040346696972847 0.1275334358215332 0.15325437486171722 0.2549486756324768 0.163527712225914 -0.19499100744724274 -0.19566765427589417 -0.0444815568625927 -0.29723119735717773 -0.32440757751464844 0.32552820444107056 0.2740139365196228 0.1354573667049408 -0.13875190913677216 1.3990520528750494E-6 -0.10333739221096039 -0.13739122450351715 -0.050740938633680344 -0.13282378017902374 0.09339126199483871 -0.1429852396249771 0.2823124825954437 0.030774714425206184 0.2977898120880127 -0.0690935030579567 0.3510148525238037 -0.05880767107009888 0.1708870232105255 -0.3219834268093109 -0.233711838722229 0.20217342674732208 0.3363117277622223 -0.09671121090650558 -0.06506265699863434 0.19118008017539978 0.05507034808397293 -0.12734897434711456 0.2628574073314667 -0.06429509073495865 0.07749106734991074 0.341447114944458 -0.09359889477491379 -0.20502842962741852 -0.3812687397003174 -0.1467050462961197 0.024520758539438248 0.07931527495384216
then 0.04814762622117996 0.10867839306592941 0.09845049679279327 -0.09594892710447311 0.10341466218233109 0.047477658838033676 0.20132145285606384 -0.28460362553596497 -0.28272247314453125 -0.0020842603407800198 0.2898402512073517 -0.12922769784927368 0.02114011161029339 0.05538610368967056 0.004199004732072353 -0.09187271445989609 -0.2855381965637207 -0.024994967505335808 -0.15175721049308777 -0.29324397444725037 0.2025429755449295 0.17948228120803833 -0.23915015161037445 0.22761742770671844 -0.1038154661655426 -0.059797439724206924 -0.007936500944197178 0.09828212112188339 -0.17369236052036285 0.09038233011960983 -0.1789534091949463 -0.08009971678256989 0.06627897918224335 0.01737164333462715 -3.2975157955661416E-4 -0.19342036545276642 -0.0032460212241858244 -0.12077867984771729 0.20632345974445343 -0.0704016238451004 -0.14328305423259735 -0.3106226623058319 -0.01657485030591488 -0.013868537731468678 -0.26091644167900085 -0.25379613041877747 0.3853718042373657 -0.2413940131664276 0.02689213678240776 -0.26719844341278076 0.17870062589645386 0.062173664569854736 0.022692902013659477 -0.26419147849082947 -0.14634573459625244 -0.07618649303913116 0.0876917913556099 0.12062301486730576 0.032695475965738297 -0.044661007821559906 -0.1679542511701584 0.13128280639648438 -0.04366550222039223 0.15014205873012543 -0.343669593334198 0.046815816313028336 -0.15920928120613098 -0.13898220658302307 0.11103077977895737 0.11024583876132965 0.0985761508345604 0.1513862907886505 -0.034603238105773926 -0.02252276800572872 0.030584804713726044 -0.006543490570038557 0.02731553465127945 0.003075340297073126 0.014917326159775257 0.18865808844566345 -0.15427924692630768 0.2595941126346588 -0.07065180689096451 0.19569215178489685 -0.00883025024086237 0.008569457568228245 -0.15333576500415802 -0.2718139588832855 -0.030015036463737488 -0.0044293710961937904 0.14846517145633698 0.044753558933734894 0.008694696240127087 0.09841223806142807 -0.08471810072660446 -0.04338457062840462 0.24626374244689941 0.022648001089692116 0.04514344036579132 -0.15800145268440247
court -0.2654148042201996 0.05740366131067276 0.06842152029275894 -0.08204910159111023 -0.00659940717741847 0.03316348046064377 -0.08811473846435547 -0.3815159201622009 -0.08858777582645416 0.3990994393825531 -0.049337469041347504 -0.21400685608386993 0.08132217824459076 -0.10628148168325424 -0.14623010158538818 -0.19664257764816284 -0.020402101799845695 0.42534956336021423 0.1080220565199852 -0.023848723620176315 0.045069776475429535 0.267444908618927 0.15447482466697693 0.022726314142346382 -0.07532811909914017 -0.11107094585895538 0.07570923119783401 -0.13385771214962006 -0.08364727348089218 -0.04522927850484848 -0.053514979779720306 -0.09669075161218643 0.1608252078294754 -0.023906977847218513 -0.09278997033834457 0.22805152833461761 -0.02839009091258049 -0.1341833472251892 -0.006304249167442322 0.007538324221968651 -0.10994067043066025 -0.04697759822010994 0.0855831727385521 0.0295860655605793 0.25007912516593933 0.036646824330091476 -0.006442397367209196 -0.14092093706130981 0.1236354261636734 -0.12314978241920471 0.015746884047985077 0.08584670722484589 0.04827159270644188 -0.07894600182771683 0.0407731831073761 0.1681073009967804 0.07585388422012329 -0.16841471195220947 -0.07267395406961441 -0.00758996931836009 -0.16161374747753143 -0.019749049097299576 -0.11623326689004898 -0.07733460515737534 0.03817993402481079 -0.0669749453663826 0.044895775616168976 0.17526787519454956 -0.0643276497721672 0.11643397063016891 -0.23045705258846283 0.034359488636255264 -0.12931515276432037 -0.0030105942860245705 0.013285514898598194 -0.07961416244506836 0.043941766023635864 -0.0018770096357911825 0.1574462503194809 0.05923862010240555 0.21745961904525757 -0.05220898985862732 -0.0939350575208664 -0.11871793121099472 -0.1712152659893036 -0.007454092614352703 0.011488152667880058 0.08094055950641632 0.1530548632144928 -0.22316375374794006 -0.04656823351979256 -0.04484126716852188 0.12396490573883057 -0.048961516469717026 -0.20998582243919373 0.10001448541879654 0.12094788998365402 0.1933608204126358 -0.047942981123924255 0.12945745885372162
an -0.20446144044399261 -0.17597031593322754 -0.006372458301484585 -0.08667385578155518 -0.2082093507051468 -0.2663363516330719 0.046430524438619614 -0.1990041881799698 0.029913879930973053 0.2000575065612793 -0.07318855822086334 -0.21882596611976624 -0.09095637500286102 0.11163878440856934 0.11095648258924484 -0.28445902466773987 0.003311699256300926 0.21826566755771637 0.01738043688237667 -0.047763705253601074 0.17826449871063232 0.22861920297145844 0.19766594469547272 -0.09775761514902115 0.23747240006923676 -0.2205907255411148 0.10728350281715393 0.015952816233038902 0.009573440067470074 0.1418745368719101 0.03463002294301987 -0.22477589547634125 0.19569988548755646 -0.01588989980518818 -0.11144495755434036 0.10180303454399109 0.012418335303664207 -0.10558412969112396 -0.03849285840988159 0.06291957199573517 0.11725381761789322 -0.14564792811870575 0.07608433812856674 -0.007709220517426729 -0.22236032783985138 -0.24161189794540405 -0.10158705711364746 0.006268698256462812 -0.0638134703040123 0.10564349591732025 -0.07481609284877777 -0.05628947541117668 -0.09221650660037994 0.06379030644893646 -0.0727154016494751 0.14829808473587036 0.05121254175901413 -0.22139957547187805 0.03583097085356712 0.016266094520688057 -0.04927663132548332 0.12194419652223587 0.10928177088499069 0.2245340198278427 -0.02307618409395218 0.16306963562965393 -0.21758157014846802 -0.09826381504535675 -0.14814125001430511 -0.08016972988843918 0.14822185039520264 0.10520807653665543 0.25304272770881653 0.08350666612386703 -0.17481273412704468 0.1259639710187912 0.10445477068424225 0.12339431792497635 0.013926194049417973 -0.0352979451417923 0.14920757710933685 -0.04259055107831955 -0.06553635001182556 -0.07969850301742554 -0.048982422798871994 -0.37285828590393066 -0.18564146757125854 0.06338898092508316 0.07306931912899017 -0.1830289512872696 0.21201209723949432 -0.0963650494813919 0.13570059835910797 -0.13243867456912994 0.18833161890506744 -0.05891235172748566 0.1274576336145401 0.2828371822834015 0.3332096338272095 0.12660056352615356
- -0.046592649072408676 0.09683988988399506 0.09657945483922958 -0.07092227786779404 -0.048472147434949875 0.001942291739396751 -0.015451445244252682 -0.04339773952960968 -0.13405156135559082 0.020567303523421288 0.10832395404577255 -0.05975997447967529 -0.13292145729064941 0.1352929174900055 0.09433938562870026 0.002624793676659465 -0.17978164553642273 -0.018340855836868286 -0.002529911696910858 -0.11750400066375732 0.012074589729309082 0.08017167448997498 0.07413756102323532 -0.0809832289814949 -0.025430461391806602 0.04095911979675293 0.05707913264632225 -0.12397730350494385 -0.17022393643856049 0.02471327967941761 0.04591922089457512 -0.005795018747448921 0.03721274808049202 -0.10081060230731964 -0.060591958463191986 0.0618017241358757 -0.16701436042785645 0.02529524266719818 0.17589499056339264 -0.033772487193346024 0.010213482193648815 -0.11599743366241455 -0.0620320625603199 -0.001676848391070962 -0.025073528289794922 -0.08649440109729767 -0.06976570188999176 -0.04878461733460426 0.004847143776714802 0.050943564623594284 0.05936191603541374 0.021958429366350174 0.011485510505735874 -0.0802609771490097 -0.08215899765491486 0.059920016676187515 -0.006476039998233318 -0.06462285667657852 -0.03900113329291344 -0.08026419579982758 -0.05519149824976921 0.029638273641467094 -0.1405818611383438 0.08854992687702179 -0.039274152368307114 0.014066589996218681 -0.07103671133518219 -0.11018466204404831 -0.016680069267749786 0.04578816145658493 0.08442770689725876 -0.06295981258153915 0.13094788789749146 0.03659410774707794 -0.016451150178909302 -0.014711547642946243 -0.006009296979755163 0.10770703852176666 -0.06844120472669601 0.045360174030065536 -0.1925312578678131 -0.01073642447590828 -0.04324928671121597 0.003981061279773712 -0.03698573261499405 -0.050466522574424744 -0.02306046150624752 0.001727588940411806 -0.005776650737971067 0.031309425830841064 0.021226681768894196 -0.008116965182125568 0.08037417382001877 -0.08235029131174088 -0.04068892449140549 0.0882907509803772 -0.010209537111222744 0.13623258471488953 0.023584585636854172 -0.008710849098861217
each -0.1669825315475464 -0.39088156819343567 0.23670919239521027 -0.10043438524007797 -0.6603473424911499 -0.16287793219089508 -0.14271028339862823 -0.21116910874843597 -0.10873834788799286 0.12260723859071732 -0.4436408579349518 -0.3441157937049866 0.27616962790489197 0.21338069438934326 0.07783524692058563 -0.07306676357984543 0.05899433046579361 0.17196743190288544 0.13429328799247742 -0.20992699265480042 0.13833189010620117 -0.09271830320358276 0.25111499428749084 -0.01514230016618967 0.2912371754646301 0.19677089154720306 0.6021423935890198 0.28258273005485535 -0.20468555390834808 -0.14462707936763763 0.22446613013744354 0.3094882071018219 -0.07752703130245209 -0.2008480578660965 -0.2596305310726166 -0.07195016741752625 -0.04154067486524582 0.08307207375764847 0.17018641531467438 -0.11331324279308319 0.10930857062339783 -0.3347984254360199 0.015953846275806427 0.12126792222261429 0.15567417442798615 -0.02380378730595112 0.04777012765407562 0.055101726204156876 -0.010715399868786335 -0.10009989887475967 -0.10488361865282059 -0.519469678401947 -0.37010258436203003 -0.0673476979136467 -0.049711987376213074 -0.07967180758714676 -0.2687225341796875 0.24025580286979675 0.15798088908195496 -0.3540058434009552 -0.23309683799743652 -0.49586930871009827 0.26426589488983154 0.3748515248298645 0.20008976757526398 -0.11404567956924438 -0.18453381955623627 0.36514556407928467 -0.19005799293518066 -0.3743066191673279 0.17576444149017334 -0.24222205579280853 0.09936434030532837 0.01820387877523899 -0.04187900200486183 0.08644412457942963 0.0896294042468071 -0.009370915591716766 0.22005519270896912 -0.15554629266262054 -0.1317397654056549 0.3005583882331848 -0.19007931649684906 0.18087837100028992 0.17413797974586487 0.05026955157518387 -0.06951775401830673 0.16220219433307648 0.16331814229488373 -0.12555652856826782 0.14522232115268707 -0.09673723578453064 0.14544929563999176 0.5238522887229919 0.12392792850732803 0.11895870417356491 -0.014793300069868565 0.14425013959407806 0.07465535402297974 0.11914710700511932
former 0.008978099562227726 0.01748458482325077 0.023666800931096077 -0.03686898946762085 -0.07127318531274796 -0.032502468675374985 0.014256336726248264 0.015302329324185848 -0.012173139490187168 0.058831531554460526 -0.029426317662000656 0.007427551317960024 -0.044091563671827316 0.027129126712679863 0.02966579608619213 0.008688417263329029 -0.057072270661592484 0.058891117572784424 0.014225015416741371 -0.04317322373390198 0.0010849077953025699 -0.014443617314100266 -0.002396324183791876 -0.014182615093886852 -0.016381066292524338 0.051318395882844925 0.02149083837866783 -0.02324596606194973 -0.045026905834674835 -0.015885451808571815 0.0031823446042835712 -0.0646577775478363 -0.014207523316144943 -0.018889158964157104 -0.06277666985988617 0.06539114564657211 -0.022155266255140305 0.018070505931973457 0.00985108595341444 0.004292265512049198 0.0160206351429224 -0.02027571201324463 -0.015136140398681164 -0.023525310680270195 0.04984718933701515 0.016378670930862427 -0.029981177300214767 -0.02003823034465313 0.038044825196266174 0.0037731719203293324 0.03053242154419422 -0.0413057841360569 -0.02081381529569626 -0.05054346099495888 -0.026318812742829323 0.007156702224165201 -0.011485113762319088 -0.024747593328356743 -0.009104965254664421 -0.008437467738986015 2.120641147485003E-4 0.037963684648275375 -0.04277731105685234 -0.021994197741150856 0.00158501579426229 -0.009704137220978737 0.045089125633239746 -0.004487913101911545 -0.028968919068574905 0.02443721331655979 -0.0199570469558239 0.02588815614581108 0.02678450010716915 7.368419319391251E-4 -0.007623058278113604 0.01685229502618313 -0.003844637656584382 0.06591077893972397 0.007475901860743761 0.03988420590758324 0.022878604009747505 -0.03921174630522728 -0.04581119492650032 -0.04133050516247749 -0.014341803267598152 -0.006654782686382532 0.007978219538927078 0.05026770755648613 0.004555489867925644 -0.01655435748398304 -0.05298904702067375 -0.031738150864839554 0.06180758774280548 0.013488770462572575 -0.030002063140273094 0.02107761986553669 -0.008325684815645218 0.026863083243370056 0.002588727278634906 0.0013399742310866714
as -0.08939085900783539 -0.05981164798140526 -0.057710982859134674 0.1244080439209938 -0.14086514711380005 0.18153829872608185 0.28575006127357483 0.6130725145339966 -0.046790849417448044 0.003616091562435031 -0.2291262298822403 0.19239546358585358 -0.09214463084936142 0.042758043855428696 0.029311681166291237 0.25224918127059937 -0.0070195565931499004 -0.1844595968723297 0.27570483088493347 -0.22187788784503937 0.3575732409954071 -0.007735860999673605 0.539951741695404 -0.546873927116394 0.11647964268922806 0.23571979999542236 0.0103251738473773 -0.13685022294521332 0.08211703598499298 -0.21916942298412323 -0.031784795224666595 0.0021115541458129883 -0.11659975349903107 0.0016918865730986 -0.3330670893192291 0.2824191451072693 -0.12784764170646667 0.1321055144071579 0.24051326513290405 -0.3312641382217407 -0.44006335735321045 0.02791656367480755 0.2763536870479584 -0.347427099943161 -0.01160203106701374 0.019223615527153015 -0.3155895173549652 0.09801921993494034 -0.09817297011613846 0.0723579078912735 0.1012069582939148 0.5541474223136902 -0.133287250995636 0.4062708914279938 0.0494682677090168 -0.07041472941637039 -0.10122918337583542 0.05583089217543602 0.1467534899711609 0.05782834812998772 0.006246169563382864 -0.2965494990348816 -0.045302726328372955 0.38805919885635376 -0.1314864307641983 0.3129693269729614 -0.010895350947976112 0.04533742740750313 -0.7744376063346863 0.06458102911710739 -0.09273429214954376 -0.35404810309410095 -0.059644121676683426 -0.11613380163908005 -0.016834594309329987 -0.012029100209474564 -0.10784175992012024 0.2609246075153351 -0.055853646248579025 0.03140908107161522 0.35239502787590027 0.14753130078315735 0.08376410603523254 -0.4311358630657196 -0.27045586705207825 -0.017484256997704506 0.3679037392139435 -0.061511021107435226 -0.2794135808944702 0.2262667715549469 -0.02641138806939125 -0.14341244101524353 0.1381276696920395 0.08866553753614426 0.25767651200294495 0.14260020852088928 0.049402374774217606 -0.23214055597782135 -0.06829133629798889 -0.13371507823467255
at 0.1778826266527176 -0.1963125467300415 0.07357268035411835 -0.03545643389225006 -0.15966323018074036 -0.23636507987976074 0.06261138617992401 0.0497649684548378 -0.44198328256607056 0.03799871727824211 0.0976376011967659 -0.00918169692158699 -0.24262139201164246 0.13217197358608246 0.09423653036355972 -0.23609013855457306 0.1843523383140564 0.06930682063102722 0.13385571539402008 -0.07041630148887634 -0.10577046126127243 0.1965276449918747 -0.15452013909816742 -0.2129012644290924 0.021729562431573868 0.005417033564299345 0.12619629502296448 -0.2648334503173828 -0.3987216055393219 -0.282351553440094 0.04101933538913727 0.017469096928834915 -0.21598410606384277 -0.16475734114646912 -0.2586895525455475 0.26767951250076294 0.4589283764362335 0.04392361640930176 0.14176832139492035 -0.24171146750450134 0.1509724259376526 0.002108342945575714 -0.46287471055984497 -0.06827233731746674 -0.3938519358634949 0.01061779260635376 0.022373579442501068 -0.21914955973625183 -0.10019148141145706 -0.29548290371894836 -0.04421870782971382 -0.009850329719483852 -0.27084842324256897 -0.41838544607162476 0.31290537118911743 -0.5449669361114502 0.03552329167723656 0.09424133598804474 -0.053682003170251846 -0.47100722789764404 -0.3401815891265869 -0.4501316547393799 -0.046958744525909424 -0.09093145281076431 -0.17986786365509033 0.20303018391132355 0.1426021158695221 -0.22709408402442932 0.03526423126459122 -0.002017820253968239 -0.21893173456192017 0.3509925901889801 0.23597894608974457 0.1965758502483368 0.144113227725029 -0.1811532974243164 0.1715022772550583 0.22666263580322266 0.09756425023078918 -0.24353502690792084 -0.17079097032546997 -0.08493117988109589 0.16377097368240356 -0.10840639472007751 -0.2541669011116028 0.13891543447971344 -0.4530012607574463 0.01145307719707489 0.03290388733148575 -0.10445495694875717 -0.005093047395348549 -0.4423180818557739 -0.29932352900505066 0.27798083424568176 0.04555709660053253 0.40937671065330505 -0.024359049275517464 0.2545102834701538 -0.05308147147297859 0.004715415649116039
left 0.05299113318324089 -0.010587253607809544 0.3559471070766449 -0.31074440479278564 -0.14825941622257233 -0.1578952521085739 0.020917246118187904 -0.19722726941108704 -0.01926264539361 -0.07438446581363678 0.14320586621761322 -0.19505536556243896 -0.3490584194660187 -0.08569242060184479 -0.32917535305023193 -0.021690016612410545 -0.04736312851309776 0.04861793667078018 0.06711269170045853 -0.23045387864112854 0.023456158116459846 -0.19863055646419525 0.013083459809422493 0.026272227987647057 0.0898996964097023 -0.1915249526500702 0.1431569755077362 -0.12616387009620667 -0.4133293926715851 0.05921478196978569 0.23266440629959106 -0.2756563723087311 -0.26125654578208923 0.009484557434916496 0.0834481492638588 -0.11692045629024506 -0.13440021872520447 -0.24793455004692078 0.14132587611675262 0.057921331375837326 -0.15923769772052765 -0.28076788783073425 -0.15853199362754822 -0.2201521098613739 0.12269159406423569 -0.18103338778018951 0.02903631515800953 0.06397703289985657 -0.03470117226243019 0.11380890756845474 0.2019662857055664 -0.141280397772789 0.243210569024086 -0.19684864580631256 -0.20967082679271698 0.09766092896461487 0.12329286336898804 -0.028277065604925156 -0.14333069324493408 -0.06278301775455475 -0.048435717821121216 -0.07757432758808136 -0.38033246994018555 -0.017494026571512222 -0.12077916413545609 0.08896815776824951 0.023048272356390953 0.06894724816083908 -0.04517830163240433 -6.372580537572503E-4 0.05629730969667435 0.03117680735886097 0.2021336853504181 -0.02424279972910881 -0.01922987960278988 0.08829837292432785 -0.15614990890026093 -0.03718964010477066 -0.2268398255109787 0.28699150681495667 0.17024287581443787 -0.05359349772334099 -0.07213692367076874 -0.2052847445011139 -0.14089275896549225 -0.017005955800414085 0.035013020038604736 -0.16300036013126373 0.020106209442019463 -0.20306622982025146 0.17350995540618896 0.3910021483898163 -0.2775031328201294 -0.19759851694107056 0.18484532833099365 0.07884256541728973 0.06711161136627197 -0.08999490737915039 0.050704605877399445 0.031079890206456184
much -0.017150824889540672 0.0732482522726059 0.2922767996788025 0.09978893399238586 -0.17035163938999176 0.12376578897237778 -0.21519675850868225 -0.4155316948890686 0.20680998265743256 -0.22800128161907196 0.014551295898854733 -0.03527211770415306 -0.27848201990127563 -0.02395951747894287 -0.1929716020822525 -0.29227960109710693 0.07714349776506424 -0.14883075654506683 -0.12166459858417511 -0.34593188762664795 -0.08906016498804092 -0.1948622465133667 -0.03974330052733421 0.03596969321370125 0.580054521560669 -0.5645474195480347 0.2314521074295044 0.18768009543418884 -0.10020322352647781 -0.20247328281402588 0.510696291923523 0.10727163404226303 0.20581796765327454 0.11652791500091553 0.08516404777765274 -0.5577012896537781 0.23849523067474365 -0.28100264072418213 -0.22962315380573273 -0.17760281264781952 0.1415739804506302 0.4826490879058838 0.1520838737487793 -0.08659891039133072 0.049209482967853546 -0.036889754235744476 -0.10428964346647263 -0.03240468353033066 0.5098974704742432 0.2388152927160263 -0.05098968371748924 0.15899737179279327 0.09318990260362625 0.029778728261590004 0.18231496214866638 0.15999998152256012 -0.04465746879577637 0.4475955367088318 -0.296205997467041 0.12769685685634613 -0.19144733250141144 -0.328612744808197 0.30435529351234436 0.10439576208591461 0.10335762053728104 0.06656383723020554 -0.19630202651023865 -0.15334440767765045 -0.012884650379419327 -0.35246604681015015 0.41402801871299744 -0.10790352523326874 0.08803822100162506 0.009143419563770294 -0.10725622624158859 -0.2046806514263153 -0.29790547490119934 -0.023936942219734192 -0.2833096385002136 -0.43367716670036316 1.7335591837763786E-4 -0.4424390494823456 0.028663719072937965 0.04539395496249199 0.42451316118240356 -0.03463776782155037 0.05500102788209915 0.21114498376846313 -0.00340114813297987 -0.1477804034948349 -0.15711255371570587 0.09184939414262772 -0.09465809911489487 -0.4715861976146698 -0.23499801754951477 -0.4345947504043579 -0.2606472074985504 -0.2886412441730499 -0.017393874004483223 -0.021427283063530922
be -0.4283950626850128 0.1868472844362259 0.22309550642967224 0.016452204436063766 -0.15657274425029755 -0.1759723722934723 0.014593714848160744 0.2995857894420624 0.2972341775894165 0.28461673855781555 0.3309025168418884 -0.011039432138204575 0.039864834398031235 0.14498943090438843 -0.19733642041683197 -0.24463772773742676 -0.3512994945049286 0.301021933555603 0.19981782138347626 0.5921551585197449 0.06599394232034683 0.03666507452726364 0.24889536201953888 0.11312244087457657 -0.032521843910217285 -0.07479333877563477 -0.021390993148088455 0.09854795038700104 0.02966216765344143 -0.0465235710144043 0.1809476912021637 -0.2293858677148819 -0.08815348893404007 0.05162632092833519 0.06879991292953491 0.1891455203294754 0.2224523425102234 0.16832171380519867 -0.1531749665737152 -0.14272475242614746 -0.04888853430747986 -0.09328687936067581 -0.3185149133205414 -0.23022021353244781 -0.05845421925187111 -0.16817009449005127 0.06379855424165726 0.18756359815597534 -0.37061265110969543 -0.08510952442884445 0.03209169954061508 -0.1131921112537384 -0.05655517056584358 0.26241087913513184 0.29403918981552124 0.35978037118911743 0.1819828599691391 -0.0508752316236496 -0.027394823729991913 0.1933598518371582 -0.34954509139060974 7.847457891330123E-4 0.22960922122001648 0.31686505675315857 -0.01838097907602787 0.20689524710178375 0.013388239778578281 -0.06348948180675507 -0.31200316548347473 -2.153270470444113E-4 0.059097111225128174 0.228517085313797 0.08001640439033508 0.11644292622804642 0.028026580810546875 0.11074381321668625 0.08451246470212936 0.02729632705450058 0.11770965903997421 -0.0528535395860672 0.35229769349098206 -0.4154970645904541 -0.04683667793869972 -0.19593626260757446 0.10603078454732895 -0.09506522119045258 0.2308874875307083 -0.14477044343948364 -0.34673723578453064 0.2841746211051941 -0.24605238437652588 0.028501886874437332 -0.0423123836517334 -0.38176751136779785 0.26392099261283875 0.060040127485990524 -0.1520361602306366 0.3009262681007385 -0.4586023688316345 0.21984964609146118
another -0.045106109231710434 0.29746338725090027 -0.08974171429872513 0.06736910343170166 -0.025945214554667473 -0.3052639663219452 -0.05506189167499542 -0.10389836132526398 -0.4006456732749939 0.12280604243278503 -0.07819878309965134 -0.18546082079410553 0.17919938266277313 0.1420329213142395 0.13524946570396423 -0.1891794204711914 -0.1383969783782959 0.11011164635419846 -0.268932580947876 -0.026081206277012825 0.11306418478488922 0.20204724371433258 -0.012509091757237911 0.08895140886306763 0.14867107570171356 -0.07876834273338318 -0.02295961044728756 0.12911657989025116 0.02646620012819767 0.2724057137966156 -0.13409820199012756 -0.29247012734413147 0.04196254163980484 0.47907859086990356 -0.007295851595699787 -0.048920173197984695 -0.14788587391376495 -0.12199021875858307 0.29008176922798157 -0.006058326922357082 0.18920256197452545 -0.3294793963432312 0.06451690942049026 -0.12300582230091095 0.07828287035226822 -0.22634552419185638 0.15628302097320557 0.2207219898700714 0.11010310053825378 -0.08271989226341248 -0.1407451331615448 -0.14804907143115997 -0.43361490964889526 0.22958499193191528 -0.17070622742176056 0.07311788946390152 -0.07448642700910568 -0.13982467353343964 0.19125257432460785 0.12417162954807281 -0.07086566090583801 0.10298310220241547 -0.23110127449035645 0.3178458511829376 0.38315388560295105 0.488289475440979 -0.037941474467515945 -0.007447540294378996 -0.10574240982532501 0.10872241109609604 0.07813842594623566 0.14467830955982208 0.33712926506996155 0.06816046684980392 -0.40459853410720825 6.737608928233385E-4 0.013560166582465172 -0.04507143050432205 -0.33787262439727783 0.17622189223766327 -0.15594790875911713 -0.020451508462429047 -0.1362684816122055 -0.3737521767616272 0.0523897223174572 -0.1695268750190735 -0.22864365577697754 0.191990464925766 0.036444175988435745 0.1472216546535492 0.011896629817783833 0.13033750653266907 0.06453833729028702 -0.08608680218458176 -0.048789042979478836 0.0596327967941761 -0.28266170620918274 0.22212810814380646 0.1590633988380432 0.11699619889259338
two 0.03820500522851944 0.11092904955148697 0.17120064795017242 -0.1171492487192154 -0.03019709885120392 0.223638653755188 0.10344188660383224 -0.153482586145401 -0.26068028807640076 0.36101120710372925 0.10821964591741562 -0.1038900837302208 0.04479651525616646 0.15886250138282776 -0.04570150375366211 -0.3342944085597992 -0.21289104223251343 -0.1351407766342163 -0.09810709953308105 -0.19825126230716705 0.3221564292907715 -0.3044142425060272 0.14914348721504211 -0.06451975554227829 -0.20632123947143555 0.13206328451633453 0.43478187918663025 -0.0883297324180603 -0.40868914127349854 -0.06375917792320251 -0.15092438459396362 -0.47060373425483704 -0.2867319881916046 -0.1525561660528183 -0.13379476964473724 0.03778225928544998 -0.4111928641796112 -0.22448578476905823 0.7643721699714661 -0.27699825167655945 -0.16953593492507935 -0.38850870728492737 -0.135810986161232 -0.15001487731933594 0.3282598853111267 -0.23609237372875214 -0.01549665629863739 0.1911105215549469 0.31142154335975647 0.04432040825486183 0.4756692051887512 -0.4779520332813263 -0.13699761033058167 -0.3554444909095764 -0.0801405981183052 0.4257064461708069 -0.02000080980360508 -0.20236720144748688 -0.1703283190727234 -0.48511382937431335 0.039372604340314865 -0.0840984582901001 -0.42612922191619873 0.14314989745616913 0.11765018105506897 0.3395274877548218 -0.11556856334209442 0.23692966997623444 -0.33332687616348267 -0.31178635358810425 -0.05769961699843407 -0.22997017204761505 0.4085066020488739 -0.3141149580478668 0.09397677332162857 -0.02341192401945591 -0.15169017016887665 -0.26176318526268005 -0.28174877166748047 0.29140764474868774 -0.31991198658943176 -0.23282378911972046 -0.019642161205410957 -0.20367829501628876 0.030245577916502953 -0.1292114108800888 0.014591554179787636 -0.2096085250377655 0.19566144049167633 -0.24585506319999695 0.17869356274604797 0.3641863167285919 -0.29217663407325745 0.10077746957540512 0.061537764966487885 0.3347302973270416 -0.04505520313978195 0.16123613715171814 0.041820235550403595 0.30961740016937256
long -0.3152182102203369 -0.12342535704374313 -0.45086872577667236 0.37534093856811523 -0.21108661592006683 -0.39377662539482117 -0.08388783037662506 0.04482392594218254 0.1622898280620575 -0.16300581395626068 0.3550845980644226 -0.5339685082435608 0.5045261383056641 -0.008913162164390087 -0.07985953241586685 -0.3362083435058594 0.005317860282957554 0.05372421815991402 -0.3100418150424957 0.1338171660900116 0.1638856679201126 0.23637768626213074 -0.031922370195388794 -0.14847832918167114 -0.055975861847400665 -0.14546072483062744 -0.03762546554207802 0.03713848814368248 0.07167704403400421 -0.10601460188627243 -0.28939351439476013 -0.7757623195648193 0.5571960806846619 0.08127829432487488 0.1470155268907547 -0.26572999358177185 0.161824569106102 -0.1199842244386673 0.03774665668606758 -0.11012672632932663 0.14597181975841522 0.21065939962863922 -0.11195579171180725 -0.19092941284179688 -0.537119448184967 -0.2509498596191406 -0.3740750849246979 0.016925208270549774 0.31394529342651367 0.3894053101539612 0.20475143194198608 0.31997719407081604 -0.06185079738497734 -0.3655681610107422 0.3382839858531952 0.04577580466866493 -0.07350552827119827 -0.04132039099931717 -0.24483492970466614 -0.2056114673614502 -0.1836458146572113 0.05153360962867737 -0.16651499271392822 0.30729812383651733 0.7367473840713501 -0.01773974485695362 -0.47479724884033203 -0.08337847888469696 -0.313485324382782 0.21365509927272797 0.42768803238868713 0.01663290150463581 0.5828332901000977 -0.20895513892173767 0.001665731193497777 -0.056636661291122437 -0.14625351130962372 0.12956999242305756 -0.4664313793182373 -0.3215498924255371 0.16773998737335205 -0.45434120297431946 0.6882100701332092 0.14497171342372894 -0.08020386844873428 0.34799304604530334 0.20817776024341583 0.1543845683336258 0.07978466153144836 -0.2377399504184723 -0.015532489866018295 -0.15781915187835693 -0.011152378283441067 -0.3819940686225891 -0.20961973071098328 -0.24741554260253906 -0.2707124948501587 -0.22892707586288452 0.3087208569049835 0.18631769716739655
into -9.298424702137709E-4 0.19376744329929352 -0.023956140503287315 0.010790087282657623 0.18636463582515717 0.13533762097358704 -0.0669168010354042 -0.26949405670166016 -0.08242420107126236 0.057489264756441116 -0.07614821195602417 -0.26523539423942566 0.15631252527236938 0.08633863180875778 0.16170701384544373 0.027161730453372 -0.08434391021728516 0.15799255669116974 -0.10821536928415298 -0.04442853853106499 0.038614723831415176 0.12073288857936859 0.20977966487407684 0.04523780196905136 0.01812826655805111 0.1615893840789795 0.008112202398478985 -0.06361081451177597 -0.04325128346681595 0.019283335655927658 -0.3201223611831665 0.027216553688049316 0.04901016876101494 0.06132282689213753 -0.08495637029409409 -0.10729111731052399 0.09710923582315445 -0.2630389630794525 0.08154115080833435 0.1810651421546936 0.18207406997680664 0.04736015945672989 0.028400583192706108 0.03520628809928894 -0.300914466381073 0.019648998975753784 0.12198778986930847 0.07097354531288147 -0.2205839455127716 -0.04374799132347107 -0.05213869363069534 0.15619409084320068 -0.13897541165351868 0.15002411603927612 -0.11750409007072449 -0.13371649384498596 -0.04565427452325821 -0.110709048807621 0.09679191559553146 -0.010062630288302898 0.12219039350748062 0.12443847954273224 0.07388900965452194 -0.13897790014743805 0.2802630364894867 0.19615505635738373 0.015897750854492188 -0.06263384222984314 -0.18178154528141022 -0.14427450299263 -0.05575236305594444 0.055973779410123825 -0.06902774423360825 0.11206216365098953 0.10744048655033112 -0.09685372561216354 0.32070761919021606 -0.19051364064216614 0.2570030391216278 -0.049450989812612534 0.2337297648191452 -0.09132591634988785 -0.06703881919384003 -0.055313434451818466 -0.20520731806755066 0.007708121091127396 -0.18090616166591644 -0.13061927258968353 -0.08643041551113129 -0.03769170492887497 0.23440882563591003 -0.1456051766872406 -0.07105376571416855 0.19669155776500702 -0.10153926908969879 0.08467715978622437 0.09955029934644699 0.09022999554872513 0.19490036368370056 0.21538037061691284
how -0.20875972509384155 0.12343361228704453 -0.08583316206932068 0.228875070810318 -0.04650712385773659 -0.0717339962720871 0.04365811496973038 -0.09212736040353775 0.1328197568655014 -0.2911703884601593 0.1216706857085228 0.07686928659677505 -0.045265570282936096 -0.1976819932460785 0.414973646402359 0.3120354413986206 -0.37396031618118286 -0.32354676723480225 -0.06915504485368729 -0.5342128276824951 0.21994855999946594 0.011455774307250977 0.33603525161743164 -0.12339213490486145 0.236940398812294 0.4465489983558655 0.04362843558192253 -0.09375418722629547 -0.1718984991312027 -0.4471246600151062 -0.3799189329147339 0.242023766040802 0.1455925554037094 0.23123864829540253 -0.04056305065751076 -0.05325498804450035 -0.09426417946815491 -0.14002743363380432 0.281022846698761 -0.29307830333709717 -0.23138518631458282 0.2203216701745987 0.46905386447906494 0.1282334327697754 0.006082805339246988 -0.02381409890949726 -0.009489615447819233 0.2790493369102478 -0.2392951399087906 0.1730179637670517 -0.3152928948402405 0.3043881356716156 0.13999484479427338 0.25855135917663574 -0.1332358419895172 0.04957427456974983 0.0980348140001297 0.42766252160072327 0.2160453349351883 -0.02995246835052967 -0.15752679109573364 -0.40083029866218567 0.3748989999294281 0.3444720208644867 -0.009033597074449062 0.04406978562474251 -0.22008925676345825 0.028459500521421432 0.013456924818456173 -0.1480468511581421 0.29450809955596924 -0.2029043287038803 -0.19059519469738007 -0.1892024278640747 0.12860509753227234 -0.11321939527988434 -0.16700424253940582 0.027250861749053 0.10633157938718796 0.012779191136360168 0.10233141481876373 0.44217219948768616 0.10706140846014023 -0.08181209862232208 -0.11364826560020447 -0.23364010453224182 0.09043814241886139 -0.08466397225856781 -0.29453766345977783 0.14545606076717377 0.28901609778404236 -0.03666047379374504 0.4205995500087738 0.04391742870211601 0.27170974016189575 -0.18858735263347626 0.10075795650482178 0.23437578976154327 0.07935915142297745 -0.24823246896266937
see -0.06573183089494705 0.19292443990707397 0.08886480331420898 0.16556204855442047 0.12935934960842133 0.13761663436889648 -7.245620363391936E-4 -0.19065304100513458 0.03894134983420372 -0.15045438706874847 0.12351413816213608 -0.087611623108387 0.051032524555921555 0.19445820152759552 -0.16455504298210144 0.10367809981107712 -0.03904661536216736 -0.011496037244796753 0.029083075001835823 0.22291654348373413 0.056997425854206085 0.05729176104068756 0.17758800089359283 0.09367012977600098 -0.21080796420574188 0.0018208479741588235 0.023834949359297752 0.28718307614326477 0.10729570686817169 0.18401995301246643 0.21355277299880981 0.13172674179077148 -0.022498439997434616 -0.03841938078403473 -0.12428617477416992 -0.21922187507152557 0.20091627538204193 -0.11502333730459213 -0.07336337119340897 -0.21307159960269928 -0.19321735203266144 0.3011414706707001 0.07093014568090439 0.41886693239212036 -0.2177780717611313 0.006617714185267687 0.21014754474163055 0.12975884974002838 -0.25438815355300903 -0.15531037747859955 0.0071530407294631 0.06513629853725433 -0.0462360642850399 0.3298722207546234 0.018037138506770134 -0.0748739242553711 -0.11011872440576553 -0.27102628350257874 -0.0295143723487854 0.03590286150574684 -0.037797972559928894 -0.0020571646746248007 0.01477766502648592 -0.12843385338783264 0.26854658126831055 0.28248295187950134 0.1511240303516388 -0.019102076068520546 0.023412618786096573 0.187267005443573 0.29598328471183777 0.11097277700901031 -0.05326664447784424 -0.055936623364686966 -0.08535680919885635 -0.2819516360759735 0.19757188856601715 0.17867983877658844 0.1647528111934662 0.13072210550308228 -0.018115926533937454 -0.14362181723117828 -0.067348413169384 -0.07310266047716141 0.09221594780683517 -0.269940048456192 -0.14406196773052216 -0.39922279119491577 -0.23193933069705963 0.0180719792842865 0.1366746872663498 -0.024643132463097572 -0.31068089604377747 -0.19045627117156982 0.24577175080776215 -0.22749660909175873 0.41622769832611084 -0.09014208614826202 -0.12214720249176025 0.056184232234954834
found 0.33546873927116394 -0.12967410683631897 0.21847854554653168 -0.27078351378440857 -0.16436123847961426 -0.09593421220779419 0.07726167142391205 0.07067715376615524 0.16989603638648987 0.014289358630776405 -0.013278939761221409 -0.22535988688468933 0.003743549808859825 -0.1723877489566803 -0.150814488530159 -0.05914498493075371 0.14365479350090027 0.27270054817199707 -0.03166687861084938 -0.2122139036655426 0.11916124820709229 -0.014499517157673836 0.04169675335288048 -0.20886418223381042 -0.02537253499031067 -0.35232993960380554 0.03221781924366951 0.0660962238907814 -0.16397646069526672 0.06052582710981369 0.0688864216208458 -0.2953467071056366 0.03571745380759239 0.11559398472309113 0.021263308823108673 -0.03317766264081001 -0.03221827745437622 -0.15976911783218384 0.043268200010061264 -0.025000104680657387 -0.1869923174381256 -0.03374230116605759 -0.3052166700363159 -0.17753005027770996 -0.06426841765642166 -0.04007752984762192 0.14896932244300842 0.11752117425203323 -0.04079703986644745 -0.019391320645809174 -0.11476517468690872 -0.13803184032440186 0.3386404514312744 -0.05424988642334938 -0.23201049864292145 -0.025962507352232933 -0.01614379696547985 -0.061962977051734924 0.019389070570468903 -0.09583202004432678 -0.03803268447518349 -0.06017271429300308 -0.2641500234603882 0.004639605991542339 0.1515304446220398 0.19063925743103027 0.0012832570355385542 -0.14910919964313507 -0.003038323950022459 0.008110660128295422 0.2537514269351959 0.03577953577041626 0.2005612701177597 0.2183556854724884 -0.29864218831062317 -0.030173657462000847 0.0111146355047822 -0.11402124166488647 -0.04899297654628754 0.251923531293869 0.26722514629364014 0.04067001864314079 -0.139637753367424 -0.04003750905394554 -0.2669095993041992 0.09629432111978531 0.013740132562816143 -0.21379314363002777 -0.1169285774230957 -0.08496680110692978 0.13851810991764069 0.26467788219451904 -0.35178810358047485 -0.22484593093395233 0.16855879127979279 -0.025358283892273903 -0.030040591955184937 -0.1631743162870407 0.04490470141172409 -0.10396135598421097
same 0.06607796251773834 0.13974224030971527 0.4045661687850952 -0.060951683670282364 0.12687617540359497 0.16644765436649323 -0.19307178258895874 -0.09052281826734543 -0.051856737583875656 0.13177171349525452 0.18036708235740662 0.30438607931137085 -0.3605804443359375 0.04652472957968712 0.010485057719051838 0.06530267000198364 0.24937720596790314 0.7497145533561707 0.20327793061733246 -0.35966596007347107 -0.22380712628364563 0.27275174856185913 0.13716746866703033 -0.13178223371505737 -0.18057852983474731 0.3009374737739563 0.0847143903374672 -0.1957021802663803 -0.08546801656484604 -0.3072521388530731 -0.1434188336133957 -0.5070675015449524 -0.30125072598457336 -0.07708580046892166 -0.22272324562072754 0.043925728648900986 -0.0973372831940651 0.053676787763834 -0.0130414804443717 0.4816112518310547 -0.012103719636797905 0.2361041009426117 -0.060203488916158676 -0.27498194575309753 0.4260428249835968 -0.3214270770549774 -0.13095559179782867 -0.19370277225971222 0.17419008910655975 -0.10286213457584381 0.1596936732530594 -0.05180312320590019 -0.2056301236152649 -0.13654258847236633 0.4235157072544098 0.05603811517357826 -0.15851116180419922 -0.23115603625774384 0.11855971068143845 0.12340736389160156 -0.2525847554206848 -0.13112331926822662 -0.1379304826259613 -0.04023672267794609 0.32729193568229675 -0.12522506713867188 -0.17684301733970642 -0.18415214121341705 -0.024537524208426476 0.38172000646591187 -0.11020483821630478 0.20537157356739044 0.2518296241760254 -0.005024971906095743 -0.351752907037735 -0.2984776198863983 0.037673648446798325 0.3222198188304901 0.026390288025140762 -0.18219338357448578 -0.08382904529571533 -0.07197541743516922 0.028798457235097885 -0.2051287591457367 -0.25403329730033875 0.005263610277324915 -0.24554182589054108 0.1965765655040741 -0.1554402858018875 -0.2959676682949066 -0.06714483350515366 0.1504754275083542 0.12120434641838074 -0.3106125295162201 0.2027285397052765 0.2570081353187561 0.0656481683254242 0.11138492077589035 0.06825263053178787 0.22523370385169983
are -0.34376490116119385 -0.21559052169322968 0.19551968574523926 0.30625462532043457 -0.1777954399585724 0.364475280046463 -0.23456531763076782 0.1527443528175354 0.04330722242593765 0.02694757468998432 0.2370462566614151 -0.6295098662376404 0.35020017623901367 0.17484652996063232 -0.002540583023801446 0.4902735948562622 0.0813869833946228 0.24408917129039764 0.06449028104543686 -0.28030872344970703 0.1306280493736267 -0.10587666928768158 0.05448358878493309 -0.15399758517742157 0.1038559228181839 0.19607213139533997 0.015937980264425278 0.5724040269851685 0.014725099317729473 -0.21797879040241241 0.3992184102535248 0.20867978036403656 -0.2621029317378998 -0.015580400824546814 -0.043131861835718155 0.34674370288848877 -0.08718018978834152 0.05822437256574631 -0.13774968683719635 0.11082493513822556 -0.30815520882606506 -0.6073377728462219 -0.12885627150535583 -0.18724842369556427 0.1061861589550972 -0.1523536890745163 0.33015352487564087 0.1829604059457779 0.19703538715839386 0.05900122597813606 -0.11601949483156204 0.007060278207063675 -0.019221104681491852 -0.13905823230743408 0.19194233417510986 -0.17595119774341583 -0.23208878934383392 0.004430948756635189 -0.007953101769089699 0.13205233216285706 -0.40425339341163635 0.09843365103006363 0.3017888367176056 -0.2214188575744629 -0.24996761977672577 -0.27966001629829407 0.23688256740570068 0.4640585780143738 -0.41029179096221924 -0.02005268633365631 0.11754931509494781 0.03537866473197937 -0.05280373618006706 -0.23959986865520477 0.33990851044654846 -0.38310155272483826 -0.3720706105232239 -0.16660822927951813 0.08799920231103897 0.08471110463142395 -0.11438751220703125 -0.21343910694122314 -0.44850027561187744 0.5402702689170837 0.2278188318014145 -0.3136371076107025 0.057123467326164246 0.2872900664806366 -0.07588709145784378 0.1816631406545639 -0.19805485010147095 0.1582939326763153 -0.1968424767255783 0.18512408435344696 0.015212209895253181 -0.2732570767402649 0.21723148226737976 -0.3425852954387665 -0.2813244163990021 -0.15628179907798767
does 0.4143291413784027 0.034077536314725876 -0.06205533444881439 -0.16132698953151703 0.026300806552171707 0.20433753728866577 0.34922146797180176 0.10754264146089554 0.24763549864292145 -0.39132997393608093 -0.09398596733808517 -0.190613254904747 0.45225948095321655 0.1785849779844284 0.513330340385437 0.1670064479112625 -0.08689869940280914 0.009814147837460041 -0.2862779498100281 0.19591227173805237 -0.5451698899269104 -0.0746375098824501 -0.09455141425132751 0.1669938862323761 0.2222176343202591 -0.21124637126922607 -0.012973273172974586 -0.16542021930217743 -0.4558844566345215 0.669492781162262 -0.2169083207845688 -0.0017503185663372278 0.5602702498435974 -0.22872963547706604 -0.1577390432357788 -0.002135984366759658 -0.23070067167282104 0.36462074518203735 0.13077133893966675 -0.1616099625825882 0.12061020731925964 0.11687636375427246 0.17413072288036346 -0.16241581737995148 -0.2732342481613159 -0.036188170313835144 -0.20226958394050598 -0.1401016265153885 0.3652113080024719 -0.07660345733165741 -0.004843979608267546 0.02711806446313858 0.059436310082674026 0.00988228339701891 0.3295202851295471 -0.04591992869973183 -0.044476836919784546 0.10403795540332794 0.04624208062887192 0.06632749736309052 0.12002713233232498 -0.18414698541164398 0.14826491475105286 0.14847485721111298 -0.5327233076095581 0.12058462202548981 -0.19577687978744507 -0.028509577736258507 -0.10295762866735458 -0.04621687904000282 -0.3031656742095947 0.11625315248966217 -0.3184089958667755 0.35330164432525635 -0.11368167400360107 0.36785709857940674 -0.05849804729223251 0.07715574651956558 -0.03131299093365669 0.029376447200775146 0.3616291582584381 -0.19525010883808136 -0.16004979610443115 0.10796695202589035 0.08698467910289764 -0.20825815200805664 -0.3404894769191742 -0.10297264903783798 -0.099554143846035 -0.02388431504368782 0.26718270778656006 -0.47790247201919556 -0.39190298318862915 -0.2104540318250656 -0.0150081105530262 -0.10681723803281784 0.271730899810791 -0.19685254991054535 0.17736218869686127 0.11081753671169281
by -0.1061762198805809 0.11719690263271332 -0.04544312506914139 -0.0015867570182308555 0.015920687466859818 -0.03721918910741806 -0.1133461594581604 -0.04701247066259384 -0.15879635512828827 -0.09124703705310822 -0.0028605281841009855 -0.27883219718933105 0.10876771062612534 -0.040831875056028366 -0.14110182225704193 -0.09222785383462906 -0.1509673297405243 0.09762423485517502 -0.2316439002752304 -0.05317810922861099 0.07972315698862076 -0.02165893279016018 0.2199418842792511 0.010372587479650974 0.017791351303458214 0.2511598467826843 0.03218363970518112 -0.258543998003006 -0.13326653838157654 0.06725173443555832 -0.15801700949668884 -0.1510692536830902 -0.03390146791934967 0.2530575394630432 -0.017271164804697037 0.11768817156553268 0.023926543071866035 0.049511197954416275 0.2422695904970169 0.053985413163900375 -0.0035153953358531 -0.22367331385612488 -0.09632523357868195 -0.05270175263285637 0.06316304951906204 -0.08975546061992645 -0.010527284815907478 0.004565895535051823 -0.10871119052171707 -0.008643202483654022 0.10827551782131195 0.01621682196855545 -0.19647443294525146 -0.006994300987571478 -0.003975267056375742 -0.018451739102602005 -0.024423323571681976 -0.22482290863990784 -0.1397254765033722 -0.1061306744813919 -0.02952948585152626 0.08198960870504379 -0.15511155128479004 -0.17588499188423157 0.2169165462255478 0.23803678154945374 -0.03394292667508125 -0.038864634931087494 -0.22360508143901825 -0.019786054268479347 0.047348249703645706 0.10952921211719513 0.2801000773906708 -0.10144323855638504 0.023731766268610954 -0.05502449721097946 0.12355326861143112 -0.2121172547340393 -0.010331031866371632 0.02131705917418003 0.12411807477474213 -0.0978531688451767 0.009057055227458477 -0.20426662266254425 -0.08052393794059753 -0.08832504600286484 -0.14311693608760834 -0.15601743757724762 -0.07309228926897049 -0.06307674944400787 0.07458437979221344 0.13470394909381866 -0.15981963276863098 0.22615334391593933 -0.026187805458903313 0.2090628445148468 0.08969131857156754 0.11876410990953445 0.1266249120235443 0.15625885128974915
national -0.08093071728944778 -0.008566445671021938 0.1431758850812912 0.0025269482284784317 -0.11997686326503754 0.01950107328593731 0.01386946253478527 -0.04772183671593666 -0.014075187034904957 0.1952044814825058 -0.028403265401721 -0.05579332262277603 -0.09477410465478897 0.029025090858340263 0.03458379954099655 -0.013715327717363834 -0.042094696313142776 0.09852877259254456 0.061267536133527756 -0.016450438648462296 0.028007837012410164 0.13959413766860962 0.015026722103357315 -0.029195336624979973 0.08864491432905197 -0.003791957860812545 0.07464777678251266 -0.09576194733381271 -0.026915453374385834 -0.07432042062282562 -0.10366541892290115 -0.13666123151779175 0.0723373144865036 -0.032789550721645355 -0.05883736535906792 0.06539444625377655 0.006368554197251797 0.04668832942843437 -0.04704158380627632 0.04250982403755188 0.05750614032149315 -0.07451567053794861 0.029241260141134262 -0.08651629835367203 0.05718204379081726 -0.026778681203722954 -0.055186253041028976 -0.023423783481121063 0.09499804675579071 0.0066042449325323105 0.020848695188760757 0.07583848387002945 -0.024280114099383354 -0.06957035511732101 0.008399334736168385 -0.08079110085964203 -0.0030326195992529392 -0.08427029103040695 -0.042035654187202454 -8.075681762420572E-6 -0.054448556154966354 0.11452748626470566 0.001267448184080422 0.045750681310892105 0.11327270418405533 -0.02614579163491726 -0.06520267575979233 -0.022935383021831512 -0.03523443639278412 0.059939637780189514 -0.05088725686073303 0.05371367186307907 -0.007457760628312826 -0.017685068771243095 -0.054142873734235764 -0.03920627012848854 0.03856801241636276 0.11242172122001648 0.07073576748371124 -0.04902027174830437 0.11742962151765823 -0.025717303156852722 0.00457763159647584 -0.0019292073557153344 -0.11469071358442307 -0.04993613436818123 -7.662720745429397E-4 0.1486702263355255 0.09335723519325256 -0.06866342574357986 -0.17330600321292877 -0.0510706752538681 0.07779654115438461 -0.08987026661634445 -0.05488045886158943 0.022101938724517822 0.04460236802697182 0.035061243921518326 -0.05148109421133995 0.02158069796860218
where -0.30604860186576843 0.005035278853029013 -0.17167598009109497 0.169416606426239 0.16699977219104767 0.15438708662986755 -0.06654094159603119 -0.20326952636241913 -0.1109597459435463 0.5208421945571899 0.26463285088539124 0.0521719753742218 -0.22484126687049866 -0.1283320039510727 0.14398415386676788 0.03832075744867325 -0.4092053472995758 0.07550495117902756 -0.03340545669198036 -0.03467356041073799 0.31822702288627625 0.4023907780647278 0.004252952057868242 0.09466701000928879 -0.2568684220314026 -0.2165706604719162 -0.4481348991394043 -0.33623039722442627 -0.06053626164793968 -0.17323532700538635 -0.2686908543109894 -0.14141276478767395 0.3381738066673279 -0.13435982167720795 0.1685113161802292 0.209725484251976 0.09710393100976944 0.017192687839269638 0.11110461503267288 -0.11952061951160431 0.1530672013759613 0.14126357436180115 -0.06043795868754387 0.2156325727701187 0.055340368300676346 -0.1623906046152115 0.049421146512031555 -0.2759023904800415 0.10722015798091888 0.01945214904844761 -0.25808441638946533 0.294445663690567 -0.25382256507873535 -0.018590599298477173 -0.016680346801877022 0.3610953390598297 -0.04453907161951065 0.10819067060947418 0.0866459384560585 0.1468866467475891 -0.2549237906932831 -0.00670982338488102 0.28294914960861206 -0.09282684326171875 0.1693640947341919 -0.14802825450897217 -0.22714535892009735 -0.059779323637485504 -0.22264617681503296 -0.05625021085143089 -0.047565918415784836 -0.4246678650379181 0.05271454527974129 -0.46001601219177246 -0.15531781315803528 -0.28064200282096863 0.1412455439567566 -0.2765885591506958 0.23487132787704468 -0.008381735533475876 -0.2483939379453659 0.453342467546463 0.2103596180677414 0.4686133861541748 -0.15200519561767578 -0.358621746301651 -0.13204145431518555 -0.10529028624296188 -0.24821771681308746 0.022746486589312553 0.3978283107280731 -0.009167655371129513 0.048987019807100296 0.44438469409942627 -0.11574693769216537 0.056944094598293304 0.240706205368042 0.07597622275352478 0.29980725049972534 -0.11889975517988205
after -0.014827484264969826 0.16965098679065704 0.011881173588335514 0.04222569987177849 0.053969115018844604 -0.08109529316425323 -0.24065209925174713 -0.1819847673177719 -0.12907539308071136 0.17011643946170807 -0.04555255174636841 -0.362722247838974 -0.2682046890258789 0.3711993098258972 -0.10942061990499496 0.12218602001667023 -0.062955841422081 0.07847258448600769 0.03063548542559147 -0.07438455522060394 0.16886740922927856 0.030098041519522667 0.06458960473537445 -0.03498367592692375 -0.09989745169878006 0.3345869481563568 0.11171496659517288 -0.35790109634399414 -0.5851337313652039 -0.017416398972272873 -0.158999502658844 0.028685159981250763 0.0952475443482399 -0.08852581679821014 -0.10815980285406113 0.04962087795138359 -0.02960546687245369 0.06666920334100723 0.23028148710727692 0.0019869832322001457 0.2202250212430954 -0.14081081748008728 -0.31470465660095215 0.15465949475765228 -0.19055408239364624 -0.0658150389790535 0.3517813980579376 -0.00553837139159441 -0.11085186898708344 0.059994231909513474 -0.07667423039674759 0.06054392829537392 0.06214628741145134 -0.3442217707633972 0.10548311471939087 -0.2296484112739563 -0.10413764417171478 -0.09346683323383331 -0.03918019309639931 -0.14141395688056946 -0.13619224727153778 0.1480836421251297 0.022975778207182884 -0.2291860729455948 0.0018417444080114365 0.06602790951728821 0.05675001069903374 -0.11398687958717346 -0.05725409463047981 -0.002407887950539589 0.045778315514326096 -0.028250716626644135 0.18017853796482086 0.08479597419500351 0.13535325229167938 -0.17173881828784943 0.15954066812992096 0.05938774347305298 -0.15039217472076416 0.005798300262540579 -0.27485421299934387 -0.1444924771785736 0.13299982249736786 0.10870686918497086 -0.37258461117744446 -0.14141716063022614 -0.44465479254722595 -0.1339552104473114 -0.0781855583190918 -0.012292340397834778 -0.09175240248441696 -0.0015377113595604897 0.048045311123132706 0.12305586040019989 0.023616164922714233 0.15693245828151703 0.11960040032863617 0.2748618721961975 0.1272166222333908 0.0177052840590477
so -0.13984349370002747 0.2597956359386444 0.039463166147470474 0.0486234612762928 0.0487179271876812 -0.12526291608810425 0.183925598859787 0.13246411085128784 -0.11310968548059464 0.13535329699516296 0.042780157178640366 -0.10009219497442245 -0.07598172873258591 0.067872054874897 0.17488427460193634 -0.06536365300416946 -0.062283359467983246 -0.09488525241613388 0.16304096579551697 -0.19015561044216156 0.2297949492931366 0.01801389269530773 -0.07653040438890457 -0.07145118713378906 0.15575796365737915 0.20571549236774445 -0.09104466438293457 0.07621020078659058 -0.05861068144440651 0.22576171159744263 0.2925323247909546 0.07732413709163666 -0.16766265034675598 -0.1079956591129303 0.05301119014620781 -0.13950449228286743 -0.35363325476646423 0.044680092483758926 0.10905726253986359 -0.16303281486034393 -0.23096095025539398 0.04742281511425972 0.09905096888542175 0.09678984433412552 -0.015342731960117817 -0.19940802454948425 -0.04420774057507515 -0.03248109295964241 -0.16819684207439423 -0.020353781059384346 0.12387918680906296 0.1182282567024231 0.05704699084162712 0.03263450041413307 -0.4890056848526001 0.10199318081140518 0.04583130404353142 -0.18466392159461975 -0.13974028825759888 0.009516479447484016 -0.1687757670879364 -0.18783307075500488 -0.22958217561244965 0.07905513048171997 -0.5657680034637451 -0.10692601650953293 -0.38164255023002625 -0.016041291877627373 0.0260004885494709 -0.05870600789785385 0.19210271537303925 -0.20979176461696625 -0.03834229335188866 -0.3129788339138031 0.20680096745491028 0.06105174869298935 -0.18157991766929626 0.1670898199081421 -0.07158676534891129 0.0528249517083168 0.10444295406341553 0.0890752449631691 0.14753393828868866 -0.10244016349315643 -0.06379923224449158 -0.002798637142404914 0.05548890307545662 -0.40950772166252136 -0.034842703491449356 -0.03454592451453209 -0.002994552254676819 0.2374943196773529 0.09133724868297577 0.21328428387641907 0.04127663001418114 -0.32639119029045105 0.1261460930109024 0.012427226640284061 -0.06188839673995972 -0.2349211871623993
a -0.5530022978782654 -0.08703731745481491 -0.34034523367881775 -0.059870027005672455 0.11383382230997086 -0.4945891201496124 -0.15422110259532928 0.2102316915988922 -0.271366685628891 0.1496036797761917 -0.24442848563194275 -0.34395304322242737 -0.2007690817117691 0.09453213959932327 0.037615180015563965 -0.24979428946971893 -0.18331381678581238 0.05547718703746796 -0.06856901943683624 0.03229271247982979 -0.10169340670108795 0.003031371859833598 -0.28599095344543457 -0.02510242909193039 0.07933681458234787 -0.01784508302807808 0.3231896162033081 -0.2166450172662735 -0.21489663422107697 -0.09033863991498947 -0.3708670735359192 0.017229029908776283 -0.09514293074607849 0.257299542427063 0.026097914204001427 -0.1940903216600418 -0.15944206714630127 0.24062910676002502 0.4414314329624176 0.10290390998125076 0.13620032370090485 -0.2569134831428528 -0.007884238846600056 -0.38997089862823486 -0.07903271913528442 -0.25389593839645386 -0.06706836074590683 0.11646519601345062 -0.23349694907665253 0.37178486585617065 0.04065346345305443 0.25482335686683655 -0.5572786331176758 0.13595734536647797 -0.29219290614128113 -0.30318158864974976 -0.05144459009170532 -0.2555801272392273 0.05654354766011238 0.34105685353279114 -0.13138875365257263 -0.04146014526486397 -0.14856375753879547 0.18509584665298462 0.4318774342536926 0.1910397708415985 -0.18579265475273132 -0.2022395133972168 0.00492872204631567 0.08180149644613266 -0.04178269952535629 -0.11563434451818466 0.12931598722934723 -0.1480206400156021 0.19332937896251678 0.16609975695610046 -0.239695742726326 0.31895911693573 -0.18422278761863708 -0.01622197963297367 0.003998921252787113 -0.1435222625732422 -0.2106647938489914 -0.3354814648628235 -0.06077306717634201 0.0499865785241127 0.07874710857868195 0.534722626209259 -0.12440554052591324 0.36316028237342834 -0.06926225870847702 0.21189424395561218 -0.1558353155851364 -0.3595457971096039 -0.22489476203918457 -0.18139101564884186 0.049427229911088943 -0.19631187617778778 -0.2679078280925751 -0.04576992616057396
think 0.19804032146930695 0.36199304461479187 0.1423395425081253 0.15919937193393707 0.08648607134819031 0.09692833572626114 -0.06763933598995209 -0.03719908744096756 0.06085321307182312 -0.30021968483924866 0.1425686776638031 0.35522621870040894 -0.25468775629997253 0.08750107884407043 -0.03390011563897133 0.3160611093044281 -0.07897989451885223 -0.017455149441957474 0.11566752195358276 -0.15285708010196686 0.1290954053401947 0.23339785635471344 0.10430964082479477 0.023215321823954582 -0.24766799807548523 -0.01673450879752636 0.18667487800121307 0.21185258030891418 -0.18615667521953583 -0.10045626014471054 0.1353767216205597 0.1258799433708191 0.04813515767455101 -0.024963900446891785 0.03321138396859169 -0.005902187433093786 0.14567111432552338 -0.22687968611717224 -0.08861671388149261 -0.1461467146873474 -0.1431642770767212 0.2871394753456116 -0.10686785727739334 0.20411023497581482 -0.07346578687429428 -0.01516907848417759 0.04899616912007332 0.18342287838459015 -0.19289223849773407 0.07573264837265015 -0.010732979513704777 0.20946182310581207 -0.16092848777770996 -0.021282188594341278 0.20639564096927643 0.0789053663611412 0.31153300404548645 -0.1422663778066635 -0.03224274143576622 0.001460451167076826 0.05448586493730545 -0.3083042502403259 -0.23462097346782684 0.44523194432258606 0.033895283937454224 0.04614846780896187 0.04809710755944252 -0.2119254320859909 0.1289658397436142 0.17966678738594055 0.3619888126850128 -0.07770150154829025 -0.05048148334026337 0.1578054279088974 -0.03266707435250282 -0.22143222391605377 0.22199788689613342 0.0954512283205986 0.13772991299629211 -0.32943639159202576 -0.3564743101596832 0.15660206973552704 -0.14584729075431824 -0.1329665184020996 0.013461703434586525 0.15394218266010284 0.34019094705581665 -0.19234342873096466 0.17817892134189606 0.36214911937713623 -0.013403067365288734 -0.08257504552602768 -0.14558625221252441 -0.40581998229026794 -0.15162977576255798 -0.2174515277147293 -0.008091872557997704 -0.08974026143550873 -0.1691192388534546 -0.031586721539497375
set 0.011154437437653542 0.004258978180587292 0.27367156744003296 -0.07164303958415985 0.09534217417240143 0.09599865972995758 -0.008674404583871365 -0.13349014520645142 0.018756555393338203 0.11654385179281235 0.258699506521225 -0.2959854304790497 -0.053061217069625854 0.0683344304561615 -0.15107053518295288 -0.0829806700348854 0.11659424006938934 0.080363430082798 0.0851786658167839 0.09791920334100723 0.10048083961009979 0.2500301003456116 0.16918303072452545 -0.07067342102527618 -0.10893772542476654 -0.25101640820503235 0.03128071129322052 0.012456933036446571 -0.07383699715137482 -0.08889893442392349 -0.05629177391529083 -0.09304799884557724 0.10633920133113861 -0.08645889163017273 0.045954592525959015 -0.03071824461221695 0.06829819083213806 -0.0011981070274487138 -0.043377239257097244 0.03991471976041794 -0.06845375895500183 -0.15540079772472382 -0.027097681537270546 0.015690874308347702 -0.25978726148605347 -0.04993410408496857 -0.023846590891480446 0.05282244086265564 0.05545913055539131 -0.06516345590353012 -0.030696356669068336 0.059257034212350845 0.24416422843933105 -0.10746528953313828 0.19587364792823792 -0.12783612310886383 0.022249123081564903 0.022367453202605247 -0.16340568661689758 0.05306146293878555 -0.14370490610599518 -0.038409505039453506 -0.2627362012863159 -0.08480007946491241 0.364775151014328 0.05962425097823143 -0.18576210737228394 0.007233315613120794 0.03420500457286835 0.009431085549294949 -0.006631173193454742 -0.011864691972732544 0.016902314499020576 0.23927560448646545 0.013515757396817207 -0.0737987533211708 -0.04903116822242737 -0.02862456999719143 0.0750231072306633 0.22304777801036835 0.037365205585956573 -0.1047523096203804 -0.1243104636669159 0.020904986187815666 0.04703080281615257 -0.03430699184536934 -0.11319971829652786 -0.08828458189964294 0.07033248990774155 -0.2996331751346588 0.03545166552066803 0.05482278764247894 -0.10616914182901382 -0.1742672473192215 0.08087091892957687 0.0408063679933548 0.1916738897562027 0.061310384422540665 0.11521119624376297 0.08932933211326599
