been 0.46626776456832886 0.36666539311408997 -0.27684274315834045 0.18756796419620514 0.03686467930674553 -0.5838767886161804 -0.06569477170705795 0.445438414812088 0.3077663481235504 0.002356005599722266 0.11244785785675049 -0.12962330877780914 0.020559802651405334 -0.11836197972297668 -0.675771176815033 -0.1276068091392517 0.04955171421170235 0.22030866146087646 -0.42517733573913574 -0.07855475693941116 -0.20351406931877136 -0.021958500146865845 -0.5208808183670044 0.028203798457980156 -0.17814357578754425 0.3309619128704071 0.24669067561626434 0.25982666015625 -0.31851714849472046 0.22881118953227997 0.0593356229364872 -0.0398525670170784 0.19747856259346008 0.18995939195156097 -0.23269090056419373 -0.2660135328769684 -0.4117736220359802 -0.01201765425503254 -0.09061680734157562 -0.2261076271533966 -0.0638926550745964 -0.6467443108558655 -0.426931232213974 -0.6264064908027649 -0.6766154170036316 -0.5414955615997314 0.20435762405395508 0.6503279209136963 0.09129129350185394 -0.0763980820775032 0.1591641902923584 -0.18297573924064636 0.08333257585763931 0.11989764124155045 -0.21688702702522278 -0.25730955600738525 0.4475049376487732 -0.05444624274969101 -0.6838562488555908 -0.02059248462319374 -0.2218795120716095 0.06732752919197083 -0.11078712344169617 0.1427275836467743 0.21493938565254211 -0.007191126234829426 -0.1269785761833191 -0.1019948273897171 -0.35228443145751953 0.1875729262828827 0.4194641411304474 -0.06730202585458755 0.43488386273384094 0.298185259103775 -0.1651071459054947 -0.2890736162662506 -0.23862750828266144 0.1462988704442978 -0.22347669303417206 0.15488697588443756 0.2174035757780075 -0.11632352322340012 0.1370241940021515 -0.24339906871318817 -0.4311663508415222 0.12942342460155487 0.5701720118522644 -0.1288849264383316 -0.2419329136610031 0.031020483002066612 0.145332470536232 0.4197295904159546 -0.011669805273413658 -0.2494361698627472 -0.015091008506715298 0.053196702152490616 -0.004054502118378878 -0.3085068166255951 -0.12393123656511307 -0.245590940117836
year 0.3196382224559784 0.08316752314567566 -0.034456200897693634 -0.05561711639165878 -0.35408103466033936 -0.028418229892849922 -0.14605285227298737 -0.010717553086578846 -0.1769312024116516 0.23472924530506134 0.22609691321849823 0.12726154923439026 -0.15941575169563293 0.10123728960752487 -0.07555297017097473 -0.36043867468833923 0.011030362918972969 -0.05261022225022316 -0.033492401242256165 -0.01900411583483219 0.11655623465776443 -0.3956467807292938 0.44837552309036255 -0.2530963718891144 -0.09443934261798859 -0.11825806647539139 0.24967309832572937 -0.14841759204864502 -0.2142295092344284 -0.08907213062047958 -0.015788407996296883 -0.350785493850708 0.5613532066345215 -0.18269354104995728 -0.0495026558637619 0.2642589211463928 -0.5071098208427429 -0.10261841863393784 -0.11012813448905945 -0.33743593096733093 -0.27499473094940186 0.0012034678366035223 -0.008238322101533413 -0.04676017537713051 0.0017834637546911836 -0.1981538087129593 -0.1836768537759781 -0.03556619957089424 0.0017818525666370988 0.17936527729034424 0.11528018116950989 -0.10251427441835403 0.2502381205558777 -0.25756993889808655 0.01769629307091236 0.053387902677059174 0.15848426520824432 -0.3209727704524994 0.17822694778442383 -0.3401893377304077 -0.2056616246700287 -0.016686297953128815 0.11077746003866196 0.3986295759677887 0.016919482499361038 -0.1362258642911911 0.3247535228729248 -0.0087368069216609 -0.2261134684085846 -0.23144668340682983 0.17610901594161987 -0.255240261554718 -0.11604616791009903 0.14275306463241577 0.20786260068416595 0.18660715222358704 -0.1729942411184311 0.3496479392051697 -0.06908583641052246 0.3634865880012512 -0.2816125154495239 -0.2654038071632385 -0.0354059562087059 0.0798301249742508 -0.3449048697948456 0.07615692168474197 0.11877631396055222 0.02621501125395298 -0.3570411205291748 0.10969051718711853 -0.085790254175663 -0.27459201216697693 0.18377110362052917 -0.14600785076618195 -0.13789916038513184 -0.0502052865922451 -0.3798876404762268 0.48844489455223083 -0.08981730788946152 0.3210609555244446
about 0.08570538461208344 0.17168006300926208 -0.26003769040107727 0.2186141163110733 0.21296481788158417 0.07181467860937119 0.19829867780208588 0.5107054114341736 -0.46299034357070923 -0.17056718468666077 -0.24417434632778168 0.0014270934043452144 0.0073308274149894714 -0.0023218607529997826 0.25059744715690613 0.036276500672101974 0.4719362258911133 -0.4649048447608948 -0.10105616599321365 0.016405761241912842 0.14809182286262512 -0.008500764146447182 -0.06677095592021942 -0.15781806409358978 0.17665742337703705 0.13065488636493683 0.015418015420436859 -0.21641182899475098 -0.2753139138221741 0.004881114233285189 0.2663811147212982 -0.18448033928871155 0.156696617603302 -0.18670965731143951 -0.1702042818069458 0.14309661090373993 -0.41729438304901123 0.3165561854839325 -0.09791527688503265 -0.23646557331085205 0.17372775077819824 0.10952093452215195 -0.04041248559951782 0.21462039649486542 0.037815555930137634 -0.1441744565963745 0.21866951882839203 -0.11757608503103256 -0.3858511447906494 -0.2331186980009079 0.16631288826465607 0.4170359671115875 0.14044515788555145 -0.22143182158470154 0.004129802342504263 -0.19373978674411774 -0.25003454089164734 -0.20040829479694366 -0.05942299962043762 -0.05352676659822464 0.16177482903003693 0.06867828220129013 0.21263578534126282 -0.2517240643501282 -0.23309239745140076 0.08033609390258789 -0.299669086933136 -0.3599676191806793 -0.08581360429525375 0.11141877621412277 0.16821810603141785 0.011705771088600159 -0.039457350969314575 0.1336020529270172 -0.0801951065659523 -0.339983195066452 -0.3580448031425476 -0.1490478515625 0.10464812815189362 0.15002040565013885 -0.5471846461296082 -0.1338120996952057 0.11545798182487488 0.1345784217119217 0.12464629113674164 -0.0973927304148674 -0.11800353974103928 -0.40264269709587097 0.03800946846604347 0.0436653234064579 -0.03366253152489662 -0.12569330632686615 -0.1903378665447235 -0.16091051697731018 0.11655910313129425 0.2222001850605011 -0.042371176183223724 0.1846832036972046 -0.19688469171524048 -0.3642165958881378
your -0.24910204112529755 0.10428942739963531 0.20244798064231873 0.15759380161762238 0.18346023559570312 0.27902868390083313 -0.053649164736270905 -0.08266444504261017 -0.1726391762495041 0.4446777105331421 -0.18687523901462555 -8.358233608305454E-4 0.3149009644985199 0.1364450603723526 0.02837226167321205 -0.4978613257408142 -0.3894604444503784 -0.0750662162899971 0.2423517107963562 -0.24826842546463013 0.1949922740459442 0.07414181530475616 -0.07278300821781158 0.2679242789745331 0.43606051802635193 -0.08550287783145905 0.052034687250852585 -0.19992049038410187 0.048964980989694595 -0.09523248672485352 0.2493261694908142 -0.03681839630007744 -0.11139503866434097 -0.1560261845588684 -0.011446109041571617 -0.08997800946235657 -0.16756194829940796 -0.10029443353414536 0.16737668216228485 0.21438443660736084 0.3349049389362335 -0.3757256865501404 0.013225428760051727 -0.07592079788446426 -0.10156228393316269 -0.2249998152256012 0.07514133304357529 0.17731405794620514 0.2010699063539505 -0.4738379716873169 -0.15386033058166504 0.45503655076026917 -0.048832859843969345 -0.1536184698343277 0.2452470064163208 -0.17170150578022003 0.05259953811764717 -0.27975696325302124 -0.1573052704334259 -0.13482554256916046 0.10882414132356644 0.19108439981937408 -0.2636698782444 -0.07434551417827606 -0.20672141015529633 0.32832491397857666 0.10634641349315643 -0.19669975340366364 -0.13591225445270538 -0.11798974871635437 0.1601225584745407 0.21653980016708374 -0.11193598806858063 -0.4055948555469513 0.05539294332265854 -0.34783023595809937 -0.347396582365036 0.17674560844898224 -0.24532604217529297 0.023065311834216118 -0.2449192851781845 0.13873815536499023 -0.37461575865745544 -0.21338589489459991 0.42995911836624146 -0.4938594400882721 -0.34316056966781616 0.4204931855201721 0.11448695510625839 0.06747954338788986 0.14062832295894623 -0.22113606333732605 -0.04876723513007164 -0.03736148029565811 -0.020522495731711388 -0.10892992466688156 0.022589197382330894 -0.2868601679801941 0.09226731210947037 0.22811174392700195
without 0.01725303754210472 -0.05261384695768356 -0.029296256601810455 0.29172948002815247 -0.08399958163499832 0.05244669318199158 0.05023013427853584 0.020815741270780563 -0.04187505692243576 0.07347802072763443 0.11547243595123291 -0.03428155928850174 0.1799572855234146 0.12615443766117096 0.06509725004434586 -0.0016308656195178628 0.2056136131286621 0.09913818538188934 0.055191781371831894 -0.23375816643238068 0.07498719543218613 0.12042063474655151 0.3987467288970947 -0.18707969784736633 0.01931792125105858 -0.23163168132305145 -0.1648513376712799 -0.22916638851165771 -0.16906578838825226 -0.07260347157716751 -0.16310201585292816 -0.035240449011325836 -0.1245754063129425 -0.15736369788646698 -0.06142470985651016 0.024581274017691612 0.06214222311973572 0.04971170425415039 -0.1089390218257904 -0.05711812153458595 0.0011559737613424659 0.09091135114431381 -0.16935613751411438 -0.17190857231616974 -0.25056466460227966 -0.317325621843338 -0.051134344190359116 0.08406280726194382 0.059461142867803574 -0.08669865131378174 0.09539027512073517 0.07150356471538544 -0.041850149631500244 -0.1029789000749588 -0.540687620639801 -0.2664983570575714 0.3399507701396942 -0.058710940182209015 -0.012239638715982437 -0.052696194499731064 -0.1175558790564537 -0.05853891745209694 0.07990627735853195 0.08726485818624496 -0.20505686104297638 -0.028826188296079636 -0.056964244693517685 -0.2123585343360901 -0.004081327002495527 -0.07488784193992615 0.34163734316825867 -0.11078456044197083 -0.23675376176834106 -0.09539207816123962 -0.043521177023649216 -0.3631449043750763 -0.015720214694738388 0.10417165607213974 0.27300727367401123 -0.057825878262519836 -0.08195040374994278 0.020770210772752762 0.38691580295562744 -0.00679693603888154 0.033366717398166656 -0.248941570520401 -0.001541247358545661 -0.33635780215263367 -0.14421403408050537 -0.24887943267822266 0.1150803416967392 -0.1139262393116951 -0.2549237608909607 0.12010293453931808 0.18079331517219543 -0.05404723808169365 0.3596076965332031 -0.23335237801074982 -0.08132600039243698 0.30117902159690857
these -0.010581078007817268 -0.005984882358461618 0.05436471849679947 0.10889796912670135 0.08569271862506866 -0.009236871264874935 -0.10328581184148788 0.24267208576202393 0.21974286437034607 0.23345355689525604 -0.37933263182640076 0.09317666292190552 0.1519775688648224 0.136311337351799 -0.2494434267282486 0.15976248681545258 0.09171324223279953 -0.12759442627429962 0.46735700964927673 0.00926335621625185 -0.0012864654418081045 -0.2695389986038208 -0.20878633856773376 -0.08698850870132446 -0.3473733365535736 0.26000040769577026 0.12737996876239777 0.11794336140155792 -0.4022913873195648 -0.30192509293556213 -0.3209979236125946 -0.25090911984443665 -0.17048002779483795 -0.3072638511657715 0.23816967010498047 -0.22179213166236877 0.2281782180070877 0.013431102968752384 0.6302639245986938 0.3236831724643707 -0.0719483271241188 -0.06586036086082458 -0.08736813813447952 0.30273962020874023 -0.27419745922088623 -0.3038775324821472 0.3577396869659424 0.1801825314760208 -0.046671755611896515 0.01534265000373125 -0.22228755056858063 -0.14534097909927368 -0.27731165289878845 -0.3698159158229828 0.19174756109714508 -0.15823379158973694 -0.4922977387905121 0.05991397425532341 0.11290916800498962 -0.19550397992134094 -0.15711604058742523 0.00705215148627758 0.04298873990774155 0.004170428030192852 -0.06959773600101471 0.049854401499032974 0.0032768964301794767 -0.0751337856054306 -0.07906876504421234 -0.09050697088241577 -0.1269359290599823 -0.5247565507888794 0.11288348585367203 -0.3220369815826416 -0.1598382592201233 -0.14508859813213348 0.13264763355255127 -0.21720340847969055 0.08013787865638733 -0.23458051681518555 0.14771968126296997 -0.23625347018241882 0.03895026445388794 0.3112919330596924 0.011536112986505032 -0.0966840535402298 -0.23147660493850708 0.42495739459991455 -0.08503057062625885 -0.005437565967440605 -0.3543870151042938 0.20432411134243011 -1.0525005927775055E-4 -0.16144166886806488 0.24034224450588226 -0.03538278490304947 0.16712310910224915 -0.046827927231788635 0.0642031654715538 0.28953391313552856
companies -0.06260986626148224 -0.025449024513363838 0.06683947890996933 0.027568940073251724 0.0376773364841938 0.0701344683766365 0.07399069517850876 -0.015260503627359867 0.08965356647968292 0.04905383661389351 -0.12264134734869003 -0.010139014571905136 0.1646987795829773 0.0681406781077385 -0.047537632286548615 -0.0618094876408577 -0.11765063554048538 0.11405272781848907 0.20038744807243347 -0.14719703793525696 -0.04312117025256157 -0.23023474216461182 0.033873751759529114 0.06781578809022903 -0.10290098190307617 0.21587106585502625 0.1891612559556961 0.07771356403827667 -0.03846534341573715 -0.051140666007995605 -0.19427268207073212 -0.12248818576335907 -0.1355675458908081 -0.1594768613576889 -0.1505546271800995 -0.09842494875192642 0.051392339169979095 0.03600240498781204 0.10931318998336792 0.06555284559726715 -0.004144929349422455 -0.09896639734506607 0.02821897156536579 -0.015797246247529984 -0.15038633346557617 -0.0932212769985199 -0.026611557230353355 0.09394370764493942 0.16453561186790466 0.32457244396209717 0.04732082411646843 -0.3685589134693146 -0.12410830706357956 -0.09655994176864624 -0.12315499782562256 0.045016251504421234 -0.025536678731441498 0.050913356244564056 0.1510602831840515 -0.014972586184740067 -0.03778790310025215 0.03204512223601341 0.1433674693107605 0.1737426072359085 0.07104167342185974 -0.06902245432138443 -0.011720959097146988 -0.04915417730808258 -0.026951255276799202 0.12536261975765228 -0.11652620881795883 -0.0929056704044342 -0.10810032486915588 -0.018655557185411453 0.029146550223231316 0.025359969586133957 -0.21712316572666168 0.018842143937945366 0.10318995267152786 -0.12522250413894653 0.11983384191989899 -0.3162095546722412 0.01792670600116253 -0.04455056041479111 0.016362501308321953 -0.1424284428358078 0.013520062901079655 0.19119605422019958 -0.05182800069451332 -0.08693932741880417 -0.2430558204650879 -0.03942175209522247 0.02968864142894745 -0.13203006982803345 0.03963591903448105 0.05837904289364815 0.11716394871473312 0.057529184967279434 0.09340345114469528 0.10453449934720993
music 0.08383787423372269 0.16430899500846863 0.0913606509566307 0.09361565858125687 0.026672156527638435 0.2173963487148285 -0.041598349809646606 -0.15008674561977386 -0.009354664944112301 -0.1295125037431717 -0.045908790081739426 0.062335316091775894 -0.2322586327791214 0.08369796723127365 0.01020902395248413 -0.004434702917933464 -0.26081427931785583 -0.0725620687007904 0.16193941235542297 -0.1477298140525818 -0.1966644674539566 -0.06919192522764206 -0.10276851803064346 0.1377851814031601 0.06215868517756462 0.13387824594974518 -0.1456281691789627 -0.009248798713088036 -0.10622499883174896 0.17154768109321594 0.3092617094516754 -0.12520040571689606 -0.04084749147295952 0.0664386972784996 0.06746002286672592 0.21828468143939972 -0.08472084254026413 0.19443710148334503 -0.0713963508605957 0.08939997851848602 0.10728991031646729 0.10496387630701065 -0.0691036581993103 0.143629252910614 0.33242136240005493 0.11035886406898499 -0.03149576485157013 -0.1437138468027115 0.26553869247436523 -0.11191748827695847 0.0357227623462677 0.02285049669444561 0.20956116914749146 -0.1836158186197281 -0.11415304988622665 -0.038774263113737106 0.09346334636211395 0.01224265992641449 0.007523133885115385 0.06390084326267242 0.0411418080329895 0.11132688075304031 -0.07109711319208145 -0.07071173191070557 -0.14093859493732452 -0.1189744845032692 0.21446378529071808 -0.12456388771533966 -0.0768519788980484 -0.03405778110027313 -0.05632852390408516 0.11155443638563156 -0.2011147439479828 0.16181237995624542 0.04974893108010292 -0.058535367250442505 -0.1490710973739624 3.133232821710408E-4 0.10102003812789917 0.06841450929641724 0.12007603794336319 -0.021203257143497467 -0.07986880093812943 -0.06850874423980713 -0.18314547836780548 0.028341585770249367 0.07870148867368698 -0.046371836215257645 0.23237526416778564 0.09025775641202927 -0.3264475166797638 0.03154948353767395 0.3227214515209198 0.0170602910220623 -0.08266675472259521 -0.09786058962345123 0.10758530348539352 0.06855656951665878 -0.25379735231399536 -0.09948977828025818
would 0.36474254727363586 -0.04854504391551018 -0.33135688304901123 0.16904406249523163 0.3380322754383087 -0.0829787328839302 -0.0935920774936676 0.1076916828751564 0.04051583260297775 -0.5108507871627808 -0.044777676463127136 0.14996522665023804 0.35026106238365173 0.2218383401632309 0.01343599148094654 -0.23018671572208405 0.17868706583976746 0.3150329291820526 0.03152480348944664 -0.35083019733428955 -0.14216728508472443 0.15862321853637695 0.01024945080280304 0.35375869274139404 0.0014992409851402044 -0.1891590803861618 0.018917672336101532 -0.1485597789287567 -0.21383227407932281 -0.07554266601800919 -0.10884730517864227 0.12461534142494202 0.03101063333451748 0.056957658380270004 0.3193643093109131 -0.12151099741458893 -0.13265132904052734 -0.20768460631370544 -0.11533666402101517 0.21953728795051575 -0.1785237193107605 0.13386382162570953 -0.2015170305967331 -0.28204068541526794 0.033664193004369736 0.17008918523788452 -0.07227442413568497 0.018393713980913162 0.056814905256032944 0.1409921646118164 -0.017775939777493477 -0.49679169058799744 0.0816345363855362 -0.197828009724617 -0.08612100780010223 0.017279522493481636 0.3023792505264282 -0.2546791136264801 0.16622841358184814 -0.0943014919757843 0.04516591131687164 -0.22460679709911346 -0.09845826774835587 -0.11356429755687714 -0.0739980936050415 0.05977942422032356 -0.0419936440885067 0.2774261236190796 0.02101931720972061 -0.0026888051070272923 0.03680187836289406 0.013361764140427113 -0.12873050570487976 -0.03349895030260086 0.02369113266468048 0.21353690326213837 0.0064503708854317665 -0.060854870826005936 0.06611497700214386 -0.006310832221060991 0.05364151671528816 -0.14327041804790497 -0.16580797731876373 0.2806555926799774 0.11225148290395737 -0.03092423640191555 -0.10252314805984497 -0.09119408577680588 -0.06533009558916092 -0.04335376247763634 -0.018011238425970078 -0.13649055361747742 -0.23525620996952057 0.48120471835136414 -0.08226893842220306 0.10521616786718369 0.1308838576078415 -0.10583722591400146 0.22886760532855988 0.049476418644189835
because -0.10397309809923172 0.15166199207305908 -0.1020331084728241 0.21319787204265594 -0.06542260199785233 0.07060670852661133 -0.12490905076265335 0.042519040405750275 -0.06225185468792915 -0.13101845979690552 0.09952797740697861 0.23480695486068726 -0.1742943674325943 0.02189682610332966 0.2178865671157837 -0.0654933750629425 0.23535551130771637 -0.1050088033080101 -0.12911765277385712 -0.14078286290168762 0.006918489933013916 0.25621557235717773 -0.1703033298254013 -0.0371636226773262 -0.011092047207057476 -0.16019175946712494 -0.19222748279571533 -0.009246020577847958 -0.16593366861343384 -0.29806244373321533 -0.16529054939746857 -0.11396976560354233 -0.08048547804355621 -0.060565173625946045 -0.068280428647995 -0.04066896438598633 0.06517241150140762 -0.00918840616941452 -0.1296483427286148 0.07916422188282013 -0.0014430333394557238 -0.04438912868499756 -0.11996429413557053 -0.08148904889822006 0.01781025156378746 0.1421075016260147 0.09543120115995407 -0.04363119974732399 -0.01020575687289238 -0.11595159024000168 -0.16846145689487457 0.02918137051165104 -0.057386625558137894 0.10048940032720566 -0.17365644872188568 -0.18354786932468414 0.032368727028369904 0.20529647171497345 0.28909850120544434 0.17728236317634583 -0.0066229915246367455 0.037566009908914566 -2.1734190522693098E-4 -0.15392369031906128 -9.700482478365302E-4 -0.001295844092965126 -0.022710878401994705 -0.04886278510093689 0.0014236019924283028 -0.19494745135307312 -0.0507734939455986 -0.027799058705568314 -0.2646089196205139 0.054349418729543686 0.021296676248311996 -0.29930439591407776 -0.05032990500330925 0.0024062038864940405 0.08477814495563507 0.06140797957777977 0.1659168004989624 -0.16216489672660828 0.07046045362949371 0.05654415860772133 -0.3150332570075989 0.24570056796073914 0.16358694434165955 0.0170248132199049 -0.01170569658279419 0.006595432758331299 0.1575608104467392 -0.11350086331367493 0.007243555970489979 -0.0828179121017456 -0.07031888514757156 -0.08206821978092194 0.030351025983691216 -0.13235527276992798 -0.2574635148048401 -0.12511199712753296
state -0.19803598523139954 0.036902010440826416 -0.09357929229736328 0.07621485739946365 -0.14148937165737152 -0.06054062023758888 -0.09906929731369019 -0.13403141498565674 0.024846063926815987 0.14850808680057526 -0.07050234079360962 0.027580542489886284 -0.18278837203979492 -0.12464039772748947 -0.03448796644806862 -0.046825721859931946 -0.1484825760126114 0.1134059876203537 0.2733394205570221 -0.15412269532680511 0.10199034959077835 -0.23561137914657593 -0.04156305268406868 -0.2482486516237259 -0.3415279686450958 0.13503862917423248 -0.02421179600059986 0.12356189638376236 -0.14635616540908813 0.09943944960832596 0.2687349319458008 -0.3037881851196289 0.027003703638911247 -0.12804116308689117 -0.20076103508472443 0.2252885103225708 -0.09518706053495407 8.324097143486142E-4 -0.024454640224575996 -0.07126849889755249 -0.02494695410132408 -0.11413959413766861 -0.11202975362539291 0.08438295125961304 0.024851586669683456 -0.07361219823360443 -0.20024895668029785 -0.061924852430820465 0.16193337738513947 0.12664195895195007 0.10462777316570282 -0.19357380270957947 0.210990771651268 -0.10213042050600052 -0.2870958149433136 -0.16999658942222595 0.028715819120407104 -0.10203256458044052 0.24770969152450562 -0.022789109498262405 0.01749657467007637 0.03634960949420929 -0.056868430227041245 0.0978364571928978 -0.4730888307094574 0.008370010182261467 0.37536105513572693 -0.1382070928812027 -0.07265432924032211 0.1392587125301361 -0.10590483993291855 0.004788177087903023 -0.06407724320888519 0.07120582461357117 -0.031238239258527756 -0.21222949028015137 -0.1583673357963562 0.03373584523797035 0.31378430128097534 0.1067403107881546 -0.05901530012488365 -0.0931064561009407 0.05632464587688446 -0.16723231971263885 0.10321477800607681 -0.0744834691286087 0.09267204999923706 0.11819575726985931 -0.11993426084518433 -0.05016519874334335 -0.36824026703834534 -0.21542103588581085 0.14410720765590668 -0.08914202451705933 0.09181923419237137 0.11549030989408493 0.03835101053118706 0.05098138004541397 -0.1563718318939209 0.2429528832435608
you 0.028404301032423973 0.256509006023407 0.1335601806640625 -0.3588577210903168 0.19546368718147278 0.37115389108657837 -0.4001316428184509 0.07734548300504684 0.1827453374862671 -0.17254547774791718 -0.08533711731433868 0.161737322807312 0.19920654594898224 -0.12141748517751694 0.23420214653015137 -0.25657418370246887 -0.0012116910656914115 0.19061654806137085 0.010682209394872189 -0.03117121383547783 -0.2655382454395294 0.0912908986210823 -0.012476538307964802 0.14770081639289856 0.03204960748553276 0.14050158858299255 -0.09643684327602386 -0.08915074169635773 0.09492800384759903 0.06441918760538101 -0.25392773747444153 -0.008723617531359196 0.019877443090081215 -0.19156573712825775 0.0526580885052681 0.13446162641048431 0.08871873468160629 0.05266904458403587 0.08643247932195663 -0.19646219909191132 -0.07910014688968658 -0.25723618268966675 0.49369800090789795 0.18218214809894562 -0.0919986292719841 -0.0690280869603157 0.13524307310581207 0.0625716894865036 -0.14594747126102448 -0.2016918808221817 -0.03333583474159241 -0.12852205336093903 -0.018296975642442703 -0.04677853733301163 0.11117306351661682 0.1877192258834839 -0.019769128412008286 -0.16241967678070068 0.04908381775021553 -0.20246854424476624 -0.12113337218761444 -0.09516654163599014 -0.12978234887123108 0.024684952571988106 -0.10311788320541382 0.10996778309345245 -0.546981155872345 0.06958606094121933 -0.38819268345832825 -0.043736398220062256 -0.3685232996940613 0.23301871120929718 0.08536355942487717 0.05279159918427467 0.10403846204280853 -0.05681613087654114 -0.02465369738638401 -0.04863845556974411 0.1967386156320572 -0.18960995972156525 0.14373129606246948 -0.10918030887842178 0.2796951234340668 -0.0978219285607338 0.17967179417610168 -0.28276193141937256 0.05863373354077339 -0.2689937651157379 0.13469219207763672 0.014188003726303577 -0.05814625695347786 -0.06124291196465492 -0.006816023960709572 0.019938210025429726 0.15508316457271576 0.151503786444664 -0.16940763592720032 -0.02632272243499756 -0.15440084040164948 0.21333865821361542
they -0.05698705464601517 0.2673318684101105 0.1370992809534073 -0.09426307678222656 0.11765684932470322 -0.1379965990781784 -0.016840685158967972 -0.06993480771780014 0.19681395590305328 -0.08012041449546814 -0.05210956186056137 -0.014872581698000431 0.19294807314872742 0.03294996917247772 0.006105980835855007 -0.25942498445510864 -0.01636067032814026 0.04527699947357178 -0.015943462029099464 0.2136458307504654 -0.1822940856218338 0.003113808808848262 -0.055595289915800095 0.008392092771828175 0.04172751307487488 0.19373580813407898 0.11449187994003296 -0.14192993938922882 0.12304341048002243 -0.11703096330165863 -0.09698708355426788 0.06100497767329216 -0.07370257377624512 -0.025159450247883797 -0.05335433408617973 0.1807517111301422 0.04562249034643173 0.11507748812437057 0.33204737305641174 -0.06645847111940384 -0.10587555170059204 -0.06179318204522133 0.3050285279750824 0.2043946534395218 -0.30578094720840454 -0.19025918841362 -0.159794881939888 -0.20132841169834137 -0.13512876629829407 0.08577151596546173 -0.07157797366380692 -0.057758878916502 -0.06893997639417648 -0.14705130457878113 0.2569010555744171 0.13166406750679016 -0.30263128876686096 -0.4652585983276367 0.359238862991333 -0.1496211439371109 -0.01963585987687111 -0.09448884427547455 0.3319067060947418 0.2798965573310852 0.048832111060619354 0.12163925915956497 -0.3031347393989563 -0.07263543456792831 -0.20688821375370026 0.22926078736782074 -0.09248405694961548 0.12598946690559387 -0.07846499234437943 -0.13470157980918884 -0.09829716384410858 -0.03982248529791832 0.13706016540527344 0.04509561136364937 0.07236580550670624 -0.216485857963562 0.17140574753284454 -0.0520879402756691 0.0303218811750412 0.21708349883556366 0.03681696206331253 -0.15801212191581726 -0.148951455950737 -0.07126793265342712 0.20581640303134918 -0.1703261137008667 -0.14512299001216888 0.3341689109802246 -0.3488386273384094 0.3619494140148163 -0.155237078666687 0.01910247467458248 0.10772962123155594 0.09005115926265717 -0.11862016469240189 0.319269061088562
$ -0.06616479158401489 -0.007662994787096977 0.010265447199344635 -0.012805478647351265 -0.0072989994660019875 0.03994045406579971 -0.0394098274409771 -0.021962979808449745 -0.0025192894972860813 -0.0062563782557845116 0.005236817989498377 -0.0227645430713892 0.02512211911380291 -0.008376454003155231 9.793855715543032E-4 -0.024618960916996002 -0.05433284491300583 0.02003690041601658 -0.007878893986344337 -0.04897976666688919 -0.004664824344217777 -0.021257365122437477 0.04373929649591446 0.038436081260442734 0.0037665844429284334 0.002401187550276518 0.046549241989851 -6.362434942275286E-4 -0.02746020071208477 -0.020230837166309357 -0.001522596227005124 -0.021045196801424026 -0.027085084468126297 -0.021897993981838226 -0.008804654702544212 -0.018107537180185318 0.007916550152003765 -0.02241208218038082 0.033389728516340256 0.025348307564854622 -0.013765095733106136 0.010843775235116482 -0.0038628652691841125 -0.005124333314597607 -0.003640669398009777 0.0014656931161880493 -0.022665787488222122 0.022606780752539635 0.01804950460791588 0.024820266291499138 -0.024033961817622185 -0.020608538761734962 -0.03337296098470688 0.003332397434860468 -0.02216011844575405 0.011037249118089676 0.012409633025527 -0.00875712651759386 8.136995602399111E-4 -0.00655803456902504 -0.012583618983626366 -0.025549698621034622 0.021360551938414574 -0.011308670043945312 0.04309031739830971 -0.030105818063020706 -0.008080081082880497 0.02140136808156967 -0.006077155936509371 -1.7463462427258492E-4 0.017152346670627594 -0.013597269542515278 -0.027354635298252106 -0.012985139153897762 0.042262908071279526 -0.0018592969281598926 -0.02722868323326111 -0.003181726671755314 0.031338948756456375 -0.023531794548034668 -0.0010727327316999435 -0.012832308188080788 -0.03295997530221939 -0.015098032541573048 -0.0027831047773361206 -0.0046468814834952354 -0.010379337705671787 0.014020011760294437 0.024465270340442657 -0.0027317386120557785 -0.02295360155403614 0.021662717685103416 0.024518903344869614 -0.006990636233240366 -0.01613282784819603 0.03161729872226715 0.007270992733538151 -0.012668274343013763 0.04195742309093475 0.009325901977717876
going -0.5105563998222351 -0.054244063794612885 0.13654620945453644 -0.11085373163223267 0.28018081188201904 0.23013605177402496 0.1985628753900528 0.36243659257888794 -0.010511411353945732 0.022916866466403008 0.03705773875117302 -0.3967796862125397 -0.10094886273145676 0.1639324575662613 -0.014387659728527069 -0.30212873220443726 0.33174991607666016 0.301426500082016 0.4067066013813019 -0.08050130307674408 0.014852192252874374 0.5223898887634277 0.09677690267562866 0.11373297870159149 0.10397285968065262 -0.1926429718732834 -0.1435224860906601 -0.42365938425064087 0.08931723237037659 -0.21644853055477142 -0.07152726501226425 -0.10222423821687698 0.15595032274723053 -0.04340209439396858 0.23584908246994019 0.3732929825782776 0.16399753093719482 -0.39757993817329407 -0.06010868027806282 0.3901839256286621 -0.15929506719112396 -0.6105984449386597 -0.099406898021698 -0.27366864681243896 -0.0559685081243515 0.07666612416505814 -0.11452531814575195 -0.06473170220851898 -0.3066212236881256 0.04532841965556145 -0.12480231374502182 0.11666776239871979 0.24897880852222443 -0.2970942556858063 0.04274437949061394 0.1967044174671173 0.08207105845212936 -0.11083707958459854 -0.15527194738388062 0.06966157257556915 0.005541875027120113 0.3800433874130249 -0.22664828598499298 -0.24446839094161987 0.24807007610797882 -0.13010412454605103 -0.5301331877708435 0.12658946216106415 -0.1416771560907364 -0.3262579143047333 -0.13330011069774628 0.019171234220266342 -0.03694617375731468 -0.3558051586151123 0.06767944991588593 0.09837191551923752 0.004590087570250034 0.27659642696380615 -0.12079070508480072 0.06259333342313766 -0.09881305694580078 -0.06836144626140594 -0.2685580253601074 0.0993121936917305 -0.04106855392456055 0.08899124711751938 -0.2477707415819168 0.09760592877864838 0.33791807293891907 -0.28158947825431824 0.24833883345127106 -0.03361175209283829 0.2979147136211395 -0.0847368910908699 -0.15499365329742432 -0.25717687606811523 0.23738722503185272 0.14955143630504608 -0.2803958058357239 0.23089838027954102
old -0.3402194082736969 -0.2244737446308136 -0.06838193535804749 0.15439149737358093 -0.10607188940048218 -0.1476431041955948 0.20625878870487213 -0.0450025275349617 -0.05426688864827156 -0.13356846570968628 -0.28592321276664734 -0.1935449242591858 -0.09961700439453125 0.09999905526638031 -0.547340989112854 -0.07867112010717392 -0.24081355333328247 0.10570438951253891 0.35025253891944885 0.06669512391090393 0.009111313149333 -0.3041999042034149 -0.13530871272087097 -0.17184877395629883 -0.3284146785736084 -0.02713906019926071 -0.03992246091365814 0.005643733311444521 -0.2623015344142914 0.01411523763090372 -0.20728793740272522 -0.19509269297122955 0.014135351404547691 -0.28361424803733826 0.20857076346874237 0.23342399299144745 0.2788994014263153 0.11684039235115051 0.18670126795768738 0.362982839345932 0.15121518075466156 -0.15018093585968018 -0.2605220079421997 -0.13678409159183502 0.10170728713274002 -0.011160380207002163 0.11616097390651703 -0.24586692452430725 0.4462343156337738 -0.02956918627023697 0.05358099937438965 -0.21507084369659424 0.1976831704378128 -0.2684197723865509 0.10378698259592056 -0.2674843668937683 -0.14164356887340546 0.21570004522800446 -0.21988697350025177 0.07284537702798843 -0.0667128711938858 -0.11387033015489578 -0.04509429633617401 -0.27006015181541443 -0.25417980551719666 0.026639003306627274 0.04539052024483681 -0.0691518783569336 -0.4317159354686737 -0.1090453565120697 -0.12313321232795715 -0.09378127753734589 -0.05651020631194115 -0.018690098077058792 -0.09767625480890274 0.041056789457798004 -0.23110173642635345 0.1876208335161209 -0.15365035831928253 0.05097763612866402 0.22468872368335724 -0.14226728677749634 -0.14878752827644348 -0.010052002035081387 -0.024250485002994537 0.14082184433937073 0.041220810264348984 0.16237616539001465 -0.037988271564245224 -0.006364308297634125 -0.32882025837898254 0.09879803657531738 -0.05743822455406189 -0.06998524069786072 -0.016570819541811943 0.0763097032904625 -0.10913363099098206 0.0503959096968174 0.06508059054613113 -0.01468371506780386
want -0.3469594120979309 0.15746398270130157 -0.018978789448738098 0.035882603377103806 -0.07890226691961288 0.26940804719924927 -0.119920514523983 -0.12784399092197418 -0.059913598001003265 -0.3398604094982147 -0.14857365190982819 -0.01984173059463501 0.3637569844722748 -0.31463149189949036 0.41437479853630066 0.011795924045145512 0.1679835468530655 -0.12965549528598785 0.3346862494945526 -0.05161936953663826 -0.3619067370891571 0.1194629892706871 0.15127292275428772 0.09992517530918121 0.07735221832990646 -0.1890306919813156 -0.2733987271785736 -0.21849027276039124 -0.32268285751342773 -0.0528683178126812 -0.18329022824764252 0.20142053067684174 -0.28593772649765015 -0.13292841613292694 0.04220057278871536 0.11926634609699249 -0.008076764643192291 -0.49016422033309937 -0.17785198986530304 -0.04589514061808586 0.08148131519556046 0.22470387816429138 -0.21945153176784515 0.13007961213588715 0.051402635872364044 -0.11477429419755936 0.017771942541003227 0.14726139605045319 -0.12890970706939697 -0.08912332355976105 -0.08123324811458588 0.18218693137168884 -0.11717861145734787 -0.005302949342876673 -0.1772354394197464 0.21875466406345367 0.6408462524414062 -0.030278712511062622 -0.05044392868876457 -0.2562309503555298 6.494855042546988E-4 -0.07996910810470581 -0.05285733938217163 -0.08705071359872818 0.13489650189876556 -0.19140467047691345 -0.021235784515738487 0.11202375590801239 0.10751315951347351 -0.11129698157310486 0.019517086446285248 -0.15655291080474854 -0.4995177984237671 -0.11913854628801346 0.12827029824256897 0.04283992201089859 0.2901913821697235 -0.08350963890552521 0.27184152603149414 -0.2310226708650589 -0.0988583117723465 0.03637547418475151 -0.199366495013237 0.27831265330314636 0.27544116973876953 -0.21587498486042023 -0.5111003518104553 -0.061224427074193954 0.2577573359012604 0.014101292937994003 0.1462998241186142 -0.17661124467849731 -0.04645596444606781 -0.08673598617315292 -0.029330847784876823 0.05898471549153328 0.581179141998291 0.10946877300739288 0.2237657755613327 -0.12234674394130707
night 0.21262280642986298 0.013949165120720863 0.20603002607822418 -0.2781720459461212 -0.13099128007888794 0.03373410180211067 -0.04364139959216118 -0.303447425365448 -0.10803519189357758 0.3625379800796509 0.27646151185035706 0.178495392203331 0.03548754006624222 -0.19569328427314758 -0.3073181211948395 -0.1435028612613678 -0.07359159737825394 -0.042422253638505936 -0.06253112107515335 -0.055255547165870667 0.11988577246665955 -0.2104078233242035 0.40011608600616455 -0.19023723900318146 0.1307079792022705 0.07316430658102036 -0.0519842654466629 -0.24865005910396576 -0.29585710167884827 0.15866859257221222 0.12892699241638184 -0.299913614988327 0.3905366361141205 -0.17473435401916504 0.012218543328344822 0.13442757725715637 -0.2318187952041626 0.09493332356214523 0.16656647622585297 -0.0351831279695034 -0.20658384263515472 0.16159816086292267 -0.057021092623472214 -0.042786918580532074 0.09577274322509766 -0.12962302565574646 0.02039877325296402 -0.3149124085903168 -0.019042786210775375 -0.0061345272697508335 0.15830136835575104 -0.02658558078110218 0.29509708285331726 -0.3303830325603485 -0.13103525340557098 -0.2673393189907074 -0.06402940303087234 0.10061267018318176 -0.09739654511213303 -0.41422536969184875 -0.25731903314590454 0.16954579949378967 -0.2822515368461609 0.4508216679096222 0.11264201998710632 -0.1253979504108429 0.32416731119155884 0.1731141060590744 -0.26586246490478516 -0.10572866350412369 0.2659955322742462 -0.05201618745923042 -0.12946182489395142 0.32550376653671265 0.23251715302467346 0.10720182210206985 0.1099851131439209 0.1812533587217331 -0.03163795918226242 0.32528457045555115 -0.14831431210041046 -0.1584165245294571 -0.3604987561702728 -0.10071775317192078 -0.5733385682106018 0.2524885833263397 0.03802919760346413 0.0630771592259407 0.1918061375617981 -0.2116970419883728 0.07735102623701096 0.0042232610285282135 0.009739474393427372 0.02545168437063694 -0.24769353866577148 0.12193180620670319 -0.1878836452960968 0.3518001139163971 0.330280601978302 -0.22401750087738037
them -0.05449662357568741 0.17489205300807953 0.056180864572525024 -0.13148526847362518 -0.006388287991285324 0.031966984272003174 -0.3300703465938568 -0.11751891672611237 0.10782331973314285 0.014849646016955376 0.25142571330070496 0.2489447146654129 -0.2606411874294281 0.2851768136024475 0.13999764621257782 -0.05680740624666214 -0.32720696926116943 0.014905103482306004 0.09362251311540604 -0.3651701807975769 -0.2451372593641281 -0.30473417043685913 -0.15620166063308716 0.1057225689291954 0.16903594136238098 0.10504738241434097 0.3090716302394867 -0.09784413129091263 -0.3060626983642578 -0.19964496791362762 -0.11248476803302765 -0.2864350974559784 -0.12980489432811737 -0.29137665033340454 -0.016620300710201263 -0.08745355159044266 -0.12824340164661407 0.014905673451721668 0.07759339362382889 0.14837485551834106 -0.06710399687290192 -0.22021321952342987 -0.10517968982458115 0.01856064237654209 0.11787984520196915 0.11107505857944489 0.16679401695728302 0.19811107218265533 -0.13444583117961884 0.040810830891132355 -0.1621374487876892 -0.3491789698600769 -0.12598422169685364 0.07273510098457336 0.25866854190826416 -0.08446424454450607 -0.10902220010757446 0.029469260945916176 0.0527321919798851 -0.1763964146375656 -0.06920535117387772 -0.20797666907310486 0.08638034760951996 -0.02507389895617962 0.4814562499523163 0.04973835498094559 0.0324602834880352 -0.033256638795137405 -1.928710116771981E-4 -0.0882035568356514 -0.25672808289527893 -0.1331796497106552 0.00957749504595995 -0.06857581436634064 0.19517169892787933 -0.013757755048573017 0.43665069341659546 -0.10305783897638321 0.2393898367881775 -0.07012490928173065 0.18181844055652618 -0.3324792981147766 -0.1724967360496521 0.0650177076458931 -0.13937605917453766 -0.2008865624666214 -0.14266395568847656 0.3411066234111786 0.21525490283966064 -0.18580815196037292 0.037896983325481415 0.07515083998441696 0.008859501220285892 0.003148196032270789 0.05282074213027954 -0.16553696990013123 0.04588567093014717 0.04607509821653366 -0.2286885529756546 0.02001725137233734
then 0.1361493021249771 -0.030417291447520256 -0.12559674680233002 -0.23185713589191437 -0.046388402581214905 0.0237469170242548 0.2804848551750183 -0.06982369720935822 0.07319685816764832 0.12389109283685684 0.06721287220716476 0.266277015209198 -0.0050006709061563015 0.0018966853385791183 -0.05030598118901253 -0.08627557754516602 0.007077177055180073 -0.0854703038930893 -0.15498894453048706 -0.06024370715022087 -0.013989271596074104 -0.17094293236732483 0.23693276941776276 0.065060555934906 -0.1448620855808258 -0.20907923579216003 0.1266382783651352 -0.13507479429244995 0.01676480658352375 0.06421256065368652 -0.12926124036312103 -0.150339275598526 -0.10163567215204239 0.20467837154865265 0.28253498673439026 -0.022681651636958122 -0.04530651494860649 0.04068088158965111 -0.049292877316474915 0.015055081807076931 -0.36186912655830383 -0.2516691982746124 0.12288207560777664 0.19328425824642181 0.1815301924943924 -0.023317590355873108 0.13381455838680267 -0.2304246574640274 0.1123238354921341 -0.00394265353679657 0.11310718953609467 -0.023727400228381157 0.10842342674732208 -0.05315075442194939 -0.06111052259802818 0.03421483188867569 0.19310596585273743 0.30205535888671875 0.2601279020309448 -0.12633518874645233 -0.05323198810219765 0.15340514481067657 -0.03203262761235237 0.12950149178504944 -0.02810371294617653 -0.29854997992515564 0.15218877792358398 -0.14426296949386597 -0.24011896550655365 0.022437164559960365 -0.18371959030628204 -0.025216035544872284 0.05020492523908615 -0.2409089207649231 0.07307963073253632 -0.15596674382686615 -0.012319290079176426 -0.1343906968832016 -0.2535647451877594 0.20851218700408936 -0.3498068153858185 0.23177090287208557 -0.20802736282348633 -0.1916578710079193 0.049116529524326324 0.030157899484038353 -0.20611689984798431 0.05887407436966896 -0.02479301393032074 -0.23591582477092743 0.20746266841888428 0.0913756936788559 -0.2092745453119278 0.14363610744476318 0.04528918117284775 0.14424321055412292 0.5239789485931396 -0.05026959627866745 0.014804522506892681 0.10730315744876862
court -0.2320314198732376 0.23707686364650726 0.10422638058662415 -0.0632767453789711 0.006403056904673576 0.05087011680006981 -0.10779416561126709 -0.1939738243818283 0.015811709687113762 0.278916597366333 0.10397335886955261 -0.10254023224115372 -0.06931008398532867 -0.19496755301952362 0.020886005833745003 -0.2204979956150055 -0.11894989013671875 0.1869293451309204 0.11591360718011856 0.025887200608849525 0.007363748736679554 0.11920813471078873 0.016356240957975388 0.02209213376045227 -0.019311288371682167 0.07472915947437286 -0.1354018598794937 -0.04342469945549965 -0.10104121267795563 0.10864673554897308 0.20264306664466858 -0.2711132764816284 0.021246159449219704 -0.01883961260318756 0.10805708169937134 0.3038513660430908 -0.08824635297060013 -0.23739147186279297 0.09129250049591064 0.045396946370601654 0.04452809318900108 -0.09295646101236343 -0.16147178411483765 -0.11765909940004349 0.14783819019794464 -0.08071614801883698 -0.06208319216966629 -0.14504358172416687 0.0886557474732399 -0.11894075572490692 0.17700107395648956 0.01260043028742075 0.19669349491596222 -0.10668458044528961 -0.13821810483932495 0.06090318039059639 0.07369067519903183 -0.044919487088918686 0.0016345507465302944 -0.07223266363143921 9.872197406366467E-4 0.13175959885120392 -0.19635969400405884 -0.019780850037932396 -0.16983067989349365 -0.20224817097187042 0.2582896053791046 0.09861723333597183 0.15536461770534515 0.12004563957452774 -0.08523024618625641 0.09756933152675629 -0.118760846555233 -0.1499931812286377 0.006002277135848999 -0.13599622249603271 -0.06171974912285805 0.011087472550570965 0.2671554386615753 0.09789049625396729 0.1072247251868248 -0.019592754542827606 0.06374870985746384 -0.11473849415779114 -0.18784326314926147 -0.038391534239053726 0.1566963493824005 -0.056928303092718124 0.1039714589715004 -0.1572740226984024 0.202283576130867 -0.02403899095952511 0.15715496242046356 -0.028728866949677467 -0.21468006074428558 0.11158555746078491 0.06344504654407501 0.07671680301427841 -0.1397469937801361 0.20377153158187866
an -0.25046074390411377 -0.16421844065189362 0.15466627478599548 -0.07282339036464691 -0.10744097083806992 0.10477301478385925 -0.0038371803238987923 -0.06683122366666794 0.0426638126373291 0.026093879714608192 -0.013114463537931442 -0.122225321829319 0.04603908210992813 0.2571396231651306 -0.0796814113855362 -0.2502337396144867 -0.1074737161397934 0.3195422291755676 0.08652032166719437 0.025891302153468132 -0.06182309240102768 -0.06382392346858978 0.2125789076089859 -0.09815146028995514 0.08527136594057083 -0.05831122025847435 0.19444546103477478 -0.09079412370920181 0.12926016747951508 0.12367380410432816 -0.05080355331301689 -0.29830795526504517 0.1977715939283371 -0.1998952329158783 -0.14562742412090302 0.2245435267686844 -0.07078351825475693 0.019563831388950348 -0.09625427424907684 -0.0100769167765975 0.11477630585432053 -0.1854962706565857 -0.23289452493190765 -0.2642185389995575 -0.13051873445510864 -0.050640519708395004 -0.0926554799079895 -0.09753004461526871 3.9927527541294694E-4 -0.1256808340549469 -0.15623287856578827 -0.04661582037806511 0.11011512577533722 -0.03400183096528053 -0.389136403799057 0.002367849927395582 0.1596415638923645 0.0756208598613739 -0.08594754338264465 -0.027541158720850945 0.07985316216945648 0.17543330788612366 -0.14791075885295868 0.10846152156591415 -0.06593673676252365 0.06327825039625168 0.013281730934977531 -0.14043642580509186 -0.08666626363992691 -0.08200690895318985 0.2109561562538147 0.1037009134888649 -0.06721240282058716 0.07897885888814926 -0.0458563007414341 -0.11312394589185715 -0.1758948564529419 0.1645185649394989 0.07293664664030075 -0.011256254278123379 0.14694947004318237 -0.12033364921808243 -0.10402046889066696 -0.14821380376815796 0.1169869601726532 -0.3312557637691498 -0.09140579402446747 -0.024008890613913536 0.26656287908554077 -0.21659772098064423 0.07849247008562088 -0.0536058247089386 -0.019669219851493835 -0.1502545326948166 0.252643883228302 0.19010595977306366 0.12442190200090408 0.23529131710529327 0.16413357853889465 0.04387964308261871
- -0.048745740205049515 0.041911207139492035 -0.03810983896255493 -0.055949531495571136 -0.01618928648531437 0.03811018541455269 0.019642621278762817 -0.016976449638605118 -0.026016704738140106 -0.03914377838373184 -0.05346287041902542 0.03731958568096161 -0.017204783856868744 0.17966236174106598 -0.028319550678133965 -0.1475871503353119 -0.006709623616188765 -0.055370889604091644 -0.0029016374610364437 -0.07556340098381042 -0.03898772597312927 -0.14994023740291595 0.012473459355533123 -0.07465431094169617 0.020917249843478203 -0.08600297570228577 0.13607262074947357 -0.07836463302373886 -0.10392646491527557 0.018584998324513435 -0.042963434010744095 -0.06002122908830643 0.03162286430597305 -0.07801439613103867 -0.01888083480298519 0.03210509568452835 -0.12005902081727982 0.03565690666437149 -0.08341053128242493 -0.0175486970692873 -0.061625249683856964 -0.07398740202188492 -0.09724371135234833 -4.2968816705979407E-4 0.014606386423110962 -0.05160651355981827 -0.051432423293590546 -0.038759756833314896 0.07895709574222565 0.022463100031018257 3.947264049202204E-4 -9.513768018223345E-4 0.09984181076288223 -0.137248694896698 -0.04777486249804497 -0.0022626249119639397 -0.0223834365606308 -0.013163125142455101 -0.08816243708133698 -0.07194221764802933 -0.004552728962153196 0.019374225288629532 -0.008961870335042477 0.09493046998977661 -0.052811238914728165 -0.06404922902584076 -0.001086775097064674 -0.14399799704551697 -0.0551266111433506 0.009550760500133038 -0.018433453515172005 -0.1241268590092659 0.052206043154001236 0.0944715365767479 -0.0012806373415514827 -0.05977018177509308 -0.0977068543434143 0.022089101374149323 -0.0705176293849945 0.05047428980469704 -0.131443589925766 0.01258285902440548 0.027742434293031693 -0.1495743840932846 -0.10408950597047806 -0.02706359513103962 0.032019197940826416 0.08483476936817169 -0.00697640934959054 -0.08317464590072632 -0.0059233494102954865 0.010511800646781921 0.007605181075632572 -0.045889366418123245 0.021569348871707916 0.010678494349122047 0.010082269087433815 0.184200718998909 -0.0656212791800499 -0.010111949406564236
each -0.2774430811405182 -0.06531928479671478 0.2528969347476959 -0.3601330518722534 0.03734121844172478 -0.04852418228983879 -0.14434652030467987 0.006457011681050062 0.052508655935525894 -0.15266680717468262 -0.07272343337535858 0.27590030431747437 0.11203625798225403 0.18567369878292084 0.05335654318332672 -0.14677071571350098 -0.38007766008377075 0.25128236413002014 0.35684576630592346 -0.4594725966453552 -0.05744921416044235 0.0033966212067753077 0.32918810844421387 0.16452239453792572 0.2852884829044342 0.2131584882736206 0.14969167113304138 0.06429953873157501 0.053379978984594345 -0.273397833108902 -0.09630361199378967 -0.09074286371469498 -0.1399250030517578 -0.2997543513774872 -0.27922937273979187 0.052001338452100754 0.048450179398059845 0.03418022394180298 0.08096591383218765 0.10856053233146667 -0.11620403826236725 -0.022481819614768028 -0.17494113743305206 -0.23776282370090485 0.18281394243240356 0.003527929075062275 0.09162596613168716 0.27490130066871643 0.15673036873340607 0.200221449136734 -0.4498709738254547 -0.4763558506965637 -0.5936164855957031 -0.10298173874616623 -0.04499927908182144 -0.03942685201764107 -0.21513335406780243 0.09059569239616394 -0.040811073035001755 -0.1960313618183136 -0.01269716676324606 -0.00592696201056242 0.1496625393629074 0.3014823794364929 0.33289849758148193 -0.31701213121414185 0.030852653086185455 0.23185616731643677 0.1961802989244461 0.11018306016921997 0.06907886266708374 -0.06369782239198685 -0.16677801311016083 0.09687570482492447 0.010667392984032631 0.07761568576097488 -0.1883470118045807 -0.07308568060398102 0.3367624282836914 -0.02402993105351925 0.14657436311244965 -0.14807437360286713 -0.49981260299682617 0.06805933266878128 -0.41374897956848145 0.1100284680724144 0.14707385003566742 0.4024178683757782 0.5140334963798523 -0.2595689296722412 0.3200807273387909 0.12009287625551224 0.24860818684101105 -0.26456618309020996 -0.07839328795671463 0.48841094970703125 0.3498047888278961 0.0939057245850563 0.2495061457157135 -0.06358642131090164
former 0.016082681715488434 0.04242946580052376 0.01610431633889675 0.010066874325275421 -0.039592891931533813 -0.03752836957573891 0.009739561006426811 0.026923514902591705 0.024026649072766304 0.07746735960245132 -0.06009477376937866 -0.019142957404255867 -0.0361502580344677 2.934218500740826E-4 0.003018519841134548 -0.005837839562445879 -0.03300955519080162 0.030782528221607208 0.08494436740875244 -0.04312766343355179 -0.01971561089158058 -0.057691242545843124 -0.022447245195508003 -0.04028076305985451 -0.023847753182053566 0.052457794547080994 -0.00869340356439352 -8.401604281971231E-5 -0.04497013986110687 0.012712701223790646 -5.202684551477432E-4 -0.04687347263097763 0.023215902969241142 0.011869174428284168 -0.007774659898132086 0.05941913649439812 -0.03497910127043724 -1.8125381029676646E-4 0.011166514828801155 -0.017616070806980133 0.011141320690512657 0.00795909482985735 -0.02355756051838398 -0.00328345806337893 0.01672453247010708 -0.00930373091250658 -0.002667615655809641 -0.003832238959148526 0.06996322423219681 0.01863550953567028 0.02809916064143181 -0.043414123356342316 0.026197023689746857 -0.021502353250980377 -0.031713154166936874 -0.07207351922988892 -0.01650472916662693 -0.0043273260816931725 -0.009852951392531395 0.003078937064856291 -0.028807613998651505 0.023194413632154465 -0.03636009246110916 -0.02539541944861412 -0.02470577508211136 -0.04145362228155136 0.0915350615978241 -0.027218490839004517 0.03581780195236206 0.06063156574964523 -0.015177972614765167 1.8428542534820735E-4 0.011982719413936138 0.00867599155753851 -0.0016661550616845489 0.007803281303495169 -0.04604753479361534 0.03319650888442993 0.023109717294573784 0.018886294215917587 0.006858342327177525 0.021960968151688576 0.011756807565689087 -0.05424818396568298 -0.018297456204891205 0.00447186129167676 0.06085825338959694 0.025703970342874527 -0.02628735825419426 0.010888805612921715 -0.1039399802684784 -0.04248485714197159 0.059633444994688034 -0.02112041786313057 0.01926591619849205 0.005806486587971449 -0.031447794288396835 0.059801843017339706 -0.009634781628847122 -0.03713434189558029
as -0.3189300298690796 0.004370528273284435 -0.4052606523036957 -0.19831030070781708 0.013921430334448814 0.0591900497674942 -0.0429992601275444 0.06688637286424637 -9.285646374337375E-4 -0.03745144233107567 -0.14034859836101532 0.25980132818222046 -0.01150352694094181 -0.007305698003619909 -0.07968162000179291 -0.10414673388004303 -0.0991959497332573 -0.15451779961585999 0.22604694962501526 -0.3804467022418976 -0.14317727088928223 -0.2644317150115967 -0.026790253818035126 -0.25414371490478516 0.158564031124115 -0.1479300558567047 0.011771883815526962 -0.018655920401215553 0.1412411332130432 -0.375503271818161 -0.3702758550643921 0.13541312515735626 -0.15556854009628296 -0.19709140062332153 -0.41281160712242126 0.2707377076148987 -0.11371999233961105 -0.08831878006458282 -0.015450440347194672 0.19107787311077118 -0.37871643900871277 0.3285946249961853 0.04951246827840805 -0.12475515902042389 -0.5139722228050232 -0.3295954763889313 -0.16811078786849976 -0.2040877342224121 0.22101368010044098 -0.1114618256688118 -0.07788828760385513 0.49005383253097534 -0.1480187326669693 0.005273217801004648 -0.4540037214756012 -0.5610712170600891 0.005825751926749945 -0.22512246668338776 0.11703117936849594 0.07461218535900116 -0.04401978850364685 -0.18765726685523987 -0.0774935632944107 0.04930330440402031 0.24073699116706848 0.2310168743133545 -0.291988343000412 0.052583951503038406 -0.23710155487060547 0.18535521626472473 0.14469444751739502 -0.3025246262550354 0.029570292681455612 0.015420905314385891 0.25451627373695374 0.07444454729557037 0.17218084633350372 0.24906377494335175 -0.00283178873360157 -0.2436520755290985 0.32953089475631714 0.3862389028072357 0.3766930401325226 -0.14192594587802887 -0.40877464413642883 -0.03657432645559311 0.5605756640434265 -0.08418050408363342 0.011988808400928974 0.3998038172721863 -0.14091382920742035 -0.26652491092681885 0.32331591844558716 -0.12914112210273743 0.010883128270506859 -0.156328946352005 -0.20778894424438477 -0.1725076287984848 0.24363726377487183 -0.3440684974193573
at 0.1325564682483673 0.07852288335561752 0.010301044210791588 -0.3393711745738983 -0.2440805286169052 -0.24063895642757416 0.05570152401924133 0.12747825682163239 -0.10472609102725983 0.2362382411956787 -0.03332841023802757 -0.04124315083026886 -0.21568308770656586 0.10560722649097443 -0.12780223786830902 0.05257360637187958 0.13603408634662628 0.152173712849617 -0.024461133405566216 -0.2955474257469177 -0.26897019147872925 -0.16781985759735107 0.06223563849925995 -0.24762529134750366 0.15682144463062286 -0.15356692671775818 0.05544741079211235 0.03138052672147751 -0.005164215806871653 -0.07250792533159256 0.022800443693995476 -0.15445438027381897 0.404615581035614 -0.08007771521806717 0.019170738756656647 0.23233285546302795 0.4030578136444092 0.13305164873600006 0.21552243828773499 0.14169836044311523 -0.005467993672937155 0.1294095516204834 -0.23502519726753235 -0.03693236783146858 -0.19736622273921967 0.2795797288417816 0.0423450730741024 -0.3789617717266083 -0.3016805350780487 -0.08804930746555328 -0.16249459981918335 0.23157232999801636 -0.18827933073043823 0.09933944046497345 0.28254860639572144 -0.5436257123947144 -0.2145407348871231 -0.2453918606042862 0.14396214485168457 -0.015216341242194176 -0.10631882399320602 -0.02726062387228012 -0.18143989145755768 -0.13523270189762115 -0.14060688018798828 -0.061995744705200195 0.3755091726779938 -0.07354642450809479 0.2140394151210785 0.261104553937912 0.17479565739631653 0.015450436621904373 0.188022181391716 0.24685294926166534 -0.13685621321201324 -0.008997389115393162 -0.11430081725120544 0.14609327912330627 0.17465157806873322 -0.29036328196525574 -0.0231565423309803 -0.48749032616615295 -0.34170788526535034 -0.49173858761787415 -0.34313514828681946 0.5042515397071838 -0.2053586095571518 0.3349425792694092 -0.04784023389220238 -0.02908487245440483 0.23592546582221985 -0.011621948331594467 -0.39204108715057373 -0.039564020931720734 0.07265298068523407 0.1575804203748703 0.5569661855697632 0.28654658794403076 -0.3267334997653961 -0.29423558712005615
left 0.10016924887895584 0.02205067127943039 -0.2032763957977295 -0.17658816277980804 0.04077602177858353 0.01645471528172493 0.17189081013202667 0.15853235125541687 0.13403567671775818 0.004520269576460123 -0.0030374927446246147 -0.07557237148284912 0.15569813549518585 0.052047643810510635 -0.28219327330589294 0.05302712693810463 0.14215481281280518 0.0033717851620167494 -0.10008691251277924 -0.3330439031124115 0.11688672006130219 -0.034780312329530716 -0.2283657044172287 -0.006089878734201193 -0.27629584074020386 -0.16285717487335205 0.12120015174150467 -0.0049443296156823635 -0.3745537996292114 0.2216232568025589 0.06814099848270416 -0.3734223544597626 -0.020160408690571785 0.08831879496574402 0.13758046925067902 -0.10972423851490021 -0.07897528260946274 -0.014371584169566631 0.16645842790603638 0.044829968363046646 -0.08365844190120697 -0.16728992760181427 -0.1826360672712326 -0.21992655098438263 0.016795676201581955 -0.17519409954547882 0.11732334643602371 -0.03755545988678932 0.17183205485343933 -0.05274378880858421 0.10715525597333908 -0.25336745381355286 -0.05165860429406166 -0.15132932364940643 -0.27244919538497925 0.11677774041891098 0.08107652515172958 0.24681828916072845 -0.3683032691478729 0.04301665350794792 -0.03880005329847336 0.13206090033054352 -0.2275184690952301 -0.10085515677928925 0.32782065868377686 -0.05698326230049133 0.21128536760807037 -0.031562283635139465 -0.09786689281463623 -0.018000584095716476 0.028020428493618965 -0.22669057548046112 0.08230594545602798 -0.10726504772901535 -0.06632810831069946 -0.15249943733215332 -0.19973812997341156 -0.014779162593185902 -0.20193946361541748 0.054536908864974976 -0.06202293932437897 -0.1459624171257019 0.13747140765190125 -0.3658393919467926 -0.26350629329681396 4.0307253948412836E-4 0.33254387974739075 -0.30057284235954285 -0.04195075482130051 -0.11165007203817368 -0.2264634221792221 0.30806273221969604 -0.28006893396377563 -0.1801607459783554 0.06119004264473915 0.14312118291854858 0.13888700306415558 0.04940890893340111 -0.19490580260753632 0.1449543833732605
much -0.07838812470436096 -0.044816821813583374 0.1962469220161438 0.5225718021392822 -0.053333770483732224 -0.0557272844016552 -0.14399713277816772 -0.5496578812599182 -0.1637350171804428 -0.4366932511329651 0.29150673747062683 0.009261548519134521 -0.058615829795598984 0.053652096539735794 -0.24593298137187958 -0.2018245905637741 -0.22978366911411285 0.010476683266460896 -0.4935108423233032 -0.3216698169708252 -0.09882820397615433 -0.0021275316830724478 -0.3784293830394745 0.45650312304496765 0.1706971973180771 -0.2552218437194824 0.1351671814918518 0.04010142385959625 -0.029437076300382614 -0.20927299559116364 0.12124829739332199 -0.20438513159751892 0.23642738163471222 -0.16752220690250397 0.00705193355679512 -0.08994773775339127 0.16601894795894623 0.2483406513929367 -0.26406893134117126 -0.1916181892156601 0.32063761353492737 0.27775853872299194 -0.10560368746519089 0.04915238544344902 0.454159140586853 0.2879045903682709 0.16766014695167542 -0.09112168848514557 0.36231717467308044 0.012952917255461216 -0.404387891292572 -0.1672864556312561 0.3249512314796448 -0.07974476367235184 0.3724120259284973 0.5150212645530701 0.0164490994066 0.4585331976413727 -0.01377519778907299 0.39373132586479187 -0.2856540083885193 -0.35615620017051697 0.23735541105270386 -0.05580727383494377 0.18412506580352783 -0.12265987694263458 -0.2157893031835556 -0.16126981377601624 -0.41548603773117065 -0.2996717393398285 0.2762352526187897 0.011912492103874683 -0.2487044781446457 0.06044958904385567 -0.20547905564308167 -0.29006722569465637 -0.3185397684574127 0.29548004269599915 -0.21501708030700684 -0.2348221391439438 0.3472779095172882 -0.5153209567070007 0.1617611199617386 0.07565455138683319 0.18065078556537628 -0.3556918203830719 0.01595904678106308 5.450344178825617E-4 0.07904362678527832 0.1617114543914795 -0.08328239619731903 0.1017669066786766 -0.228485107421875 -0.1774091124534607 -0.1748594492673874 -0.07407604157924652 -0.060701776295900345 -0.10273481905460358 -0.040083643049001694 -0.024277878925204277
be 0.01971028558909893 0.05063612014055252 0.07053577899932861 0.18614783883094788 -0.19482065737247467 -0.3936070501804352 -0.38225021958351135 0.27361008524894714 0.16593898832798004 -0.2288314551115036 0.15262405574321747 -0.2252979427576065 0.27539366483688354 0.27248796820640564 -0.3726883828639984 -0.08419816941022873 -0.06080073490738869 0.07674518972635269 0.08528503030538559 0.6235235929489136 0.07491566985845566 -0.0012479755096137524 0.17989104986190796 -0.0833408534526825 0.008985686115920544 0.05315747484564781 0.2623194754123688 0.30006328225135803 0.2228793501853943 -0.0343838669359684 0.09453073889017105 1.2526741193141788E-4 0.17806412279605865 0.09261709451675415 -0.10984452813863754 -0.03556450083851814 -0.27404534816741943 0.08695866912603378 -0.2106417715549469 -0.12831734120845795 -0.12587648630142212 -0.08959747105836868 -0.20715458691120148 -0.11994265019893646 -0.11553965508937836 -0.20774784684181213 0.10666431486606598 0.17112261056900024 -0.18946340680122375 -0.09800387918949127 0.08691012859344482 0.19802704453468323 0.04886477440595627 0.19467967748641968 -0.3947581350803375 -0.22538208961486816 0.16979296505451202 -0.11728208512067795 0.15384620428085327 0.012274357490241528 -0.3500806987285614 -0.15001052618026733 -0.04817085713148117 0.1817372739315033 -0.03703223541378975 0.07301998138427734 -0.11738555133342743 0.04418618604540825 -0.10212251543998718 0.023984774947166443 -0.10015869140625 0.17893408238887787 -0.120240218937397 -0.1460428386926651 -0.023185087367892265 -0.2589706778526306 0.08727819472551346 0.06951063871383667 0.2442575991153717 0.19288966059684753 0.4537857472896576 -0.2679787874221802 0.13952647149562836 -0.14461293816566467 -0.08789823204278946 -0.290770560503006 0.48891693353652954 -0.11967643350362778 -0.4484579861164093 0.169375941157341 0.25657814741134644 0.040509600192308426 0.05605354532599449 -0.3402998447418213 0.21053244173526764 -0.04279756546020508 0.16303975880146027 0.06070622056722641 -0.3929154574871063 0.24063310027122498
another 0.016864588484168053 -0.016218408942222595 -0.07053237408399582 -0.11013541370630264 -0.5476009249687195 -0.039866913110017776 -0.008997589349746704 -0.34648340940475464 -0.15179112553596497 -0.019731586799025536 0.06183411926031113 -0.03426969051361084 0.2590629458427429 0.4019719958305359 0.13479626178741455 -0.17670807242393494 -0.07484810054302216 0.19873784482479095 -0.2517721354961395 0.14243680238723755 -0.08140401542186737 -0.04105908051133156 0.07447534054517746 0.05726136267185211 0.2553408741950989 -0.19675999879837036 0.2756509780883789 0.037314657121896744 -0.03996890038251877 0.15366962552070618 -0.12983576953411102 -0.06327348947525024 0.02873755246400833 0.1460135579109192 0.08311277627944946 -0.004964148625731468 -0.18425877392292023 0.06726013123989105 0.12606820464134216 0.033733442425727844 0.15845759212970734 -0.37945112586021423 0.1486879587173462 -0.10664987564086914 0.27660858631134033 -0.1445235162973404 -0.06157013028860092 0.3246792256832123 0.1181146502494812 -0.14096571505069733 0.020454825833439827 -0.18022634088993073 -0.01698289066553116 -0.19963635504245758 -0.2500975728034973 -0.20393672585487366 0.22219984233379364 0.03794353827834129 0.08953086286783218 -0.007496354635804892 0.16492468118667603 -0.13999107480049133 -0.3877944350242615 0.04569445177912712 0.06466161459684372 0.02960093878209591 0.1795545518398285 0.040312282741069794 0.1706542670726776 0.17985670268535614 0.12784016132354736 0.3385450541973114 0.03421390801668167 0.031178757548332214 -0.04268735274672508 -0.004512032028287649 0.11443671584129333 0.09923610091209412 -0.45232129096984863 0.11454526335000992 0.009170840494334698 0.37404149770736694 -0.2562955617904663 -0.33371827006340027 -0.20979943871498108 -0.3315974473953247 0.12201837450265884 0.11353903263807297 0.21528522670269012 -0.2088315635919571 0.044970784336328506 -0.21227185428142548 -0.07254178822040558 -0.25833749771118164 0.16544419527053833 -0.08503079414367676 -0.31826096773147583 0.47921469807624817 0.14968866109848022 0.23611712455749512
two 0.17684070765972137 0.014465336687862873 -0.1576968878507614 -0.3409794270992279 -0.3445502519607544 -0.07219173014163971 0.10057958215475082 0.33406487107276917 -0.12684425711631775 0.4114161729812622 -0.11298903822898865 -0.05554862692952156 0.21809446811676025 0.032106462866067886 -0.20322085916996002 -0.34218311309814453 0.018989048898220062 0.18410354852676392 -0.06941269338130951 -0.22415220737457275 -0.04983653128147125 -0.37376800179481506 -0.018958639353513718 0.15507040917873383 -3.546781954355538E-4 -0.1983262151479721 0.4364506006240845 -0.07338463515043259 -0.5229787826538086 -0.10110163688659668 -0.3320414125919342 -0.2795511484146118 -0.3016504943370819 -0.23507267236709595 0.19356615841388702 -0.3544488847255707 -0.39196497201919556 -0.28332316875457764 0.30051863193511963 0.1525200456380844 -0.31403446197509766 0.03542798385024071 -0.16750387847423553 -0.24100326001644135 0.22328001260757446 -0.32370078563690186 -0.044761743396520615 0.029310476034879684 0.30059880018234253 -0.058551400899887085 0.14737877249717712 -0.22848550975322723 -0.3184937536716461 -0.294889360666275 0.04868369549512863 0.0444425530731678 -0.031162435188889503 -0.38989534974098206 -0.13619402050971985 -0.40940749645233154 -0.2515369653701782 -0.14844776690006256 -0.09568750858306885 0.07685677707195282 0.1132872998714447 -0.3223060965538025 0.05632687360048294 -0.024035150185227394 -0.09196527302265167 -0.02247271127998829 -0.2357182502746582 -0.45695969462394714 0.193872332572937 -0.18111065030097961 0.03939633443951607 -0.045556798577308655 -0.6224913597106934 0.02082119695842266 -0.2558799982070923 0.09698110073804855 -0.022785069420933723 -0.1664261668920517 0.17433108389377594 -0.6013861894607544 -0.5448403358459473 -0.08177780359983444 0.3267355263233185 0.1710708737373352 0.03433690965175629 -0.30630356073379517 -0.21728913486003876 0.3394281566143036 0.012462285347282887 -0.3297291100025177 0.05935760959982872 0.13103871047496796 -0.28494003415107727 0.40877315402030945 0.2137109637260437 0.3595285415649414
long -0.0648094192147255 -0.19975455105304718 0.1363614946603775 0.5770434737205505 -0.3090822994709015 -0.382684588432312 0.1582278609275818 -0.40980273485183716 -0.3750670254230499 0.023047572001814842 0.3943787217140198 0.05581749603152275 0.17054694890975952 0.13173986971378326 -0.6782944202423096 -0.3383975625038147 0.1376245617866516 0.1753881275653839 -0.15248225629329681 0.4241311252117157 -0.02340765856206417 -0.0846627727150917 0.08038683980703354 -0.2872694432735443 0.7914731502532959 -0.43133899569511414 0.5150814056396484 -0.35590624809265137 0.046414267271757126 -0.22839590907096863 -0.18031510710716248 0.03994296118617058 0.31996414065361023 -0.2882935404777527 0.13308702409267426 -0.04591754823923111 0.3171553313732147 -0.14548364281654358 -0.5436142683029175 -0.43031641840934753 0.21698376536369324 -0.5201091170310974 -0.18059681355953217 -0.35209375619888306 -0.05329209938645363 0.08091423660516739 -0.04114808887243271 0.016461627557873726 0.09103912860155106 -0.030939150601625443 0.32154542207717896 0.06976915895938873 0.14118355512619019 -0.014962811022996902 0.3644217848777771 -0.13835448026657104 -0.07294183224439621 -0.09346756339073181 -0.7776328325271606 0.3049944043159485 -0.17795972526073456 -0.04989008232951164 0.14509780704975128 0.33617743849754333 0.12510380148887634 -0.17819704115390778 -0.19057171046733856 0.02493518777191639 -0.49919793009757996 0.2613859176635742 0.10833617299795151 0.25047898292541504 0.1120707169175148 0.3255904018878937 0.08626902103424072 0.26745128631591797 -0.2404232621192932 0.7047025561332703 -0.1202595978975296 0.004341477993875742 -0.12693320214748383 -0.12718448042869568 0.1432631015777588 0.11950962245464325 -0.10309076309204102 0.24759824573993683 0.005411886144429445 -0.2618587613105774 -0.17721383273601532 -0.4051632881164551 0.0919836238026619 -0.16479218006134033 -0.1577604115009308 -0.20133660733699799 -0.15222829580307007 -0.13635848462581635 -0.5068677067756653 -0.21268349885940552 0.5549387335777283 0.4368649423122406
into -0.10996674746274948 0.22709587216377258 0.12439703941345215 -0.14762760698795319 -0.05702529475092888 0.21690452098846436 0.07243292033672333 -0.28151577711105347 -0.2025516927242279 0.14300929009914398 0.14082439243793488 -0.14854668080806732 0.10197558254003525 -0.06305766850709915 0.032041922211647034 -0.014757628552615643 -0.06596556305885315 0.07106298953294754 -0.2774164080619812 0.21980461478233337 -0.014593495056033134 -0.0978105440735817 0.4124889373779297 -0.015532081946730614 0.06897519528865814 -0.021825091913342476 0.03283552825450897 -0.11540067940950394 -0.1632460057735443 0.18616187572479248 -0.27182626724243164 -0.08898825198411942 -0.10362401604652405 -0.1333232969045639 -0.0747315064072609 0.04514145478606224 0.1981501430273056 -0.16784918308258057 0.1274743527173996 0.3133748769760132 0.07713698595762253 -0.0919872373342514 -0.07672262191772461 -0.15689967572689056 -0.13471151888370514 0.06533844023942947 0.07823926210403442 0.23429378867149353 -0.24342754483222961 0.04193359613418579 0.20853763818740845 0.0799119621515274 0.08717967569828033 0.10259096324443817 -0.12433748692274094 -0.19911108911037445 -0.10416121780872345 0.05977807939052582 0.11441872268915176 -0.14836175739765167 0.1479915827512741 0.009967281483113766 0.17780624330043793 -0.17071053385734558 0.056520991027355194 0.057856179773807526 0.0825667753815651 -0.09399274736642838 0.06285408139228821 -0.08730549365282059 -0.16373595595359802 0.23720504343509674 -0.12444046884775162 0.18502898514270782 0.1722945272922516 -0.04375556483864784 0.11233953386545181 -0.09628979116678238 0.1570766568183899 -0.004050742369145155 0.0251105148345232 -0.060990311205387115 -0.024520961567759514 -0.19450382888317108 -0.06860681623220444 -0.1559210568666458 -0.26032304763793945 0.044920749962329865 -0.07369796931743622 -0.14721137285232544 0.052486713975667953 -0.25719696283340454 -0.12595723569393158 0.21507513523101807 -0.10034655034542084 0.04557313397526741 -0.09474239498376846 0.0849902406334877 0.0666898638010025 0.03688696771860123
how -0.1255418062210083 0.14187046885490417 0.2704181373119354 -0.2185717672109604 0.01038818433880806 0.10436670482158661 -0.19502541422843933 -0.21714334189891815 -0.00299422862008214 -0.30974143743515015 0.25392279028892517 0.3094446659088135 -0.3618432283401489 -0.265212744474411 0.06923254579305649 -0.1297619640827179 -0.23351234197616577 -0.38581427931785583 -0.14288805425167084 -0.6229202747344971 0.284492164850235 -0.20813007652759552 8.014324703253806E-4 -0.32672786712646484 0.02484237402677536 -0.07859845459461212 0.13101215660572052 -0.24633362889289856 0.1475009322166443 -0.46682071685791016 -0.48894819617271423 0.18168117105960846 -0.24087749421596527 0.011940257623791695 -0.3691665530204773 0.02493426203727722 0.19945937395095825 -0.20786896347999573 0.06913309544324875 0.11331058293581009 -0.2750348448753357 -0.05848383158445358 0.03357290104031563 0.1851767599582672 -0.15154427289962769 -0.27253931760787964 -0.1607494056224823 0.23395131528377533 -0.04665935039520264 0.1498548984527588 -0.256113737821579 0.2976108193397522 -0.02532808668911457 0.11515795439481735 -0.2647334933280945 -0.07530727237462997 0.19174888730049133 0.49039003252983093 0.0715382918715477 -0.07175125926733017 0.15045702457427979 -0.31137895584106445 0.15992678701877594 0.04138551652431488 0.0435725674033165 -0.039907827973365784 -0.6197158098220825 -0.03147400915622711 -0.14343410730361938 -0.09647580981254578 0.10301542282104492 -0.03524897247552872 -0.10653211921453476 0.18582475185394287 0.10478458553552628 -0.13674834370613098 -0.1640690565109253 0.10063044726848602 -0.22773446142673492 0.1375603973865509 -0.12417679280042648 0.492397278547287 0.3385118842124939 -9.58431395702064E-4 0.24816828966140747 -0.2283421903848648 -0.029981516301631927 0.08854559808969498 0.0877859815955162 0.12523497641086578 0.2768719792366028 -0.10436840355396271 0.5207079648971558 0.16793951392173767 -0.057641878724098206 0.20425355434417725 0.01019803062081337 0.12260473519563675 0.16122837364673615 -0.2812212407588959
see -0.08593765646219254 -0.2537263035774231 0.022859914228320122 0.2803128957748413 -0.009336624294519424 0.1982823610305786 0.08224739134311676 -0.10148876160383224 -0.08088603615760803 -0.08851879090070724 0.38303661346435547 0.11612677574157715 0.28859028220176697 -0.12381357699632645 -0.18302462995052338 -0.025180194526910782 0.30969271063804626 -0.21559205651283264 -0.14526793360710144 0.012333232909440994 0.07812820374965668 0.17549806833267212 0.3189912736415863 -0.015667829662561417 0.1344374716281891 0.11008122563362122 -0.06402036547660828 -0.0749945342540741 -0.37935125827789307 0.08999976515769958 0.023457001894712448 -0.06140090897679329 -0.29606080055236816 -0.026840388774871826 -0.0012573935091495514 -0.18857982754707336 0.057874806225299835 0.06187964603304863 -0.05307523533701897 0.11539806425571442 -0.021726572886109352 0.33018234372138977 -0.10295421630144119 0.2394171506166458 -0.14631260931491852 -0.03392486646771431 -0.017169825732707977 0.03496905043721199 -0.08127492666244507 0.10861688107252121 0.11613324284553528 -0.036683421581983566 -0.11811280250549316 0.21597833931446075 -0.22993217408657074 -0.06715815514326096 -0.1129305437207222 -0.16336601972579956 -0.029065677896142006 -0.007001419086009264 0.03219792991876602 -0.2183765023946762 -0.0234176404774189 -0.06479880958795547 -0.13589699566364288 0.24264302849769592 -0.06008845195174217 -0.12448820471763611 0.311301589012146 -0.05691779404878616 0.18399231135845184 -0.042625509202480316 -0.5076293349266052 -0.18529203534126282 -0.04837013781070709 -0.30602261424064636 0.2621918022632599 -0.04051166772842407 0.14584363996982574 0.22292080521583557 -0.08077293634414673 0.18952549993991852 -0.12249116599559784 0.07861845195293427 -0.046825509518384933 -0.3618362247943878 -0.009474909864366055 -0.21139512956142426 -0.0805322602391243 0.212246373295784 0.1942749321460724 -0.12788644433021545 -0.3586158752441406 0.0324244424700737 0.3075321614742279 0.12177087366580963 0.10859941691160202 -0.07493098825216293 -0.1822090446949005 0.19752226769924164
found 0.17282623052597046 -0.15626144409179688 -0.20736099779605865 0.08127386122941971 0.09475023299455643 -0.1300702542066574 0.10259442031383514 0.006335928104817867 0.3117234408855438 -0.07705288380384445 0.11826805770397186 0.005325688514858484 0.03242446482181549 -0.00214552553370595 -0.12564538419246674 0.008462726138532162 0.15867313742637634 0.09047283977270126 -0.2595295011997223 -0.11926336586475372 0.03899502009153366 0.059144262224435806 0.0345647968351841 -0.12608976662158966 -0.15706175565719604 -0.38988688588142395 -0.07288920879364014 0.045965149998664856 -0.3128740191459656 0.041516754776239395 -0.09141503274440765 -0.16044026613235474 0.025827579200267792 0.15687280893325806 0.2047560065984726 0.016537722200155258 0.01166261825710535 0.10026288777589798 -0.15790021419525146 -0.07659494876861572 -0.09390709549188614 0.09128142148256302 -0.09400025755167007 -0.3338552415370941 -0.17232245206832886 -0.12840133905410767 0.1451423466205597 0.12782850861549377 -0.06261157244443893 -0.07519136369228363 0.021773265674710274 -0.20408068597316742 0.04638129100203514 -0.07886139303445816 -0.18863993883132935 -0.09074766933917999 0.0795581117272377 0.14299407601356506 -0.056110087782144547 -0.037355002015829086 -0.1406220942735672 0.320629358291626 -0.2696782350540161 -0.18463721871376038 0.6015266180038452 -0.10566584020853043 0.18422001600265503 0.15460336208343506 0.11825577169656754 -0.09062957763671875 0.3639771342277527 0.07380256056785583 -0.030843958258628845 0.2868949770927429 -0.11544926464557648 0.05909764766693115 -0.1752687245607376 -0.06030077114701271 0.05042616277933121 0.006163390353322029 -0.05617973580956459 0.13825929164886475 -0.11183124035596848 -0.17847102880477905 -0.217746302485466 0.034110233187675476 0.1949174702167511 -0.21411581337451935 -0.05604630708694458 -0.13089261949062347 0.041671786457300186 0.23634923994541168 -0.13510745763778687 -0.20587295293807983 -0.0031268298625946045 0.14183183014392853 -0.16141174733638763 -0.08863446861505508 -0.07050959765911102 0.1953146755695343
same 0.008018259890377522 0.10259538888931274 0.18267689645290375 -0.1064101904630661 -0.1777697056531906 -0.03913823142647743 0.21592850983142853 -0.3926194906234741 0.08122331649065018 0.3359358012676239 0.009355926886200905 -0.33212393522262573 -0.08812182396650314 0.1642797440290451 -0.15451514720916748 0.11395767331123352 0.09263762831687927 0.37827977538108826 0.28156277537345886 -0.29105105996131897 0.10699780285358429 0.18776220083236694 0.1338389366865158 -0.5520466566085815 -0.16321714222431183 0.03323228284716606 0.14012376964092255 0.44550323486328125 -0.15721891820430756 -0.12181222438812256 0.04408568516373634 0.1832572966814041 0.15361469984054565 -0.06421250104904175 0.0034916740842163563 0.13634628057479858 -0.05039355531334877 0.24341130256652832 0.01775706745684147 -0.0027979016304016113 0.5787482857704163 0.013615579344332218 -0.3677612841129303 0.10152306407690048 -0.1766195446252823 -0.08490137755870819 0.09242263436317444 0.030445830896496773 0.3198896050453186 -0.09321168810129166 -0.06519997119903564 -0.2553422749042511 0.18474169075489044 -0.3942970633506775 -0.29226693511009216 -0.4499783217906952 -0.22072862088680267 -0.2091369330883026 -0.21890467405319214 -0.07947444170713425 -0.07523483037948608 0.13294528424739838 -0.028265250846743584 -0.44247880578041077 -0.4228837490081787 -0.47803065180778503 0.009140838868916035 0.04522831737995148 0.021016759797930717 0.29885560274124146 0.0301309023052454 0.25254911184310913 -0.10818728059530258 -0.2074575275182724 -0.10382353514432907 -0.4760161340236664 0.21412624418735504 0.30470702052116394 0.21593260765075684 -0.2255297750234604 -0.0706908255815506 -0.04558919742703438 0.43075188994407654 -0.16414929926395416 -0.4019998610019684 0.06154029443860054 0.20666144788265228 -0.029987461864948273 -0.10375197976827621 -0.09919324517250061 -0.2345922440290451 0.18258631229400635 0.06960838288068771 0.08570101112127304 -0.08856455236673355 0.4298154413700104 0.007821942679584026 0.15856879949569702 -0.0474214106798172 0.12260723114013672
are -0.5781866312026978 -0.23056383430957794 0.21208837628364563 0.036385808140039444 -0.12328971177339554 0.24303379654884338 -0.3211127817630768 0.14715179800987244 0.19329650700092316 -0.17921866476535797 0.18507631123065948 -0.1316465139389038 0.4937952160835266 -0.10168640315532684 -0.05218296870589256 0.5745005011558533 -0.10507772117853165 0.44293344020843506 0.36176466941833496 -0.21352599561214447 -0.04517986625432968 -0.32266318798065186 0.035290542989969254 0.14197932183742523 0.2735733985900879 0.31191349029541016 -0.12245427817106247 0.4312330186367035 -0.2930715084075928 -0.26425880193710327 0.15273027122020721 -0.04594205319881439 -0.518330991268158 -0.2822859585285187 0.16659541428089142 -0.009141441434621811 -0.062078483402729034 0.012826884165406227 0.07717569172382355 0.09921350330114365 -0.351595014333725 -0.09811530262231827 -0.08075225353240967 0.011366229504346848 0.05288829654455185 -0.32947418093681335 0.11723048985004425 0.14969976246356964 0.11189009249210358 0.23464813828468323 -0.033289290964603424 0.16883446276187897 -0.015918564051389694 -0.057225022464990616 0.10003214329481125 -0.002157175913453102 -0.14257563650608063 0.12871865928173065 0.2467585802078247 0.1945658177137375 -0.2454044222831726 0.07298077642917633 -0.12473927438259125 -0.177625834941864 -0.05231356620788574 -0.27441534399986267 0.2344924658536911 0.4576627016067505 -0.5995998978614807 -0.021719666197896004 0.01991896703839302 0.005007834639400244 0.05978178232908249 -0.09849176555871964 0.41617298126220703 -0.19148080050945282 -0.06555330008268356 -0.3393646776676178 -0.044442590326070786 0.262582391500473 -0.20054849982261658 0.03698718920350075 -0.3437865078449249 0.6163262724876404 0.21691009402275085 0.013088437728583813 0.42680624127388 0.21765707433223724 0.14000584185123444 0.41267815232276917 0.19193829596042633 0.47457993030548096 -0.0845349058508873 -0.07926399260759354 -0.24725410342216492 -0.13316580653190613 0.3230513036251068 -0.24827468395233154 0.024053115397691727 -0.09082761406898499
does 0.5489745140075684 0.20744933187961578 0.20110315084457397 0.03964149206876755 0.4404284656047821 -0.29208335280418396 0.38821661472320557 -0.15571606159210205 0.31471461057662964 -0.14986549317836761 -0.35827529430389404 0.3168073296546936 0.035347819328308105 0.15768276154994965 0.005481966771185398 -0.08379338681697845 -0.013143214397132397 0.6496735215187073 -0.0953449085354805 0.0648622140288353 -0.47560203075408936 -0.10711029917001724 -0.018513955175876617 -2.882088301703334E-4 0.12634122371673584 -0.12563446164131165 -0.11809751391410828 -0.10462193191051483 -0.5147306323051453 0.3265082836151123 -0.05355171859264374 -0.15838782489299774 0.19303454458713531 -0.07517390698194504 -0.17382124066352844 -0.012427655048668385 0.021928029134869576 0.09191787987947464 0.15527521073818207 0.25910672545433044 -0.3168979585170746 0.02085573971271515 0.003156989347189665 -0.08477820456027985 -0.669111430644989 0.08802513778209686 -0.10771013796329498 0.1922483891248703 0.06558314710855484 0.01874435320496559 -0.10233324766159058 -0.15561693906784058 0.23858070373535156 -0.0072366613894701 0.20468245446681976 -0.10939124971628189 -0.016757963225245476 -0.12871354818344116 0.15156373381614685 0.25582072138786316 0.06672491133213043 -0.13544951379299164 0.10311874747276306 -0.0738668441772461 -0.49410247802734375 0.27980148792266846 -0.40215548872947693 0.1130233034491539 -0.21460717916488647 -0.2378581464290619 -0.0488257072865963 -0.03858672454953194 0.14257460832595825 0.43879732489585876 -0.2344931811094284 0.4465315043926239 0.07876058667898178 0.09760479629039764 -0.07371164113283157 -0.058278270065784454 0.27664077281951904 0.43875011801719666 -0.26162323355674744 0.0818057507276535 0.43580392003059387 -0.08427827060222626 -0.4301704466342926 -0.11641893535852432 0.12829144299030304 0.02701008878648281 -0.053481847047805786 -0.25120091438293457 -0.272687166929245 -0.2618785798549652 0.2528146803379059 0.003199465572834015 0.4650234878063202 0.10775607824325562 -0.026411596685647964 0.14987368881702423
by -0.10707904398441315 0.16321848332881927 -0.018785931169986725 -0.1781916469335556 -0.3332037031650543 0.06364771723747253 0.019441355019807816 0.08213523030281067 -0.2231273204088211 0.18157808482646942 0.12993694841861725 -0.2386772632598877 0.22884181141853333 0.1186191514134407 -0.09866654872894287 -0.006566795986145735 -0.05707027018070221 0.05068407952785492 -0.2787475287914276 0.07927395403385162 -0.008965999819338322 -0.14107201993465424 0.3039110004901886 0.004584218375384808 0.16973868012428284 -0.0532708540558815 0.18825888633728027 -0.025785323232412338 -0.2082138955593109 0.11187641322612762 -0.04626708850264549 -0.1412305235862732 -0.047709427773952484 0.09705647081136703 0.12733161449432373 -0.03245213255286217 -0.032672759145498276 -0.15502017736434937 0.3253542184829712 0.21542736887931824 -0.11980967223644257 -0.12766443192958832 -0.10882490128278732 -0.22685492038726807 0.08769655227661133 -0.1962640881538391 -0.028021076694130898 0.09227141737937927 -0.08978275209665298 -0.060030706226825714 0.2353167086839676 0.16991421580314636 -0.1355266273021698 -0.04465935006737709 -0.1712421476840973 -0.10553121566772461 -0.11820143461227417 -0.1250283420085907 -0.28492724895477295 -0.105011485517025 -0.04272099956870079 -0.05545768141746521 -0.04148118570446968 -0.15687376260757446 0.05660109966993332 -0.024661121889948845 -0.010167108848690987 -0.047890618443489075 -0.05389075353741646 0.15450599789619446 0.11933458596467972 0.1168784499168396 0.15963849425315857 -0.044576775282621384 0.04791555926203728 -0.026673855260014534 -0.014637654647231102 0.026268362998962402 0.10126285254955292 -0.059526070952415466 -0.08996911346912384 0.11477716267108917 -0.06181704252958298 -0.2625811696052551 -0.07256793230772018 -0.05583694949746132 0.11602237820625305 -0.08556118607521057 -0.08298682421445847 -0.10586641728878021 -0.047437883913517 -0.02131880261003971 -0.18730135262012482 0.05941548943519592 -0.001170461648143828 0.08493273705244064 -0.18739943206310272 0.05903547629714012 0.11999759823083878 0.05180567130446434
national 0.0014130889903753996 0.011953652836382389 0.09266737103462219 0.024151194840669632 -0.07243768125772476 -0.02641586773097515 6.034807302057743E-5 -0.08626610040664673 0.015421944670379162 0.19014939665794373 -0.022890280932188034 -0.0872344970703125 -0.1214304119348526 0.0031516666058450937 0.021000733599066734 -0.010354634374380112 -0.11150828003883362 0.0849357321858406 0.11180362105369568 0.014877144247293472 -0.04951038211584091 -0.06355959922075272 0.013256698846817017 -0.09452881664037704 0.09054680913686752 0.08771760761737823 -0.011308226734399796 -0.00773300975561142 0.034425463527441025 0.06861600279808044 0.10881274938583374 -0.0687142163515091 0.06795882433652878 -0.052973125129938126 -0.024975024163722992 0.16495858132839203 -0.027100713923573494 -0.014583714306354523 -0.07026601582765579 -0.0348743200302124 0.04057440161705017 -0.10029205679893494 -0.04813227429986 -0.06005098670721054 0.022729625925421715 -0.042346708476543427 -0.09709218144416809 -0.039149656891822815 0.1070752665400505 -0.022351812571287155 0.05148101970553398 0.10488768666982651 0.07868967205286026 -0.07208104431629181 -0.08338286727666855 -0.10260632634162903 -0.015590113587677479 -0.09807150810956955 -0.04928199574351311 -2.60978180449456E-4 0.026415081694722176 0.1785905361175537 -0.014405326917767525 0.059352777898311615 -0.07223153114318848 -0.08578374981880188 0.13249137997627258 -0.04685676097869873 -0.047970619052648544 0.0636933371424675 0.023244980722665787 0.07410590350627899 -0.018502572551369667 0.03146277368068695 0.017231861129403114 -0.062341317534446716 -0.11381227523088455 0.054428424686193466 0.08088657259941101 0.01639420911669731 0.05639739707112312 -0.043308451771736145 0.040076177567243576 -0.07116080075502396 -0.11959866434335709 -0.037322014570236206 0.12474222481250763 -0.004368252120912075 0.020901918411254883 -0.028295008465647697 -0.1329469531774521 -0.07975511997938156 0.10101725906133652 -0.07599794119596481 -0.08328121155500412 0.050150711089372635 0.0404532328248024 0.002913439879193902 -0.03527525067329407 0.06646791845560074
where -0.10858381539583206 0.05653992295265198 0.0873904600739479 -0.06943553686141968 -0.33519333600997925 0.08659086376428604 -0.1892908215522766 -0.13931362330913544 -0.12108634412288666 0.5024577379226685 0.03728784620761871 -0.012916882522404194 -0.3129291534423828 0.25555387139320374 0.07078353315591812 -0.1915374994277954 -0.048736829310655594 0.06650633364915848 -0.039112694561481476 0.16895227134227753 0.18825359642505646 0.0333280935883522 -0.07696351408958435 -0.13481679558753967 -0.037247758358716965 -0.322978138923645 0.2547740638256073 -0.13641218841075897 0.057167764753103256 -0.30339059233665466 -0.47450780868530273 -0.10315582156181335 -0.042261362075805664 -0.3596504032611847 0.2862769067287445 -0.04070291295647621 0.1625889390707016 -0.1274859756231308 0.056983765214681625 -0.05244605988264084 0.08462566137313843 -0.22036178410053253 -0.019006630405783653 -0.0332709364593029 0.277134507894516 -0.12234547734260559 -0.04378639906644821 -0.2549191415309906 -0.08441635221242905 -0.3280036747455597 -0.39875924587249756 0.2592248022556305 0.16137640178203583 0.013011934235692024 -0.3840838670730591 -0.0024569209199398756 -0.32569995522499084 0.07313719391822815 0.3974793255329132 -0.00251043401658535 0.04205594211816788 -0.01465379074215889 0.21868903934955597 0.003103104652836919 -0.4999820291996002 -0.11547432839870453 0.14663895964622498 -0.054030902683734894 -0.07857386022806168 -0.018968094140291214 0.03957734256982803 -0.1611682027578354 -0.19037869572639465 -0.2522227168083191 0.08430634438991547 -0.08504774421453476 -0.19335252046585083 -0.3443807065486908 0.4121266007423401 0.15658804774284363 -0.19826363027095795 0.5178544521331787 0.2190433293581009 0.40857216715812683 0.29374462366104126 0.0058243670500814915 0.01870007999241352 0.10074245929718018 -0.20102331042289734 -0.3348151445388794 0.49988043308258057 0.03758125379681587 0.09167098999023438 0.6149415969848633 -0.06530101597309113 0.18121153116226196 -0.08464132249355316 0.07554857432842255 0.2360728234052658 -0.061074770987033844
after 0.1726617068052292 0.15882620215415955 0.18636421859264374 -0.18789850175380707 -0.18552115559577942 0.010747503489255905 -0.07002928107976913 0.07527480274438858 -0.18151551485061646 0.27589869499206543 -0.14332838356494904 -0.19121919572353363 -0.009316515177488327 0.0704992413520813 0.0274618212133646 0.09264703094959259 0.17761576175689697 -0.07916191220283508 -0.21826398372650146 -0.020734624937176704 0.06988256424665451 -0.09705685824155807 0.10249758511781693 0.0057477643713355064 0.007481222972273827 0.06763261556625366 0.22658708691596985 -0.2388378083705902 -0.45359739661216736 0.22702476382255554 -0.13712552189826965 -0.23830054700374603 0.1485387682914734 -0.45217907428741455 0.041778892278671265 0.09773369878530502 0.2036614716053009 0.024956783279776573 0.16563953459262848 0.07961782068014145 -0.14374832808971405 -0.03176185116171837 -0.2728409767150879 0.09174857288599014 0.08154508471488953 -0.16311359405517578 0.22057972848415375 0.01954376883804798 -0.09202799946069717 0.06801015138626099 0.025648493319749832 0.24619409441947937 0.04347668215632439 -0.16326577961444855 -0.18233592808246613 -0.14597024023532867 -0.3137458562850952 -0.0676051527261734 -0.07559335976839066 0.11620782315731049 0.10034933686256409 -0.008820663206279278 0.005105697549879551 -0.10590659826993942 -0.25890281796455383 -0.032612480223178864 0.16222776472568512 -0.11611019819974899 0.12352512031793594 0.3895135223865509 0.17887255549430847 0.1013181209564209 0.0014788282569497824 0.2462117224931717 0.0514184795320034 -0.06044777110219002 -0.2665688693523407 -0.18464158475399017 0.008413461968302727 -0.004122627899050713 -0.5260083079338074 0.028754238039255142 -0.16355736553668976 -0.2036833018064499 -0.242345929145813 0.23037801682949066 0.004857869353145361 0.17533528804779053 -0.009423336945474148 0.07121381908655167 0.17008526623249054 0.03147607669234276 -0.0779314860701561 -0.16150610148906708 -0.19877956807613373 0.16789083182811737 0.08958374708890915 0.19313962757587433 -0.24299880862236023 -0.09013734012842178
so -0.23036213219165802 0.06834149360656738 -0.24676856398582458 -0.11082736402750015 0.29031258821487427 0.28028813004493713 0.08617062866687775 0.009531437419354916 -0.13030098378658295 -0.18315306305885315 -0.2051248401403427 0.3341078460216522 -0.17548903822898865 -0.08161453157663345 -0.13658784329891205 0.045529767870903015 0.2721896469593048 -0.03865889087319374 0.17417997121810913 -0.14585009217262268 -0.021774036809802055 -0.08924268931150436 0.15940114855766296 0.20813724398612976 -0.06537613272666931 0.011707170866429806 0.3014410734176636 -0.22711989283561707 0.05307827889919281 0.01405848003923893 0.012080749496817589 -0.11140017211437225 -0.12677280604839325 -0.03932740166783333 -0.08435852080583572 -0.13820621371269226 -0.3133639693260193 0.12667569518089294 -0.01983013190329075 0.029466016218066216 -0.3245498538017273 -0.08023073524236679 0.1594838947057724 0.15332937240600586 0.055194344371557236 -0.0824761614203453 0.1648394912481308 -0.2264428734779358 -0.01833377406001091 0.11751504987478256 0.1580275446176529 -0.0910860151052475 -0.05628305673599243 0.29589083790779114 -0.3512568771839142 0.1714177280664444 -0.07392211258411407 -0.08158683031797409 0.13209114968776703 -0.018481211736798286 0.04535369202494621 -0.06744855642318726 0.030149178579449654 0.09277837723493576 0.09021519869565964 0.03532729670405388 -0.24844509363174438 -0.17028681933879852 -0.18058674037456512 -0.04826771840453148 0.01543627679347992 -0.30955153703689575 0.08403077721595764 -0.19394899904727936 0.11425462365150452 -0.13813209533691406 -0.30153974890708923 0.23371799290180206 -0.1820133924484253 0.13593634963035583 -0.15831699967384338 0.33262020349502563 0.0486973375082016 -0.2489590346813202 -0.060481779277324677 -0.015787195414304733 0.07254034280776978 -0.15436293184757233 0.01951991207897663 -0.10057186335325241 0.07632669806480408 0.2428620606660843 0.19268038868904114 -4.8375007463619113E-4 -0.10172243416309357 -0.02391304075717926 0.1867193728685379 0.0036981282755732536 -0.25360265374183655 -0.17732127010822296
a -0.3152602016925812 0.1778903603553772 -0.16508106887340546 0.033497199416160583 -0.15486305952072144 -0.0869251936674118 -0.2347450703382492 -0.31478264927864075 -0.25896939635276794 -0.30065399408340454 -0.30851784348487854 -0.39636650681495667 0.08394908159971237 0.5003519654273987 0.3004578649997711 -0.5582917332649231 -0.11608274281024933 -0.01681297831237316 -0.1007460430264473 -0.09603927284479141 -0.06840912997722626 0.1729796826839447 -0.016151709482073784 -0.27788618206977844 0.31049925088882446 0.1573248654603958 0.5271747708320618 -0.11951103061437607 -0.11542537063360214 0.03180121257901192 -0.22176921367645264 0.3250134289264679 0.21794524788856506 0.29110240936279297 -0.06531450897455215 0.037184592336416245 -0.2907182574272156 0.1267726868391037 0.2175302654504776 0.19177770614624023 0.29127758741378784 -0.4838016927242279 0.22337573766708374 -0.020311638712882996 0.05008798465132713 -0.15737955272197723 -0.11618294566869736 0.4056389629840851 0.1709367334842682 0.20825931429862976 0.10436733812093735 0.2314833253622055 -0.11119663715362549 0.12469709664583206 -0.2009773999452591 -0.30710846185684204 0.04409779980778694 -0.06357424706220627 -0.46129482984542847 0.3599214553833008 0.028204496949911118 0.264422208070755 -0.30967965722084045 0.12353088706731796 0.32898128032684326 -0.03690559044480324 0.36666610836982727 -0.16318656504154205 -0.19406743347644806 0.010499098338186741 -0.04637408256530762 -0.010119584389030933 0.11242713779211044 -0.060275036841630936 0.20565131306648254 0.14189107716083527 -0.2915288507938385 0.11515189707279205 -0.4684337079524994 0.1299160122871399 0.11402944475412369 0.05360012128949165 -0.09716883301734924 -0.30340030789375305 -0.1421830952167511 0.032341163605451584 -0.014962772838771343 0.15754389762878418 -0.3737381398677826 0.24602040648460388 0.048318471759557724 0.03311653435230255 0.029467981308698654 -0.19522148370742798 -0.23644237220287323 -0.0707661360502243 0.0138745978474617 -0.08657672256231308 0.13580653071403503 0.04022114351391792
think 0.18500210344791412 0.011996017768979073 -0.1416698545217514 0.015115950256586075 -0.141637921333313 0.23991040885448456 -0.09773743152618408 -0.0701228678226471 0.1297680139541626 -0.09732764959335327 0.24851058423519135 0.3366035521030426 0.04673190787434578 0.20740969479084015 0.10980620980262756 0.1091289222240448 -0.18393480777740479 -0.25610387325286865 -0.012616252526640892 -0.15168066322803497 -0.15467335283756256 -0.08266716450452805 0.05344747006893158 0.07723964005708694 -0.25285711884498596 -0.15343378484249115 0.06546874344348907 0.028750577941536903 -0.10073676705360413 -0.2352474480867386 -0.1478094607591629 0.19757094979286194 -0.10846935957670212 0.2995207607746124 0.03241001442074776 -0.21978279948234558 0.086317278444767 0.11358128488063812 -0.41981297731399536 -0.10493059456348419 0.18663249909877777 0.2743450105190277 -0.31074467301368713 0.41318225860595703 -0.023579932749271393 0.17873038351535797 -0.21823063492774963 0.061876144260168076 -0.01531858742237091 0.03216780722141266 -0.13423465192317963 0.24059724807739258 -0.05234139785170555 0.09576313197612762 -0.11123602092266083 0.14750821888446808 0.19064491987228394 0.10997548699378967 -0.1429537683725357 0.0753096491098404 0.11663635075092316 -0.10698038339614868 0.060889337211847305 0.05372775346040726 0.07498642057180405 -0.19794823229312897 -0.20316548645496368 -0.13988082110881805 0.08350533246994019 0.0754358321428299 -0.029504364356398582 -0.2506222128868103 -0.3149627149105072 0.23674480617046356 -0.16137811541557312 -0.3065592646598816 0.2483503818511963 0.20034143328666687 0.1834486722946167 -0.1987318992614746 -0.3056819438934326 -0.14432650804519653 -0.011401718482375145 -0.027387065812945366 -0.40583592653274536 -0.01948157511651516 -0.15256378054618835 -0.12723895907402039 -0.2723284065723419 0.34438055753707886 0.38677823543548584 -0.25602367520332336 -0.04078458622097969 -0.12135049700737 -0.12222279608249664 -0.196851909160614 -0.10704600065946579 -0.2582720220088959 -0.289047509431839 0.09850185364484787
set -0.05337928608059883 -0.019581636413931847 0.1742391437292099 0.0878760814666748 0.04598182067275047 -9.769648313522339E-4 -0.01791965402662754 -0.1761619746685028 0.20238958299160004 0.06496980786323547 0.24786335229873657 -0.13661089539527893 0.04767530411481857 0.0029447951819747686 0.01771412044763565 -0.028212562203407288 0.09332544356584549 0.002072514034807682 -0.03859265521168709 0.10550350695848465 0.18201316893100739 0.14398029446601868 0.08240677416324615 -0.1277298927307129 -0.0013719869311898947 -0.2580852508544922 -0.11737033724784851 -0.15007230639457703 -0.18186330795288086 0.11952847242355347 0.07548392564058304 -0.22204536199569702 0.08404366672039032 -0.10784560441970825 0.11014639586210251 -0.15353776514530182 0.12857110798358917 -0.05260615423321724 -0.057400092482566833 -0.14325445890426636 0.03886500373482704 0.04461647570133209 -0.1271604299545288 -0.2312534749507904 -0.043963659554719925 -0.0897773876786232 0.0270734503865242 -0.06372157484292984 0.05734201893210411 -0.18160268664360046 0.05876794457435608 0.056263525038957596 0.26850569248199463 -0.15121780335903168 0.11544409394264221 -0.18600358068943024 -0.058748338371515274 0.05092062056064606 -0.13668091595172882 0.012439906597137451 -0.05147169157862663 0.0166314747184515 -0.08233524113893509 -0.09343866258859634 0.15971116721630096 -0.20542994141578674 0.048716504126787186 0.11803276091814041 0.04177280142903328 -0.11348187923431396 0.06819725781679153 0.04159142076969147 -0.2128935605287552 0.011021862737834454 0.14880593121051788 -0.16314943134784698 0.02645142748951912 -0.003273008856922388 0.045791517943143845 0.2068691998720169 -0.06890103965997696 0.025436822324991226 -0.03846914321184158 -0.07379268854856491 -0.2533034384250641 -0.08410786092281342 -0.007398916408419609 0.00688429968431592 0.06740165501832962 -0.32193753123283386 0.07478804141283035 0.12923401594161987 -0.09579850733280182 -0.10410002619028091 0.05106697231531143 -0.1146441325545311 0.24634630978107452 -0.006861074361950159 -0.16949890553951263 0.22558917105197906
