been 0.49367794394493103 0.10967381298542023 -0.4503793716430664 0.01069946400821209 -0.07177954912185669 -0.07583779096603394 -0.13305503129959106 0.2822333872318268 0.4508466422557831 -0.016519298776984215 0.11073656380176544 0.08557998389005661 0.13482169806957245 -0.25949710607528687 -0.1546919047832489 0.47687646746635437 -0.1443108767271042 0.17237728834152222 -0.37670445442199707 0.03835885971784592 -0.25343823432922363 0.10397738218307495 -0.188432976603508 0.2887658178806305 -0.12292734533548355 0.7137115597724915 -0.031174125149846077 0.05795184150338173 -0.7354479432106018 0.5754874348640442 -0.09965861588716507 -0.15549443662166595 0.19200816750526428 -0.20899233222007751 -0.12471062690019608 -0.1640663594007492 -0.2651945948600769 0.1943003386259079 0.2162702977657318 -0.32610470056533813 -0.2312566637992859 -0.05168210342526436 -0.10357309132814407 -0.5123966932296753 -0.10208502411842346 -0.4974292516708374 1.5804720169398934E-4 0.49289262294769287 0.11260614544153214 0.17107704281806946 -0.11256962269544601 -0.17902088165283203 -0.04131263121962547 -0.18963250517845154 0.05662940442562103 0.07584211975336075 0.6576472520828247 -0.06037101522088051 -0.31950587034225464 -0.4139789938926697 -0.3618888854980469 0.02907741069793701 -0.35751330852508545 0.13893921673297882 0.15822087228298187 -0.3520464301109314 0.2759479880332947 -0.10472200065851212 -0.5133401155471802 -0.1109539344906807 0.2466917634010315 -0.19739434123039246 0.37233754992485046 0.13754963874816895 -0.32058075070381165 -0.3629525899887085 -0.12357266992330551 -0.16690367460250854 -0.11726056784391403 -0.09791429340839386 0.3068807125091553 -0.44384604692459106 -0.08909890800714493 -0.22753414511680603 -0.3508712649345398 0.3174613416194916 0.4079834818840027 -0.19168448448181152 -0.04946787282824516 -0.11892323940992355 0.3908010423183441 0.3213932514190674 -0.21980921924114227 -0.40987977385520935 0.17587479948997498 -0.04681510478258133 -0.03725753352046013 0.05167381465435028 -0.17767232656478882 -0.030697550624608994
year -0.06523784250020981 0.21939204633235931 -0.2644999325275421 0.09563374519348145 -0.2290632128715515 0.02000661939382553 -0.11124976724386215 0.09281035512685776 -0.006901029963046312 0.4592800438404083 0.04013114050030708 -0.012207599356770515 0.20858146250247955 0.09412551671266556 0.22768479585647583 -0.21479378640651703 0.09387077391147614 0.21827852725982666 -0.016543105244636536 0.05284121632575989 -0.034424491226673126 -0.12584778666496277 0.4409099221229553 -0.2330375462770462 -0.016704978421330452 -0.08608207106590271 0.2004716843366623 -0.08055451512336731 0.15136586129665375 -0.2988467812538147 0.1334851235151291 0.0682133287191391 0.4250865578651428 -0.47229716181755066 0.1677817702293396 0.04571721702814102 -0.316539466381073 -0.05197344347834587 0.2582642436027527 -0.3011631369590759 -0.11219809204339981 -0.2987973690032959 0.022885536774992943 -0.03590979427099228 0.02944808639585972 0.2657572627067566 -0.11571825295686722 0.25767070055007935 0.30004456639289856 0.18543756008148193 0.08588818460702896 0.027569258585572243 0.44698089361190796 -0.0701083317399025 0.018778512254357338 0.059912923723459244 0.3716934621334076 -0.15872405469417572 0.3537730574607849 -0.43502989411354065 -0.07657826691865921 0.03869636356830597 0.1928488314151764 0.25923481583595276 -0.08779897540807724 0.19729399681091309 0.05241544172167778 -0.10451795160770416 -0.07849472761154175 0.11050166189670563 0.048866674304008484 -0.12141378968954086 0.039866287261247635 0.03561508283019066 0.10305418819189072 0.0834788829088211 0.08129172772169113 0.5021888613700867 -0.017476173117756844 0.23334993422031403 0.030438534915447235 -0.47417160868644714 -0.007079200819134712 -0.10552015155553818 -0.33391380310058594 0.09682846069335938 0.32074064016342163 -0.28127071261405945 -0.37721526622772217 -0.1558726727962494 -0.1772315800189972 -0.39839377999305725 0.21753282845020294 -0.28680551052093506 -0.05201386660337448 0.03801509365439415 -0.21272222697734833 0.3646240234375 -0.23797769844532013 0.17846180498600006
about -0.048576004803180695 0.026888227090239525 -0.3591098487377167 0.3921186625957489 0.3225875198841095 0.10435283184051514 0.13934913277626038 -0.049524761736392975 -0.028570285066962242 0.06052517890930176 -0.2654496431350708 0.37008136510849 0.40509143471717834 0.19835954904556274 0.119403176009655 -0.06228065490722656 0.11022941768169403 -0.21156324446201324 -0.018948059529066086 0.042268287390470505 0.018457988277077675 -0.08158756047487259 -0.2936375141143799 -0.06302709877490997 0.1516239047050476 0.5475524067878723 -0.05153747275471687 -0.087819904088974 -0.10801555961370468 0.15470018982887268 -0.04669294133782387 0.31275203824043274 0.092153400182724 -0.29708483815193176 -0.1991426646709442 -0.014579998329281807 -0.02778749354183674 0.20467782020568848 -0.19061072170734406 -0.14985999464988708 0.026491355150938034 0.571928083896637 0.020936187356710434 -0.017507677897810936 0.12328002601861954 0.04828772693872452 0.29491159319877625 9.245551191270351E-4 -0.07440310716629028 0.21036572754383087 0.027360588312149048 -0.13281702995300293 0.23581205308437347 0.09697698801755905 0.10541019588708878 -0.06080048158764839 -0.30102112889289856 -0.06951798498630524 0.18529725074768066 -0.28181788325309753 0.10722732543945312 0.1288130283355713 0.3736285865306854 -0.20666496455669403 -0.03132323920726776 0.058427564799785614 -0.04199104756116867 -0.22070837020874023 0.29483237862586975 -0.0942281112074852 0.2895875573158264 -0.2970595359802246 0.06518936902284622 -0.06703809648752213 -0.1964646428823471 -0.1259772926568985 -0.322406142950058 -0.11014735698699951 -0.16331952810287476 0.09757989645004272 -0.36839383840560913 -0.11104098707437515 0.20397572219371796 0.10891357064247131 0.12260294705629349 -0.35155847668647766 0.08521517366170883 -0.2906440496444702 -0.2666316032409668 0.21082237362861633 -0.3799551725387573 0.04083278402686119 0.21520400047302246 0.15911442041397095 0.22802449762821198 0.25117626786231995 0.12521392107009888 0.32007065415382385 -0.3465348184108734 -0.014825270511209965
your -0.48760882019996643 -0.12376124411821365 0.005384080111980438 0.11089963465929031 0.028100963681936264 0.2119995355606079 -0.10421916097402573 0.13296592235565186 0.1816297024488449 0.3458760976791382 -0.2229294776916504 -0.09056113660335541 0.34575003385543823 0.19441340863704681 -0.054139453917741776 -0.10819267481565475 -0.5550512075424194 0.07282031327486038 0.10229498893022537 -0.013406330719590187 0.2003251165151596 -0.07663080841302872 -0.0941961258649826 0.28505149483680725 0.4471527636051178 0.33754652738571167 -1.2937455903738737E-4 -0.3559406101703644 0.21480043232440948 0.037274956703186035 -0.053467124700546265 0.19772586226463318 -0.08940529078245163 0.1260468065738678 -0.1255168467760086 0.02768584154546261 -0.3208143413066864 0.06227526068687439 0.0035339577589184046 0.00891435518860817 0.3753562569618225 -0.3314535617828369 0.20077046751976013 -0.06466662883758545 -0.0326315239071846 0.07684937119483948 0.2989919185638428 0.22200128436088562 0.0022695930674672127 -0.3636651635169983 -0.11106374114751816 0.3563646674156189 -0.26469671726226807 0.11466852575540543 0.3556467294692993 -0.1541597694158554 -0.07141628861427307 -0.2957417070865631 0.14187638461589813 0.07767278701066971 -0.05967448279261589 0.6588153839111328 -0.24635827541351318 0.0304277166724205 -0.1498238742351532 0.48870402574539185 -0.027488956227898598 -0.24085846543312073 0.14861927926540375 -0.13468758761882782 0.11433102935552597 0.0045742760412395 -0.09423840790987015 -0.13477391004562378 -0.21121440827846527 -0.23295067250728607 -0.05070545896887779 0.09617413580417633 -0.14526620507240295 0.011889994144439697 -0.005655663553625345 0.09766595810651779 -0.03628218173980713 -0.08675447851419449 0.3593960404396057 -0.20211058855056763 -0.1924237608909607 0.36990052461624146 0.192418172955513 -0.05446156859397888 0.044911470264196396 -0.014316181652247906 -0.10089998692274094 -0.2915377914905548 0.2761653959751129 -0.16130590438842773 0.10220492631196976 -0.05189903825521469 0.11641149967908859 0.052831292152404785
without -0.27943155169487 0.05857191979885101 0.07199514657258987 0.24464449286460876 0.24509495496749878 0.12287379056215286 0.06920963525772095 0.03724048659205437 0.11167286336421967 0.19828633964061737 0.22797025740146637 0.11095429956912994 0.35651421546936035 -0.17694690823554993 0.1842576414346695 0.36326783895492554 0.02080591768026352 0.16759872436523438 0.24275179207324982 -0.02516702376306057 0.26329508423805237 -0.04631560668349266 0.16078560054302216 -0.09061682969331741 -0.10776498168706894 -0.013680252246558666 -0.10483334213495255 -0.06236514449119568 0.055931344628334045 0.11507827788591385 -0.19961239397525787 0.24196413159370422 -0.0819225087761879 -0.17101101577281952 0.1581597626209259 0.1376183182001114 -0.04068995267152786 -0.12255960702896118 0.06850171834230423 -0.20897363126277924 -0.3804129362106323 0.159051775932312 0.14656901359558105 0.042243801057338715 -0.3379594087600708 -0.24463646113872528 0.04194190353155136 0.1029609963297844 0.041201017796993256 0.007905496284365654 -0.15974123775959015 0.07921742647886276 -0.18371061980724335 0.10554571449756622 -0.07268967479467392 -0.018090201541781425 0.11688871681690216 -0.27337411046028137 0.027495987713336945 -0.11584846675395966 -0.1233852207660675 0.019183730706572533 0.27621740102767944 -0.0854935571551323 0.02957807667553425 -0.003625724697485566 -0.03764745965600014 -0.12072229385375977 2.7519185096025467E-4 0.17760217189788818 0.40649598836898804 0.06956948339939117 0.05847464129328728 -0.24689748883247375 -0.13360826671123505 -0.21851153671741486 -0.14316052198410034 0.18506650626659393 0.3993149697780609 -0.05597369000315666 -0.1225147470831871 0.04649566113948822 0.1116052120923996 0.00660235621035099 -0.14768612384796143 -0.2520463764667511 -0.00564754381775856 -0.3481834828853607 -0.033570460975170135 -0.25495296716690063 0.17909923195838928 -0.07751873135566711 -0.13985304534435272 0.043503329157829285 0.32032397389411926 0.09802669286727905 0.38773468136787415 -0.08593611419200897 0.11331875622272491 0.19293448328971863
these -0.2210484892129898 -0.2902606725692749 0.10632017999887466 -0.05087435245513916 -0.040930259972810745 0.32741135358810425 -0.02514064311981201 0.24139977991580963 0.27264800667762756 -0.020166555419564247 0.050826914608478546 0.14049901068210602 0.0261838398873806 0.2609640955924988 -0.2038031816482544 0.13877518475055695 -0.054566919803619385 -0.08596648275852203 0.46835270524024963 -0.21452832221984863 0.12380456924438477 -0.19541266560554504 -0.23513050377368927 -0.15351560711860657 0.06030780076980591 -0.008849137462675571 0.3727416694164276 -0.0873943418264389 -0.28469160199165344 -0.39853739738464355 0.17353883385658264 0.08887748420238495 -0.3401138186454773 -0.4448310434818268 0.22170275449752808 -0.04273386672139168 0.04632497578859329 0.15102630853652954 0.2637644410133362 -0.08081065863370895 -0.23264698684215546 -0.35750630497932434 -0.01970471628010273 0.21391358971595764 -0.15340493619441986 -0.09222855418920517 0.23008239269256592 -0.1281433254480362 -0.27058035135269165 0.019729863852262497 -0.18520399928092957 -0.20231053233146667 -0.24338696897029877 -0.3376927375793457 0.2580423057079315 0.06610820442438126 -0.3970984220504761 -0.11219365894794464 -0.3349171280860901 -0.33762988448143005 0.00344262202270329 0.07254204154014587 -0.15534181892871857 0.13344280421733856 -0.026488356292247772 0.12434373050928116 -0.027630744501948357 0.2070392519235611 -0.13089798390865326 0.09524242579936981 -0.19188866019248962 -0.15985077619552612 0.06195172667503357 -0.17831534147262573 0.19207528233528137 -0.03071095421910286 0.09581925719976425 -0.1872735470533371 0.048149317502975464 -0.06533031910657883 -0.27293825149536133 -0.3269195556640625 -0.3517739176750183 0.26160770654678345 -0.07614071667194366 -0.001661681104451418 -0.28634417057037354 0.5182278156280518 0.13592080771923065 -0.10722906142473221 -0.35857728123664856 0.3098177909851074 -0.2548542320728302 -0.021544700488448143 0.2728482484817505 0.08221256732940674 0.04688485711812973 -0.08306854218244553 0.14715245366096497 0.12343068420886993
companies -0.13451632857322693 -0.08054055273532867 0.07526099681854248 -0.07356927543878555 -0.11854083091020584 0.02292238548398018 0.03407536819577217 0.030645623803138733 -0.06476195901632309 0.21445824205875397 -0.11307007819414139 -0.045828111469745636 0.033301569521427155 -0.03288060426712036 -0.08550724387168884 0.134576678276062 -0.08035352826118469 0.017747536301612854 0.19936895370483398 0.013056491501629353 0.01996431313455105 -0.11895405501127243 0.032815344631671906 0.059255070984363556 0.05687111243605614 0.08903529495000839 0.1913779377937317 0.11693047732114792 -0.15704061090946198 -0.025381967425346375 -0.02279108203947544 -0.13441042602062225 -0.05529499426484108 -0.17492283880710602 -0.047480735927820206 -0.12341685593128204 0.18579630553722382 -0.06521771848201752 0.2248472273349762 0.05240369215607643 -0.04748605564236641 -0.2670711874961853 0.12023428082466125 -0.06779641658067703 -0.1737186461687088 -0.06926999986171722 -0.029439477249979973 0.046291399747133255 -0.020155010744929314 0.1983223706483841 0.01962124928832054 -0.165557861328125 -0.12511074542999268 -0.025953687727451324 -0.15306195616722107 0.0561174601316452 -0.17757567763328552 0.03183002024888992 0.029083870351314545 -0.04414966329932213 0.042951080948114395 -0.0770302265882492 0.09039434790611267 0.21806111931800842 0.04573708772659302 -0.08057965338230133 -0.04576055333018303 0.14460071921348572 -0.03645595163106918 0.16034425795078278 -0.20303770899772644 -0.035485874861478806 -0.056535474956035614 -0.09474073350429535 0.08823830634355545 0.08760510385036469 -0.07100294530391693 -0.12698796391487122 0.06464415788650513 -0.08574027568101883 0.021180612966418266 -0.2916886806488037 -0.08480847626924515 -0.01578626222908497 0.04262123256921768 -0.06479474902153015 0.12766730785369873 0.2247949093580246 -0.027649179100990295 -0.12055160850286484 -0.1831008493900299 0.10940048098564148 -0.11556091904640198 0.0865476131439209 0.0012581882765516639 0.0730295404791832 0.09706937521696091 -0.05300545319914818 0.021436765789985657 0.23292453587055206
music -0.020365769043564796 0.26537489891052246 0.09969010204076767 -0.05711774155497551 -0.03985217213630676 0.002786921337246895 0.019590813666582108 -0.12175125628709793 0.035566557198762894 -0.006784534081816673 -0.16764256358146667 0.06442893296480179 -0.13491638004779816 0.07665462046861649 0.03802052512764931 0.14972881972789764 -0.19633589684963226 0.14719977974891663 0.025243522599339485 -0.05373726785182953 -0.05688941478729248 -0.06616725772619247 0.038940560072660446 0.057125274091959 0.2352895438671112 0.11899866908788681 -0.038877908140420914 0.07167764753103256 -0.09519250690937042 0.16229835152626038 0.28476759791374207 0.06607075780630112 0.14970450103282928 -0.028807150200009346 0.022848477587103844 0.09996821731328964 -0.05467928573489189 0.02205301821231842 -0.025315646082162857 0.23592884838581085 0.1714630424976349 0.04016898572444916 0.22693876922130585 0.15932418406009674 0.1148352101445198 0.20325200259685516 0.045659881085157394 0.06180327758193016 0.25943100452423096 -0.10961579531431198 -0.1726776659488678 0.027227111160755157 0.057473402470350266 0.008579947985708714 -0.045794710516929626 0.017279863357543945 -0.024826861917972565 -0.06258471310138702 0.1881847083568573 0.14360138773918152 0.060987234115600586 -2.110687200911343E-4 0.012201673351228237 0.011570821516215801 -0.2669834494590759 -0.04457976296544075 -0.00585020799189806 -0.07921605557203293 0.08636916428804398 0.121766597032547 -0.08758548647165298 0.141949862241745 -0.07330679148435593 0.2888982892036438 -0.16454142332077026 0.02684739977121353 -0.0984594076871872 0.07001102715730667 0.11075764894485474 0.009052513167262077 0.01229404378682375 0.003124926006421447 0.0551464818418026 -0.0851045548915863 -0.10332778096199036 0.11863589286804199 0.18478283286094666 0.0077168019488453865 0.14463481307029724 -0.09898152947425842 -0.4147109091281891 0.10834768414497375 0.23463864624500275 0.18740814924240112 -0.19044603407382965 -0.086684949696064 -0.02807324379682541 -0.10982886701822281 -0.3472011089324951 -0.04809665307402611
would 0.048332568258047104 -0.10685864835977554 -0.2108045518398285 -0.23889605700969696 0.30870893597602844 0.023303238674998283 0.03303523361682892 0.17262354493141174 0.0793236792087555 -0.0412648469209671 -0.23274657130241394 0.23854433000087738 0.293714702129364 -0.11582405865192413 0.01677512750029564 0.058033354580402374 0.24736376106739044 0.41342541575431824 0.09128427505493164 0.007827723398804665 0.04876743629574776 -0.02185705304145813 -0.05443989485502243 0.11566393077373505 -0.14219768345355988 -0.4221722483634949 0.04419447481632233 0.0345020554959774 -0.09340180456638336 0.23622839152812958 -0.040471501648426056 0.2681787312030792 -0.007321980316191912 0.06089051812887192 0.055579349398612976 -0.03327952325344086 -0.07213694602251053 -0.002284230664372444 2.6989105390384793E-4 0.0595545694231987 -0.26948362588882446 0.014921475201845169 0.30899012088775635 -0.22008271515369415 -0.0101711954921484 0.09395256638526917 0.05045400559902191 0.10908367484807968 0.16843144595623016 0.09283427894115448 -0.09255377948284149 -0.46161967515945435 -0.24678641557693481 0.0344763919711113 -0.02652157098054886 0.18703371286392212 0.3834736943244934 -0.17229416966438293 0.03149114549160004 -0.026121053844690323 0.007400830276310444 -0.08927235752344131 0.021668992936611176 -0.12046491354703903 -0.11486879736185074 0.018418895080685616 0.049655452370643616 0.3320416808128357 -0.003402572125196457 0.08898459374904633 -0.004846720490604639 -0.0477834977209568 0.10869365930557251 -0.12106013298034668 -0.0158766470849514 0.5927029252052307 0.11512405425310135 0.2699439823627472 0.07298693060874939 0.20497730374336243 -0.09217416495084763 0.258200466632843 -0.1302722990512848 -0.004450209904462099 0.17067740857601166 0.3147417902946472 -0.027372263371944427 0.10456898808479309 -0.032982237637043 0.12466788291931152 0.19381387531757355 -0.03474558889865875 -0.15246064960956573 0.476828396320343 -0.04492504149675369 -0.02535259537398815 0.0603923425078392 -0.264717698097229 0.23975901305675507 0.02424403466284275
because -0.11104332655668259 0.12835192680358887 -0.11130315810441971 0.12366186827421188 0.13813962042331696 0.01388707384467125 -0.04791188985109329 -0.03906726837158203 -0.03190421685576439 -0.0306046511977911 0.2076932042837143 0.2970384359359741 0.15882813930511475 0.09568475931882858 0.14821629226207733 0.06443832069635391 -0.021900976076722145 0.10993596166372299 0.030452530831098557 0.05489548295736313 0.025351300835609436 0.17199547588825226 -0.1069837212562561 -0.09643969684839249 0.025610540062189102 -0.14782872796058655 -0.08310920745134354 0.03585963323712349 -0.1351248323917389 -0.08974835276603699 -0.08114760369062424 0.15179915726184845 0.04318151995539665 -0.13218586146831512 -0.007754943799227476 0.01993139088153839 0.07477474957704544 -0.1764705777168274 0.09620137512683868 0.07991441339254379 -0.12609277665615082 0.02799353003501892 -0.016563721001148224 -0.021660910919308662 -0.027499187737703323 0.17255498468875885 0.1757647544145584 0.14615817368030548 -0.05430545657873154 -0.029475955292582512 -0.34306952357292175 -0.11387237906455994 -0.14134930074214935 0.048570528626441956 -0.09099262207746506 -0.05318136885762215 -0.013006196357309818 0.1359022706747055 0.056491341441869736 0.16010549664497375 0.02426840364933014 -0.23416315019130707 -0.059517018496990204 -0.16423825919628143 -0.06266852468252182 -0.014824737794697285 -0.014282001182436943 0.03242567926645279 0.014138867147266865 -0.08800095319747925 0.058079421520233154 -0.06025618687272072 -0.011345149017870426 -0.10207897424697876 -0.03702069818973541 -0.24934335052967072 -0.22060734033584595 -0.012097732163965702 -0.03298761323094368 0.041607629507780075 -0.1598934382200241 -0.010552527382969856 -0.07062168419361115 0.12420088797807693 -0.21924811601638794 0.08918534219264984 0.24941347539424896 -0.18004465103149414 0.020435545593500137 0.1577668935060501 0.1526191532611847 0.07013337314128876 -0.026831960305571556 0.1275150328874588 0.026517100632190704 -0.22186845541000366 -0.05441053584218025 -0.23545557260513306 -0.4098500907421112 0.13533563911914825
state -0.4312300980091095 0.19247962534427643 -0.02878422848880291 -0.03371952474117279 -0.17419570684432983 -0.021270208060741425 -0.031716104596853256 0.009816058911383152 0.049836114048957825 0.21361972391605377 -0.3326408267021179 -0.033919114619493484 -0.06434303522109985 -0.20736192166805267 0.23027049005031586 0.1259189397096634 -0.2509694993495941 0.18222028017044067 0.18467967212200165 -0.15889789164066315 0.0418979749083519 -0.14994964003562927 -0.132850781083107 -0.01862146705389023 -0.261450856924057 0.3116302192211151 0.10048645734786987 0.09983132779598236 -0.20604509115219116 0.03995693475008011 0.28444212675094604 -0.21265989542007446 0.008985164575278759 -0.2857591509819031 0.018928198143839836 0.2550036311149597 0.1234678253531456 -0.10913261026144028 0.11703775078058243 -0.1293710470199585 0.005594074260443449 -0.2162645310163498 0.027651047334074974 0.2144981026649475 -0.07699142396450043 0.10087240487337112 -0.1581420600414276 0.03478201478719711 0.08850905299186707 0.16952607035636902 0.01748100109398365 -0.05786785110831261 0.25094708800315857 -0.0980750247836113 -0.19797080755233765 -0.06765440106391907 0.06688658148050308 -0.0035441371146589518 0.19130510091781616 -0.026148026809096336 0.12957623600959778 -0.009377913549542427 -0.03147447854280472 0.09726139158010483 -0.2255028933286667 0.08574170619249344 0.1987331658601761 -0.08120208978652954 -0.06549619138240814 0.3827303349971771 -0.12848074734210968 0.16804425418376923 -0.0908965915441513 0.17667992413043976 -0.06365597248077393 -0.25594890117645264 -0.13373251259326935 0.12385276705026627 0.18430423736572266 -0.01786620542407036 0.10882516950368881 -0.25351548194885254 -0.0043890951201319695 -0.10974184423685074 -0.04920561984181404 -0.07556597888469696 0.10276682674884796 0.07230047136545181 0.047744229435920715 -0.10319654643535614 -0.32477426528930664 -0.21515895426273346 0.2716920077800751 -0.15571357309818268 -0.13421963155269623 0.04353686422109604 0.033552106469869614 0.05662909150123596 -0.0456794910132885 0.0791298896074295
they -0.06518980115652084 -0.07071734219789505 0.0016892148414626718 -0.19763679802417755 -0.0124934958294034 -0.06931324303150177 -0.12977607548236847 0.23775719106197357 0.01718134619295597 0.16744768619537354 0.1029304563999176 0.14180348813533783 0.12958259880542755 0.0590662807226181 -0.12430615723133087 0.058619700372219086 0.07483042031526566 -0.1976882517337799 0.06196758151054382 0.20635952055454254 -0.10099821537733078 0.010424231179058552 -0.18525615334510803 0.20095448195934296 -0.24067114293575287 0.1834702342748642 -0.10920948535203934 -0.23591813445091248 0.32659074664115906 -0.2985694408416748 -0.30339697003364563 0.033073555678129196 -0.3243911862373352 0.10103835165500641 -0.06703410297632217 -0.04763459786772728 0.094986192882061 0.14833971858024597 0.1812051236629486 -0.12735331058502197 -0.07429450005292892 -0.13635830581188202 0.3516976833343506 0.13216622173786163 0.0443832203745842 -0.032963525503873825 -0.2929471731185913 -0.3604855239391327 -0.10598720610141754 -0.10065677016973495 0.03724878653883934 -0.27154627442359924 -0.11152908951044083 -0.010717242024838924 0.12959784269332886 0.08655738085508347 -0.08463440090417862 -0.14223775267601013 -0.059922508895397186 -0.3353300988674164 0.26177170872688293 -0.07679730653762817 0.23244446516036987 0.2934298813343048 0.02094632014632225 0.26788023114204407 -0.17611387372016907 0.1370437741279602 -0.29340696334838867 -0.07201925665140152 -0.1433078795671463 -0.07802443206310272 -0.21292753517627716 -0.1304968148469925 -0.0512375682592392 0.14873561263084412 0.1508285105228424 -0.09579315036535263 0.04909032583236694 -0.012431866489350796 0.1648181676864624 -0.04529981687664986 0.23576050996780396 0.238285630941391 0.09972140938043594 0.05043148994445801 -0.1455046832561493 0.21473908424377441 -0.09595607966184616 -0.030227450653910637 -0.09396565705537796 0.08720894902944565 -0.11674092710018158 0.3810192048549652 -0.1492377370595932 0.00795738399028778 0.1270274668931961 -0.02607027254998684 0.18943893909454346 0.2572818398475647
you -0.05012869834899902 -0.06129928678274155 -0.08348018676042557 -0.18163087964057922 0.11713359504938126 0.30384424328804016 -0.1293262392282486 -0.14364305138587952 0.15883076190948486 0.07338833063840866 0.007918033748865128 0.27349206805229187 -0.06613446027040482 -0.11441940814256668 -0.02911064401268959 0.057837240397930145 -3.9983706665225327E-4 -0.34178608655929565 -0.010216851718723774 0.016132717952132225 -0.12072385102510452 -0.05199037119746208 0.03604462742805481 0.33806753158569336 -0.10930589586496353 0.18573345243930817 -0.16852347552776337 0.07258143275976181 0.4004945456981659 0.19776681065559387 -0.14192157983779907 -0.023709828034043312 -0.021986301988363266 5.364182288758457E-4 -0.041311122477054596 0.20766581594944 -0.11696838587522507 -0.11535024642944336 0.12068583071231842 -0.081009641289711 0.26247772574424744 0.018506046384572983 0.19986343383789062 -0.01929885894060135 -0.12666372954845428 0.21013489365577698 -0.32648468017578125 -0.07110360264778137 -0.04271717742085457 -0.010280693881213665 -0.017690688371658325 -0.1291283369064331 -0.16755643486976624 -0.015439801849424839 0.016978895291686058 0.4195394814014435 -0.03912186250090599 0.0685119554400444 0.0630016103386879 -0.24393726885318756 0.18968629837036133 -0.15945130586624146 0.04959132522344589 0.055749546736478806 -0.24279862642288208 0.2365237921476364 -0.35330072045326233 0.16053982079029083 -0.18045984208583832 -0.32113248109817505 -0.26897695660591125 -0.011131052859127522 0.14937171339988708 -0.3894084692001343 -0.11583133041858673 0.1266876608133316 0.04146870598196983 -0.3610987365245819 -0.13716132938861847 -0.20833969116210938 0.3390248715877533 0.061723943799734116 -0.06391020864248276 0.10409067571163177 0.18056228756904602 -0.14127814769744873 -0.04060261324048042 0.19870293140411377 -0.07390423864126205 -0.19258420169353485 0.07739652693271637 -0.23209503293037415 -0.2815004885196686 0.2577224671840668 0.13136985898017883 0.1542479246854782 -0.26544153690338135 -0.08425244688987732 -0.02872488833963871 0.22952324151992798
$ -0.06778347492218018 -0.006407369859516621 -0.005532986484467983 0.0035224505700170994 -0.04556873440742493 0.020738495513796806 -0.026962194591760635 0.011882922612130642 0.0014675749698653817 0.004796867724508047 -0.0010263897711411119 -0.06296004354953766 0.029673369601368904 -0.0028162659145891666 0.017193689942359924 0.019299956038594246 -0.01473893690854311 0.04415132850408554 -0.015946900472044945 -0.027482934296131134 0.012489642947912216 0.013173256069421768 0.07853679358959198 0.01156188827008009 0.04341677576303482 -0.004718925803899765 0.036169469356536865 0.014644143171608448 -4.957393975928426E-4 0.004361844155937433 0.034094300121068954 0.013513235375285149 -0.020410187542438507 -0.013638334348797798 -0.003541775746271014 0.020626630634069443 0.020979037508368492 -0.029001710936427116 0.04178149253129959 0.02104336768388748 -0.007425224408507347 -0.05135504901409149 0.01664791814982891 -0.013267464004456997 -0.012438013218343258 0.03645452857017517 -0.020587705075740814 0.04302322864532471 0.0011698943562805653 0.013110658153891563 -0.01877903938293457 0.008281026035547256 -0.04165593534708023 0.01673748716711998 -0.011756498366594315 0.013544835150241852 6.885640323162079E-4 -0.028496697545051575 -0.006889068987220526 -0.019644156098365784 -0.015889113768935204 0.007503265980631113 -0.0058556366711854935 -0.025402799248695374 0.037834834307432175 0.007617173250764608 -0.0193488672375679 0.023225754499435425 -0.014286973513662815 0.01671743206679821 0.0016060632187873125 0.0045705921947956085 -0.002170929219573736 -0.001545190461911261 0.009365295059978962 0.018014555796980858 0.007128124590963125 -0.030572744086384773 0.03706710785627365 -0.013842785730957985 0.011163853108882904 -0.011917371302843094 -0.038140762597322464 0.023412508890032768 0.024859711527824402 0.003113897517323494 0.015609157271683216 0.015259627252817154 0.01692451722919941 -0.022989491000771523 0.003027569269761443 -0.00940223690122366 -0.014780949801206589 0.025271542370319366 -0.026634924113750458 0.0026583620347082615 0.027564719319343567 -0.051451101899147034 0.016057653352618217 0.02839328907430172
going -0.5547986626625061 -0.19204947352409363 -0.38237038254737854 -0.373492956161499 -0.05466194450855255 0.16011182963848114 0.315293550491333 -0.03892401233315468 -0.07652514427900314 -0.12275572866201401 0.22938834130764008 -0.2828805446624756 0.35810619592666626 0.22771987318992615 -0.12214432656764984 -0.24089521169662476 0.08818462491035461 0.36319637298583984 -0.2297818660736084 0.32886531949043274 0.041291844099760056 0.4423387348651886 0.05516813322901726 -0.21282465755939484 0.3270980417728424 -0.11592224985361099 -0.5301911234855652 -0.043178316205739975 0.30275237560272217 0.06964685022830963 0.004318705294281244 0.08010867983102798 0.16737301647663116 -0.05116606503725052 -0.16126661002635956 0.41566842794418335 -0.2709640562534332 -0.2569735646247864 0.09014066308736801 -0.2647736072540283 0.07644277811050415 -0.32227376103401184 0.08485540002584457 -0.14047084748744965 0.027724115177989006 0.06749536097049713 -0.06443304568529129 -0.1346801221370697 -0.37117505073547363 -0.16749060153961182 -0.06952029466629028 0.08344902843236923 0.1659383624792099 -0.25351694226264954 0.26121801137924194 0.21740470826625824 0.0909852534532547 -0.05940890312194824 -0.05621552839875221 0.08959190547466278 0.259813517332077 0.36879798769950867 -0.05730099231004715 -0.10179312527179718 0.1389222890138626 0.1188960000872612 -0.45560070872306824 0.14523501694202423 0.22588980197906494 -0.1791095733642578 -0.34945908188819885 -0.007161400280892849 0.11553867161273956 -0.23233550786972046 0.1767224669456482 0.05270060896873474 -0.3638720214366913 0.051889386028051376 -0.4541338086128235 0.1827930361032486 -0.08868225663900375 -0.010736227966845036 -0.07934924960136414 0.21693994104862213 0.29384374618530273 0.24780887365341187 -0.20814907550811768 0.08139927685260773 0.4519382417201996 -0.16391074657440186 0.34497085213661194 0.1487957090139389 0.06595421582460403 0.11194835603237152 -0.00185302528552711 0.17357803881168365 0.17278242111206055 -0.25922778248786926 -0.2958763837814331 0.12605665624141693
old -0.18830254673957825 -0.13740596175193787 0.23360353708267212 0.019664013758301735 -0.14693640172481537 -0.07679493725299835 0.1584763526916504 -0.009815589524805546 -0.0409354567527771 -0.16785316169261932 -0.19961118698120117 -0.10943702608346939 -0.13316965103149414 0.292495459318161 -0.3039354383945465 -0.1493987888097763 -0.1912781000137329 0.3940156400203705 0.15746933221817017 -0.12593279778957367 -0.08932415395975113 -0.213766947388649 -0.07965195924043655 -0.2610500156879425 0.19370287656784058 -0.09274052083492279 0.012653457000851631 -0.11170033365488052 -0.34556999802589417 0.13230253756046295 0.22676631808280945 -0.10595642030239105 0.05737745761871338 -0.1797151267528534 -0.029052160680294037 0.1859382838010788 -0.01710253208875656 0.05211658775806427 -0.10535849630832672 0.09372281283140182 0.1368369609117508 -0.23180928826332092 -0.140516459941864 0.1227535605430603 -0.3335537016391754 -0.26825225353240967 -0.0931975245475769 -0.3985571563243866 0.25880393385887146 0.021433746442198753 -0.1848267912864685 -0.13216587901115417 0.13584958016872406 -0.31109490990638733 0.2656727433204651 -0.19572539627552032 -0.13025720417499542 -0.06994180381298065 -0.2161456197500229 0.007890854962170124 -0.06379834562540054 -0.2690085470676422 -0.20936132967472076 -0.030827287584543228 -0.37602555751800537 -0.00766120757907629 0.15085119009017944 0.030756838619709015 -0.25679054856300354 0.053164463490247726 -0.07142819464206696 0.07249577343463898 0.1336921900510788 0.061810452491045 0.012231683358550072 0.0832570344209671 -0.32917675375938416 0.07441030442714691 -0.09216263145208359 -0.044119372963905334 -0.29829689860343933 -0.4270991086959839 -0.23883222043514252 -0.13255858421325684 -0.02816261723637581 -0.011375455185770988 -0.048809874802827835 0.16682486236095428 0.15397681295871735 -0.3045518100261688 -0.16680987179279327 -0.009344580583274364 -0.1811283379793167 -0.11598630249500275 -0.06372694671154022 0.10792338848114014 0.04411601647734642 -0.21882987022399902 -0.05211899057030678 0.07974276691675186
want -0.3572230041027069 -0.1317780762910843 -0.08545997738838196 -0.09870903939008713 0.41340920329093933 0.11622543632984161 -0.06446950882673264 -0.11003999412059784 0.30886319279670715 -0.09550535678863525 0.09497126191854477 -0.34192365407943726 0.5103784203529358 -0.2061273157596588 -0.11936380714178085 0.1524619609117508 0.14933834969997406 -0.0343405082821846 0.1254972368478775 0.0692729577422142 0.18170900642871857 -0.011689669452607632 0.18178199231624603 -0.11341231316328049 0.22248974442481995 -0.29753202199935913 0.059703677892684937 -0.012147512286901474 0.34666261076927185 0.16121049225330353 0.06841367483139038 0.33076173067092896 -0.04951781406998634 0.08109833300113678 -0.07698235660791397 0.23001950979232788 -0.1171841099858284 -0.4600762128829956 -0.10944972187280655 -0.06439705938100815 -0.07952919602394104 0.15765361487865448 0.2631760239601135 0.1308126598596573 0.16020047664642334 0.0053558265790343285 0.13144253194332123 0.03663784638047218 -0.23740814626216888 0.2069803923368454 -0.08853904902935028 -0.05299502983689308 -0.34833964705467224 0.30476751923561096 -0.09995535016059875 0.33332523703575134 -0.12384611368179321 -0.20019567012786865 -0.14804594218730927 0.16293808817863464 0.12826940417289734 0.19077245891094208 0.028379365801811218 -0.07531529664993286 -0.1497870832681656 -0.0483856163918972 -0.02088930644094944 0.13230998814105988 0.3731307089328766 0.06071363389492035 0.14589685201644897 -0.2995832860469818 -0.13239392638206482 -0.27042123675346375 0.07603654265403748 0.34788820147514343 0.23329246044158936 0.13764503598213196 0.3794771134853363 -0.09168944507837296 -0.005916339810937643 0.38274338841438293 -0.19551409780979156 0.17552661895751953 0.2956099808216095 -0.1492656171321869 -0.09611673653125763 0.06308498978614807 0.10095778107643127 0.14322592318058014 0.12848423421382904 -0.18834225833415985 0.21346637606620789 0.2832857668399811 0.10321208089590073 0.25357043743133545 0.3322383761405945 -0.22944962978363037 -0.15691059827804565 -0.013421152718365192
night 0.17029990255832672 0.35220786929130554 0.07685396820306778 0.015478472225368023 -0.059670593589544296 -0.08074203878641129 -0.35385432839393616 -0.22315338253974915 0.1119220107793808 -0.013628439977765083 0.195279061794281 -0.19408416748046875 0.2525283992290497 0.13104432821273804 -0.16092093288898468 -0.24853970110416412 0.011852136813104153 0.046309079974889755 -0.17135460674762726 0.11930627375841141 -0.07346728444099426 -0.07246489822864532 0.6579367518424988 -0.09867702424526215 0.1406746506690979 -0.053650110960006714 0.05852751433849335 -0.1688336282968521 -0.013939515687525272 0.027690164744853973 0.2021072804927826 0.0010104500688612461 0.6821144223213196 -0.10613968968391418 0.0042068008333444595 0.11399031430482864 -0.032391466200351715 -0.04505088925361633 0.29684895277023315 0.03088347241282463 -0.04077862203121185 -0.040321219712495804 0.11720450967550278 0.21999196708202362 0.031055938452482224 -0.07577485591173172 -0.08370240032672882 -0.08174347132444382 0.11146151274442673 -0.16797809302806854 0.14380666613578796 -0.025958498939871788 0.3274298310279846 -0.17383462190628052 0.01183707732707262 -0.18481315672397614 0.24440181255340576 -0.11161059141159058 0.17771238088607788 -0.44427168369293213 -0.21723301708698273 0.05285177752375603 -0.29379934072494507 0.3391638994216919 0.03545167297124863 0.08065152913331985 0.10878033936023712 0.011558499187231064 0.05023949593305588 0.058737851679325104 0.5094409584999084 0.13368670642375946 -0.03158354014158249 0.2799186706542969 0.21148736774921417 -0.048855412751436234 0.18931227922439575 0.31438547372817993 0.08533486723899841 0.19325029850006104 -0.07551344484090805 -0.26486092805862427 -0.22545580565929413 -0.18323741853237152 -0.04800688475370407 0.11858326196670532 -0.053213007748126984 -0.21495211124420166 -0.17690204083919525 -0.25569435954093933 -0.09405286610126495 -0.32928702235221863 0.08978793025016785 0.10656098276376724 -0.1856883019208908 0.08768970519304276 -0.24204038083553314 0.15838225185871124 -0.16451875865459442 0.08969894051551819
them -0.030413083732128143 0.22483865916728973 0.020745666697621346 -0.005018729716539383 -0.11404034495353699 0.26042816042900085 -0.22717519104480743 0.27443352341651917 -0.03903810679912567 -0.15204234421253204 0.1471002995967865 0.20295380055904388 -0.043539006263017654 0.4375830590724945 -0.15699832141399384 0.19735939800739288 -0.11483225226402283 -0.020778678357601166 0.1132778748869896 -0.15510830283164978 -0.198770210146904 0.03960268944501877 0.15906071662902832 -0.002576603787019849 0.1572687327861786 -0.07614363729953766 0.3569764494895935 0.17783260345458984 0.1530013084411621 -0.21205627918243408 0.19150742888450623 0.022838125005364418 -0.03141482174396515 -0.27251169085502625 0.13731350004673004 0.08411877602338791 -0.06202881410717964 -0.1164817065000534 0.21552622318267822 0.08575574308633804 -0.1452483981847763 -0.3952520489692688 0.12387455999851227 0.21851390600204468 0.03616384044289589 0.14007410407066345 0.07202789187431335 0.1267864853143692 -0.055496539920568466 -0.09075961261987686 -0.23559394478797913 -0.06478353589773178 -0.3224906027317047 0.1727730929851532 0.1470128446817398 0.13579203188419342 0.20840375125408173 0.15232758224010468 -0.19522392749786377 -0.2308652400970459 0.16296890377998352 -0.17614057660102844 -0.13987810909748077 0.2932318150997162 0.1992422193288803 0.09317603707313538 -0.11977526545524597 0.2291918247938156 0.06583831459283829 0.08772093802690506 0.0814729705452919 -0.14664329588413239 0.08624877035617828 0.03953061252832413 -0.028731483966112137 0.11826152354478836 0.3582074046134949 -0.09647434949874878 0.10443967580795288 -0.08055513352155685 -0.021492691710591316 -0.05103326961398125 -0.11911533772945404 0.20759715139865875 0.23665089905261993 -0.11868850141763687 0.07945434749126434 0.3039792776107788 0.048707056790590286 -0.13299112021923065 0.1270194947719574 -0.03489093855023384 -0.08570178598165512 0.12273810803890228 -0.1954401433467865 -0.04704669490456581 -0.016837919130921364 -0.35127711296081543 -0.2693932354450226 0.15007391571998596
then -0.2932364046573639 0.011902202852070332 -0.025028333067893982 -0.28528568148612976 0.18385176360607147 -0.13968317210674286 -0.03063569962978363 -0.06914617121219635 -0.1464616358280182 -0.04336061701178551 0.15314307808876038 -0.1428660899400711 0.19816455245018005 0.20180733501911163 0.12143777310848236 -0.1513858586549759 0.06508079171180725 0.18095815181732178 0.025393756106495857 -0.13804543018341064 0.12021100521087646 0.08497790992259979 0.11681082099676132 -0.08953379839658737 -0.2337397038936615 -0.1567847579717636 0.007510098163038492 -0.13296902179718018 -0.10695511847734451 0.05407685041427612 -0.1420326828956604 -0.18820738792419434 -0.0822039544582367 0.0729348212480545 0.19679179787635803 -0.1826113909482956 -0.08146991580724716 -0.11395099014043808 0.2708340287208557 0.03762640431523323 -0.06108146160840988 -0.2511994540691376 0.032979752868413925 0.29559263586997986 0.0716833844780922 0.10111033171415329 0.47493240237236023 0.08755045384168625 -0.0610492117702961 -0.22247013449668884 0.279557466506958 0.13628138601779938 0.056599169969558716 -0.0670008510351181 0.08293852210044861 0.04631347581744194 -0.024162983521819115 0.21743130683898926 0.2594430148601532 -0.1629820466041565 -0.0027739794459193945 0.05461590737104416 0.06586728990077972 0.08464853465557098 -0.3107985556125641 0.05088500306010246 0.013430781662464142 -0.16976602375507355 0.02848883904516697 0.041817471385002136 0.16804443299770355 0.0707520842552185 0.19122011959552765 -0.03116646781563759 -0.0631018802523613 -0.07937301695346832 0.18695810437202454 0.05291992425918579 -0.06774994730949402 0.24412766098976135 0.006000866647809744 -0.014238913543522358 -0.0015575878787785769 0.0036256297025829554 -0.05729115381836891 -0.0559966005384922 -0.11132582277059555 -0.17906075716018677 -0.19901356101036072 -0.3711167275905609 0.05547372251749039 0.10681819915771484 -0.0887816846370697 0.08154319226741791 -0.0879860445857048 0.2433047890663147 0.20315250754356384 0.03992589935660362 0.040100615471601486 -0.23074202239513397
court -0.3348791003227234 0.2530072033405304 0.056291576474905014 -0.1269083321094513 -0.094411700963974 -0.006209093611687422 -0.11563406884670258 -0.2601475119590759 0.16035687923431396 0.1408618837594986 0.058353424072265625 -0.024063024669885635 0.24243640899658203 -0.1078137755393982 0.08654812723398209 -0.13705846667289734 -0.19474655389785767 0.3038346469402313 -0.069202721118927 0.1274011880159378 0.0832953006029129 0.08220956474542618 -0.01845049299299717 0.01838117092847824 -0.01089222077280283 0.23434950411319733 -0.14532998204231262 -0.03422655165195465 0.09021468460559845 0.16934798657894135 0.11011243611574173 -0.03334806486964226 0.11217916756868362 -0.12441184371709824 0.09703747183084488 0.3506739139556885 0.02409776858985424 -0.22551971673965454 0.14911775290966034 0.11463046818971634 0.09605981409549713 -0.008110596798360348 -0.00813903845846653 0.11583933979272842 0.07963988929986954 0.09161712974309921 0.0335722453892231 -0.0910683125257492 -0.011922916397452354 -0.25853079557418823 0.011862200684845448 0.07556676119565964 0.15529043972492218 -0.11095597594976425 -0.11079676449298859 -0.0922577753663063 0.007722166832536459 -0.06945817917585373 0.0846405029296875 -0.04668023809790611 -0.062126606702804565 0.10641131550073624 -0.251508504152298 -0.09401835501194 -0.09491810947656631 0.05677555501461029 0.11430925875902176 -0.04199467971920967 -0.014829805120825768 0.12408934533596039 -0.08928859978914261 0.10658902674913406 -0.1262906789779663 0.052911121398210526 6.604353548027575E-4 -0.1627424955368042 -0.07515816390514374 0.012631215155124664 0.21340428292751312 0.10897506028413773 0.1283635050058365 -0.035870280116796494 0.04934045299887657 -0.0034820963628590107 -0.07267098873853683 0.023204445838928223 0.08616741746664047 -0.0013731474755331874 0.221936896443367 -0.1606614589691162 0.09696697443723679 -0.07027459144592285 0.07163722068071365 0.08226887881755829 -0.16202107071876526 0.01814519427716732 0.04944028705358505 0.08437703549861908 -0.15372946858406067 0.13811571896076202
an -0.34170183539390564 -0.08361999690532684 0.08680064231157303 -0.10882845520973206 -0.24055539071559906 -0.014204352162778378 -0.059402819722890854 -0.07235846668481827 -0.006291634403169155 0.04824022203683853 -0.04605437442660332 -0.039698392152786255 0.2690439522266388 0.13693538308143616 0.02431948110461235 -0.015209442935883999 0.023961886763572693 0.1994742453098297 0.04646000638604164 0.1396472305059433 -0.10724702477455139 0.06683579832315445 0.3109991252422333 0.04092618450522423 0.13336466252803802 0.014410764910280704 0.07572328299283981 0.12669014930725098 0.004550487268716097 0.2643789052963257 0.08770284056663513 -0.16298463940620422 0.401994913816452 -0.18467457592487335 -0.03183915466070175 0.10161273926496506 -0.024568265303969383 -0.14961481094360352 0.0317092128098011 -0.0864100456237793 0.09924351423978806 -0.11020819842815399 0.037638306617736816 0.01351271104067564 -0.33498266339302063 -0.15336601436138153 -0.1971292793750763 -0.04645595699548721 -0.06006196513772011 0.034177351742982864 -0.28487420082092285 0.1009356752038002 -0.05130790174007416 0.06043461337685585 -0.004544528666883707 -0.05073634535074234 0.10101842135190964 -0.15082761645317078 0.11090823262929916 6.639731000177562E-4 0.05006767436861992 0.07470744103193283 -0.00612824410200119 0.1862865537405014 0.014902541413903236 0.14171311259269714 -0.11313769966363907 -0.18724510073661804 -0.08273041993379593 0.1785789132118225 0.14616340398788452 0.17190852761268616 0.10959500819444656 0.21113300323486328 -0.17115315794944763 0.04570934176445007 -0.04913303256034851 0.22110657393932343 0.07804985344409943 -0.23285172879695892 0.022180313244462013 -0.06544266641139984 0.06338740885257721 -0.17579913139343262 0.07732383161783218 -0.25943827629089355 -0.15180867910385132 -0.033396847546100616 0.19258245825767517 -0.21930189430713654 0.17810854315757751 -0.08366484940052032 -0.04863521084189415 -0.08125854283571243 0.09043753892183304 0.028282858431339264 0.206550732254982 0.09099496155977249 0.14959464967250824 0.08675779402256012
- -0.10110700875520706 0.05118819326162338 -0.0792916938662529 0.004389058332890272 5.897873779758811E-4 -0.035083308815956116 -0.023938274011015892 -0.020823819562792778 -0.09406217187643051 0.02596820890903473 -0.036110684275627136 0.013083265163004398 -0.040719058364629745 0.1440165638923645 0.11756420880556107 -0.04325801134109497 -0.06473696231842041 -0.019090045243501663 -0.0789823830127716 -0.10074838995933533 0.04051915928721428 0.010480664670467377 0.09008359163999557 -0.11443528532981873 0.07566244900226593 -0.010556473396718502 0.08952543139457703 -0.07084575295448303 -0.09055313467979431 0.01907222904264927 0.011348217725753784 0.05166536569595337 0.03130393102765083 -0.058166079223155975 0.0224453192204237 -0.03087627701461315 -0.11408466845750809 -0.008849116042256355 0.09931480139493942 -0.07119354605674744 0.046738140285015106 -0.056450191885232925 0.0268669743090868 0.05318005755543709 0.027220463380217552 -0.03139442205429077 -0.049857985228300095 0.009037741459906101 0.030162673443555832 0.028044937178492546 0.02434590458869934 0.07298888266086578 0.06465627253055573 -0.06579417735338211 0.01464998722076416 0.0379168875515461 -0.06929859519004822 0.006829035468399525 0.013741574250161648 -0.1219201385974884 0.013359918259084225 -0.019265105947852135 -0.06639308482408524 0.1338333785533905 -0.0333658829331398 -0.04160715639591217 -0.07973485440015793 -0.07198560982942581 -0.032846491783857346 0.10553937405347824 0.08405353873968124 -0.10629911720752716 0.14448490738868713 0.057501886039972305 -0.16114577651023865 -0.09791073203086853 -0.013404054567217827 0.12319696694612503 -0.07800670713186264 0.07354730367660522 -0.13255728781223297 -0.07521837204694748 0.034506846219301224 -0.1398467868566513 -0.050702981650829315 -0.06995096057653427 0.1033019945025444 0.005495995283126831 -0.03994870185852051 -0.12290795892477036 -0.062345147132873535 -0.07075100392103195 -0.004101411905139685 -0.12614746391773224 -0.04981953650712967 0.05960968881845474 0.009959109127521515 0.14940989017486572 -0.0607450008392334 -0.03918395936489105
each -0.40251216292381287 0.10153104364871979 0.18864300847053528 -0.1864924281835556 -0.5900300741195679 -0.02158312313258648 -0.2606006860733032 -0.031389422714710236 0.001124233822338283 0.03845233842730522 0.09086240082979202 -0.042650554329156876 0.16177591681480408 0.07661041617393494 -0.08580125123262405 0.04018552973866463 -0.21778994798660278 0.07105176895856857 -0.08157644420862198 -0.1318061798810959 0.06628038734197617 0.19970528781414032 0.5123894214630127 -0.09205381572246552 0.13626179099082947 -0.19831691682338715 0.2755710780620575 0.5069382786750793 -0.13773062825202942 -0.24747659265995026 -0.007912839762866497 -0.20477277040481567 0.23887495696544647 -0.17112231254577637 -0.1374073028564453 0.007582217454910278 0.15349584817886353 -6.100786267779768E-4 0.45964500308036804 0.009185298345983028 -0.23864760994911194 -0.16895072162151337 0.15660786628723145 -0.08441261202096939 0.031145665794610977 -0.2383716106414795 -0.07898566871881485 0.28279390931129456 0.04663078859448433 -0.0033081865403801203 -0.12804336845874786 -0.280297189950943 -0.41936206817626953 0.021829305216670036 -0.27428582310676575 -0.03348306566476822 -0.09496276080608368 0.13172182440757751 -0.09646466374397278 -0.2616642415523529 -0.20144881308078766 -0.2536573112010956 0.0277094766497612 0.4236990809440613 0.2705330550670624 -0.26118355989456177 -0.0698012113571167 0.44960662722587585 0.22748929262161255 0.2936524748802185 0.1170119196176529 -0.15966345369815826 0.04681491479277611 0.2481864094734192 -0.030318323522806168 0.04080948606133461 0.2121502161026001 -0.10289140045642853 0.32929527759552 -0.25693565607070923 -0.17383474111557007 0.14475184679031372 -0.3056901693344116 0.36639973521232605 0.4521436095237732 -0.08347132802009583 -0.06418876349925995 0.6090683341026306 0.25043100118637085 -0.02921239659190178 0.10855957865715027 -0.20614966750144958 0.07724515348672867 0.23300732672214508 -0.03235403448343277 0.23393204808235168 0.14972542226314545 0.1060703843832016 -0.03134870156645775 0.12111450731754303
former -0.0173878762871027 0.061122290790081024 0.05577255040407181 -0.024303356185555458 -0.06342747062444687 -0.028472254052758217 0.011557171121239662 -0.002424028003588319 0.023102348670363426 0.041388388723134995 -0.02211604081094265 -0.014539340510964394 -0.018011733889579773 0.018818475306034088 0.041672300547361374 0.019779011607170105 -0.05498964712023735 0.0584297813475132 0.02220427617430687 -0.041966527700424194 -3.322453412692994E-4 -0.03279581293463707 0.012143931351602077 -0.04879716783761978 0.025463977828621864 0.07415042072534561 0.02884463220834732 -0.01636759378015995 -0.0377730168402195 0.00990154780447483 0.029707934707403183 -0.03112732246518135 0.05661094933748245 -0.07501737028360367 -0.02301613613963127 0.1017971783876419 -0.005723660346120596 -0.0022722568828612566 0.03868614882230759 -0.0019188348669558764 0.0011749055702239275 -0.027288494631648064 8.105424349196255E-4 0.003979794681072235 -0.013509008102118969 -0.018703613430261612 -0.010550186038017273 0.005848183296620846 0.026942668482661247 0.016450291499495506 0.008981107734143734 -0.0296758022159338 -0.002408563392236829 -0.0597250796854496 -0.025424562394618988 -0.061004023998975754 0.01701282523572445 -0.017055582255125046 -0.0024461739230901003 -0.034083325415849686 -0.014499732293188572 0.030541621148586273 -0.039737433195114136 0.016372838988900185 -0.01699845679104328 -0.019729673862457275 0.05620928481221199 -0.012235095724463463 0.002476357389241457 0.11222179979085922 -0.045859307050704956 0.0304994098842144 0.036917794495821 0.025415616109967232 0.0033723879605531693 0.0027704345993697643 -0.037240199744701385 0.026870476081967354 0.029725180938839912 0.017881184816360474 0.0044997562654316425 -0.08325545489788055 0.017415815964341164 -0.034303367137908936 -0.02036556601524353 -0.0030121111776679754 0.051567256450653076 0.0284326933324337 0.014070877805352211 -0.05075601488351822 -0.08198504149913788 -0.011065268889069557 0.04892382398247719 -0.020138591527938843 -0.007578719407320023 0.006245839409530163 -0.014883417636156082 0.03586040064692497 -0.03845185041427612 0.001812104252167046
as -0.14553605020046234 -0.06868927925825119 -0.3401969373226166 0.2160932719707489 0.13875572383403778 -0.24959345161914825 0.46609702706336975 0.2521927058696747 0.020994795486330986 7.983124814927578E-4 0.17536717653274536 0.16409268975257874 0.016024844720959663 0.008776537142693996 0.08122123777866364 0.288286954164505 -0.26665523648262024 -0.18227191269397736 -0.07018700242042542 0.09694405645132065 0.07172568887472153 0.06327898800373077 0.4008544087409973 -0.23687444627285004 0.020367665216326714 0.06138245388865471 0.011348442174494267 -0.0782969519495964 -0.050421591848134995 -0.0024533122777938843 0.08566219359636307 -0.016092203557491302 0.12475111335515976 0.034894973039627075 -0.22105824947357178 0.34679123759269714 0.040437765419483185 0.22839617729187012 0.4450761377811432 0.04260796681046486 -0.30374911427497864 0.0014168726047500968 0.03133516013622284 -0.19640256464481354 -0.521984875202179 -0.1166810393333435 -0.35977986454963684 -0.05083898827433586 -0.171221524477005 0.04328327253460884 0.1057763397693634 0.3691452443599701 -0.25561997294425964 0.04042031615972519 0.055936429649591446 -0.4627278745174408 -0.12259767204523087 0.03543081879615784 0.003295125439763069 -0.06266531348228455 -0.14109981060028076 -0.25793150067329407 0.09701626747846603 0.28744858503341675 0.08568340539932251 0.03810461238026619 -0.21861234307289124 0.09157858043909073 -0.6067442297935486 0.08509688079357147 -0.016905339434742928 -0.19940896332263947 0.02253372222185135 -0.170762300491333 0.19635824859142303 -0.06540217250585556 -0.13740259408950806 0.21580864489078522 -0.005552828777581453 -0.2076602429151535 0.1678089201450348 0.3158929646015167 -0.056008923798799515 -0.19515261054039001 -0.307750403881073 -0.09439081698656082 0.3303939998149872 0.08951412886381149 -0.24106232821941376 0.30266353487968445 -0.004672439303249121 -0.5351348519325256 0.16440914571285248 -0.18831656873226166 0.16876284778118134 -0.2605575621128082 -0.21515832841396332 -0.40606871247291565 -0.32268938422203064 -0.12982721626758575
at 0.16506537795066833 0.4977443814277649 -0.06298922002315521 -0.2740512788295746 -0.1408415585756302 -0.14401450753211975 -0.06923764944076538 0.22751304507255554 -0.2504110336303711 0.02490808069705963 0.16557830572128296 -0.01919839344918728 0.24814888834953308 0.07426805049180984 0.032222140580415726 0.034665513783693314 0.009683032520115376 -0.2000012844800949 0.02623460628092289 0.027705252170562744 -0.36768099665641785 0.29792651534080505 -0.14034834504127502 -0.30971384048461914 -0.17792747914791107 0.08078031986951828 -0.06150919944047928 -0.021899886429309845 0.006781965959817171 -0.18256454169750214 0.11005821824073792 0.11896417289972305 -0.005854452028870583 -0.15280304849147797 -0.24705109000205994 0.5589135885238647 0.4436434507369995 0.11777503043413162 0.1716306209564209 -0.41263315081596375 0.17529496550559998 0.0566459484398365 -0.33209720253944397 0.29279786348342896 -0.25837257504463196 0.049467023462057114 0.3787273168563843 0.05940192937850952 -0.005148477852344513 -0.14370132982730865 -0.0067798057571053505 -0.08795876055955887 -0.31232592463493347 -0.1723182648420334 0.0545695424079895 -0.3643929660320282 0.1994939148426056 -0.04455254599452019 -0.1491020768880844 -0.29481619596481323 -0.2746677100658417 -0.04560594633221626 -0.004084886983036995 -0.10175977647304535 -0.0036996144335716963 0.03282858803868294 0.30265915393829346 -0.07028297334909439 0.30260857939720154 0.2361229509115219 0.30155155062675476 -0.05603514611721039 0.2594909071922302 0.22869186103343964 0.2181638777256012 0.08260130882263184 0.0902290791273117 0.07246306538581848 -0.1766889989376068 -0.2945449948310852 -0.42989155650138855 -0.21113458275794983 0.06626376509666443 0.059280797839164734 -0.17723163962364197 0.13873563706874847 -0.3585861623287201 0.10809820145368576 0.05001809075474739 0.020954294130206108 0.04453606531023979 -0.18101562559604645 -0.020128371194005013 0.043831754475831985 -0.4010803699493408 0.18564178049564362 0.3147895634174347 0.2260916829109192 -0.36929476261138916 0.09161537885665894
left -0.061649009585380554 0.08314248919487 -0.20046646893024445 -0.048396412283182144 0.13054348528385162 -0.09781892597675323 0.0786021277308464 -0.11461680382490158 0.09159994125366211 -0.16676756739616394 -0.016487279906868935 -0.1266605705022812 0.18504729866981506 0.11713247001171112 -0.13682714104652405 0.09522144496440887 -0.08801504224538803 0.1819748729467392 -0.07004494220018387 -0.2252921611070633 -0.036206744611263275 -0.09650442004203796 -0.04695653170347214 0.044203612953424454 -0.016858451068401337 0.008181842043995857 0.09375913441181183 -0.08761166036128998 -0.46577057242393494 0.23581679165363312 0.2537075877189636 -0.07333541661500931 -0.15940053761005402 -0.17733043432235718 0.05778247117996216 0.09684470295906067 0.03018186427652836 -0.08823234587907791 0.14452779293060303 -0.06210905686020851 -0.08525227010250092 -0.16492050886154175 -0.05696236342191696 -0.1177569329738617 -0.004800731316208839 -0.121971495449543 0.19391928613185883 0.1719890683889389 0.04620504751801491 -0.03950009495019913 -0.10974258184432983 -0.03378937393426895 -0.11165475100278854 -0.3125983774662018 -0.18746142089366913 0.07790668308734894 0.05543583258986473 -0.14708350598812103 -0.09708274155855179 -0.19723950326442719 -0.05546975135803223 -0.11901693046092987 -0.2464623600244522 -0.13314378261566162 0.10657411068677902 -0.05720138922333717 0.10099683701992035 0.11731654405593872 -0.3091781437397003 0.04553458094596863 0.03568987548351288 -0.05324940383434296 0.17572984099388123 0.1490946263074875 -0.2811339795589447 0.010224102064967155 -0.19484075903892517 -0.1298452764749527 -0.27382025122642517 0.16918312013149261 0.06232920289039612 -0.15608978271484375 -0.03680160269141197 -0.25702598690986633 -0.29401206970214844 -0.0060072592459619045 0.22508107125759125 -0.23076115548610687 0.024208471179008484 -0.29226216673851013 -0.03773244470357895 0.3923862874507904 -0.3465115427970886 -0.18431349098682404 -0.08731111884117126 0.1936977654695511 0.07913598418235779 0.02339228428900242 -0.009352263994514942 0.1942015439271927
much -0.06309070438146591 0.26132839918136597 0.2961583435535431 0.258154034614563 -0.10727158188819885 -0.12874938547611237 -0.16038134694099426 -0.10201524943113327 0.15970438718795776 -0.009543171152472496 -0.01894691027700901 0.16459868848323822 0.05568050965666771 0.00707433233037591 -0.4251813590526581 -0.13850939273834229 0.04828808456659317 0.3270163834095001 -0.12861676514148712 -0.13017502427101135 -0.16035594046115875 -0.0468432754278183 -0.24309620261192322 0.325412392616272 0.3815237879753113 -0.33644306659698486 -0.03643902763724327 0.2346721887588501 -0.07381673157215118 -0.24125464260578156 0.07796543091535568 0.05157158151268959 0.10151594877243042 0.18027934432029724 0.03305704891681671 -0.4103105664253235 0.34412720799446106 -0.1569887101650238 -0.23309606313705444 -0.14422525465488434 0.13397909700870514 0.18316517770290375 0.34475183486938477 -0.051604725420475006 0.15076042711734772 0.009783576242625713 -0.043263692408800125 -0.07930712401866913 0.7510703802108765 0.0014981937129050493 -0.4465184211730957 0.13503117859363556 -0.10373292863368988 0.11457639187574387 0.2461753636598587 0.46776729822158813 -0.028314344584941864 0.3520510196685791 -0.29293838143348694 0.38631123304367065 -0.1835319548845291 -0.46802809834480286 0.3071759343147278 0.016227172687649727 -0.04448005184531212 0.07385626435279846 -0.26222503185272217 0.10613150894641876 -0.07251139730215073 -0.3041883707046509 0.2558740973472595 0.11498739570379257 0.010944674722850323 0.022011278197169304 -0.4762481153011322 0.09399756789207458 -0.30217915773391724 0.1764524281024933 -0.32438644766807556 -0.2790343165397644 -0.10666719079017639 -0.287870854139328 0.1207951232790947 -0.011084730736911297 0.2717941105365753 -0.2246265858411789 0.3413778245449066 0.09421292692422867 0.013040322810411453 -0.07139252126216888 -0.10579023510217667 0.28690654039382935 -0.26542189717292786 -0.12091880291700363 -0.2877882122993469 -0.2883082926273346 0.07402855157852173 -0.3823551535606384 -0.11757100373506546 0.262755811214447
be -0.301287442445755 0.03635137900710106 0.054457709193229675 0.1067424938082695 -0.13343149423599243 -0.0065917931497097015 -0.06827547401189804 0.4168631136417389 0.13817954063415527 0.1693580597639084 0.340397447347641 0.14143425226211548 0.1676681786775589 -0.11010606586933136 0.07167893648147583 0.2343684881925583 -0.10286232829093933 0.04450342804193497 0.07927284389734268 0.666634738445282 -0.03312532976269722 -0.11417491734027863 -0.16252662241458893 -0.0130997933447361 -0.40804433822631836 0.19908030331134796 -0.1494423747062683 0.27232933044433594 -0.09743092954158783 0.2486545294523239 0.00702620716765523 -0.09718437492847443 0.18429511785507202 -0.1601054072380066 0.011161906644701958 0.05089719593524933 -0.12450658529996872 0.11498982459306717 -0.052263833582401276 -0.09940846264362335 -0.3073003888130188 0.21446670591831207 -0.413669615983963 -0.2683570086956024 -0.10269499570131302 -0.08237502723932266 -0.3099738359451294 0.29478636384010315 -0.027673963457345963 -0.05333442986011505 -0.21500658988952637 0.06452921032905579 0.08280601352453232 0.3450782597064972 0.21697457134723663 0.18239788711071014 0.3568190336227417 -0.09021390974521637 0.03147326037287712 0.13760530948638916 -0.35373324155807495 -0.18023446202278137 0.10574185103178024 -0.0536995604634285 0.05306963995099068 0.15063925087451935 -0.010383819229900837 -0.00785457156598568 -0.38383376598358154 -0.011743076145648956 -0.19007067382335663 -0.05226004496216774 0.042291369289159775 0.1792045533657074 -0.09669243544340134 -0.02094327099621296 0.06599445641040802 -0.2055719494819641 0.22709879279136658 -0.30697038769721985 0.33916419744491577 -0.3087069094181061 -0.06356398016214371 -0.06746687740087509 -0.06763686239719391 -0.026926496997475624 0.2806042432785034 -0.10399573296308517 -0.27492135763168335 0.06564158201217651 0.20597177743911743 0.11075892299413681 -0.07735653221607208 -0.0635085254907608 0.13736224174499512 -0.16184623539447784 0.09095166623592377 0.48998650908470154 -0.2034030556678772 0.251945823431015
another -0.1631365567445755 0.17041374742984772 -0.10946877300739288 -0.048995740711688995 -0.08793959021568298 -0.2666262090206146 -0.1633988916873932 0.06346503645181656 -0.2321697622537613 -0.1870196908712387 -0.1684737503528595 -0.16413483023643494 0.12406311184167862 0.11713588982820511 0.19102820754051208 -0.1684010773897171 0.0653468444943428 0.04867756739258766 -0.19302867352962494 0.23076683282852173 0.22559012472629547 -0.10921285301446915 0.16056473553180695 -0.1938304752111435 0.20350874960422516 -0.13718518614768982 0.24626338481903076 0.16223011910915375 0.26316508650779724 0.15864664316177368 -0.09367378056049347 -0.08672037720680237 0.09987705945968628 0.3832400441169739 0.024277575314044952 -0.18216994404792786 -0.3525739908218384 -0.09270729869604111 0.13981051743030548 0.08643364906311035 0.25868940353393555 -0.213103786110878 0.03626670688390732 0.1422627568244934 0.23118320107460022 -0.22861982882022858 -0.24701614677906036 0.26753711700439453 0.10518961399793625 -0.0262739434838295 -0.08812616765499115 -0.1576416790485382 -0.2769407629966736 0.1862572580575943 -0.0075691998936235905 -0.03761659190058708 0.26186510920524597 -0.28528279066085815 0.14757445454597473 -0.041301365941762924 0.11209428310394287 -0.016686327755451202 -0.39658403396606445 0.06560594588518143 0.12025868147611618 0.29094985127449036 0.013699785806238651 -0.19458580017089844 0.04722846671938896 0.13765950500965118 0.11601559072732925 0.28123295307159424 0.2742358148097992 0.2200012505054474 -0.3368663489818573 -0.06304962188005447 -0.06323964893817902 0.014962536282837391 -0.061946526169776917 -0.08358302712440491 0.1742764413356781 -0.1425720602273941 -0.15305297076702118 -0.4469985067844391 -0.14492031931877136 -0.2140461951494217 0.0058393096551299095 -0.011915511451661587 -0.060549505054950714 0.028319943696260452 0.21398122608661652 0.035027071833610535 -0.03689243271946907 -0.04857407882809639 0.03496550768613815 -0.0022087073884904385 -0.3773508667945862 0.2930552065372467 0.38035380840301514 0.19319172203540802
two -0.10258535295724869 0.33083269000053406 -0.16784510016441345 -0.12256048619747162 -0.3048132658004761 -0.17758764326572418 0.04829404130578041 0.03787686303257942 0.08535894006490707 0.39615577459335327 -0.1720983237028122 -0.23373065888881683 0.3633023202419281 0.26453760266304016 0.10673119127750397 -0.14028219878673553 -0.2725827395915985 0.1316649615764618 -0.18769541382789612 -0.2936272621154785 0.43309304118156433 -0.34116631746292114 0.323117196559906 -0.23909330368041992 0.16955101490020752 -0.04064830392599106 0.6127400994300842 -0.2545757293701172 -0.3031722605228424 0.12445544451475143 -0.05511920526623726 0.03763898089528084 -0.13247086107730865 -0.21944978833198547 0.025640957057476044 -0.03746483847498894 -0.33337855339050293 -0.1925533413887024 0.7181292772293091 0.08674657344818115 -0.10612597316503525 -0.41055765748023987 -0.18475405871868134 0.10863155871629715 -0.025396499782800674 -0.1613546907901764 0.005604240577667952 0.191593199968338 0.2897339165210724 0.008319290354847908 0.09539453685283661 -0.18027488887310028 -0.17321576178073883 -0.3609519302845001 0.030541907995939255 0.2559797763824463 -0.011521412990987301 -0.29680725932121277 -0.07802629470825195 -0.6316431760787964 -0.10109948366880417 -0.14640168845653534 -0.14728696644306183 0.08190885931253433 0.19789749383926392 -0.1534794718027115 0.10542592406272888 0.23639905452728271 -0.3061244487762451 0.04114985093474388 -0.10246174782514572 -0.45819833874702454 0.25035056471824646 -0.11830119788646698 -0.13499875366687775 0.030068084597587585 0.020281044766306877 -0.12859021127223969 -0.19538243114948273 0.22956393659114838 -0.11949095875024796 -0.43212226033210754 0.0563368946313858 -0.2746485471725464 -0.1943446397781372 -0.10820278525352478 0.22175197303295135 -0.011796869337558746 0.13752470910549164 -0.40147665143013 0.1295260488986969 0.15876317024230957 -0.32932883501052856 -0.10050394386053085 -0.12758556008338928 0.31189605593681335 -0.15414810180664062 0.2633569538593292 0.14037445187568665 0.2525835931301117
long 0.19369439780712128 -0.23535889387130737 0.2105785310268402 0.4244520962238312 -0.3566890358924866 -0.43182486295700073 -0.030117003247141838 0.08095142990350723 -0.19015148282051086 0.15500253438949585 -0.22072112560272217 -0.11600159108638763 0.1251572072505951 0.06950387358665466 -0.46266666054725647 -0.4733274281024933 0.10621386021375656 0.15901118516921997 -0.24351336061954498 0.42784830927848816 -0.06158997863531113 0.06500415503978729 0.15175598859786987 -0.3285958170890808 0.4009931683540344 -0.11966222524642944 -0.09951767325401306 -0.27484041452407837 0.27408871054649353 0.20666924118995667 -0.16018430888652802 -0.2733033299446106 0.6154829859733582 0.19887837767601013 0.15821027755737305 -0.2755663990974426 -0.08482833206653595 0.03607702627778053 -0.5471312999725342 -0.4955686330795288 0.02235831692814827 -0.3303273320198059 -0.14816997945308685 -0.2077353596687317 -0.24480114877223969 -0.17327438294887543 -0.10838623344898224 -0.27462175488471985 0.5818241238594055 0.02242971956729889 0.07068127393722534 -0.04238612577319145 0.24957269430160522 0.07301921397447586 0.702237606048584 0.020129626616835594 0.47949546575546265 -0.21922938525676727 -0.31980809569358826 -0.1177048534154892 -0.22825421392917633 -0.006518764887005091 0.053174883127212524 0.26274555921554565 0.27735334634780884 -0.05537831410765648 0.3043082058429718 -0.06878641992807388 -0.05930103361606598 0.15820713341236115 0.28021514415740967 0.04923223704099655 0.23989906907081604 -0.281419038772583 -0.2588237524032593 -0.05039624869823456 -0.23238049447536469 0.29431039094924927 -0.22341695427894592 -0.08345374464988708 0.2159806191921234 -0.42632439732551575 0.6616613268852234 0.17871235311031342 -0.03884704411029816 0.19381208717823029 0.21777018904685974 -0.29371631145477295 -0.08925560861825943 -0.18237684667110443 0.4994608759880066 -0.3678590655326843 -0.31909865140914917 -0.18492484092712402 0.035803746432065964 -0.2741206884384155 0.12738752365112305 -0.13007621467113495 0.21618209779262543 0.41197502613067627
into -0.007937677204608917 0.16138063371181488 -0.05022723972797394 0.050842754542827606 0.11576516926288605 0.1313278079032898 -0.06743445247411728 -0.05674152821302414 -0.18488405644893646 -0.006766974925994873 -0.008239885792136192 -0.128644198179245 0.1947096586227417 0.11364972591400146 0.06911461800336838 0.01590156741440296 -0.0024053307715803385 0.05752715840935707 -0.17349326610565186 0.31485334038734436 -0.034649915993213654 0.023974226787686348 0.2850799262523651 -0.0335250198841095 0.13927410542964935 0.08042966574430466 0.032047152519226074 -0.08473464846611023 0.13504859805107117 0.14719446003437042 -0.08900140225887299 0.11635646224021912 0.017243407666683197 0.0342060811817646 -0.03572326526045799 -0.044041477143764496 0.16870245337486267 -0.2697380781173706 0.0450279638171196 0.158012256026268 0.1433144360780716 -0.14074869453907013 -0.019792446866631508 0.05201556161046028 -0.3523242473602295 0.020904377102851868 0.0622868612408638 0.055972788482904434 -0.2558532953262329 -0.04273909702897072 -0.01661771908402443 0.021572532132267952 0.1577606201171875 0.14530818164348602 0.01112425234168768 -0.12083227932453156 -0.06490634381771088 0.041805144399404526 -0.016781218349933624 -0.192326158285141 0.08151397109031677 0.06953693926334381 -0.07929900288581848 -0.010853412561118603 0.13766242563724518 0.18176640570163727 0.03327610716223717 -0.18170738220214844 0.06336827576160431 -0.038756612688302994 0.07047265022993088 0.13601814210414886 -0.06635632365942001 0.2168295681476593 0.22403129935264587 -0.08444440364837646 0.19181202352046967 -0.2492666393518448 0.2941798269748688 0.02230147086083889 0.055314257740974426 -0.2708398699760437 -0.21664272248744965 -0.029514960944652557 -0.07919810712337494 0.04230493679642677 -0.13352499902248383 -0.12980882823467255 -0.18301579356193542 -0.0666864812374115 0.27855709195137024 -0.38164588809013367 -0.24802374839782715 0.2482859045267105 -0.026952708140015602 -0.015253614634275436 -0.03874523565173149 -0.1425444632768631 0.13761095702648163 0.030235501006245613
how -0.4034898281097412 -0.17302250862121582 0.0017005832633003592 -0.004680642392486334 0.03464241325855255 0.1078193262219429 -0.01843951642513275 -0.09326090663671494 -0.001465595094487071 -0.02729744464159012 0.05724574998021126 0.023588117212057114 -0.12060923129320145 -0.07388507574796677 0.06231295317411423 0.13449817895889282 -0.18057313561439514 -0.2976977527141571 -0.21437965333461761 -0.2700253129005432 0.12399591505527496 0.1356600522994995 0.2677541971206665 -0.15267139673233032 0.08781152963638306 -0.040659233927726746 -0.02160605788230896 -0.0561605840921402 -0.2927566468715668 -0.17243283987045288 -0.3298162817955017 0.14535504579544067 0.2811964154243469 0.5160674452781677 0.09128627181053162 -0.13061177730560303 0.02598251961171627 -0.14226946234703064 0.38416361808776855 -0.12919090688228607 -0.34255513548851013 0.10903927683830261 0.2929919958114624 0.15388867259025574 -0.33575016260147095 -0.14880266785621643 -0.3105041980743408 0.09762609004974365 -0.13843271136283875 0.32823446393013 -0.05775199458003044 0.542563259601593 -0.1136321946978569 0.20829443633556366 0.13419079780578613 -1.2138170859543607E-4 0.05105246976017952 0.4462284445762634 0.049343042075634 -0.14697952568531036 0.32638657093048096 -0.2874302268028259 0.09878144413232803 0.2771461308002472 -6.84065802488476E-4 -0.025990957394242287 -0.3901209831237793 0.09676475822925568 0.2076815664768219 -0.0027668674010783434 0.23616337776184082 -0.07707907259464264 0.01698373071849346 -0.3287164270877838 3.9044563891366124E-4 -0.431100994348526 0.12198007106781006 -0.04518190771341324 -0.1779305785894394 -0.07973331212997437 0.08221186697483063 0.3767557740211487 -0.01738104596734047 -0.15218022465705872 0.02978978119790554 -0.30183711647987366 0.12912046909332275 0.06917046010494232 -0.1705731898546219 0.049162134528160095 0.06665932387113571 -0.5631130337715149 0.27860191464424133 0.09675644338130951 -0.003674148116260767 -0.24014274775981903 0.13672518730163574 -0.30946528911590576 -0.1613401621580124 -0.47815653681755066
see -0.1695951372385025 -0.05561536177992821 0.13563404977321625 0.22987140715122223 0.1993250995874405 0.04644915089011192 0.026883268728852272 0.2755374014377594 0.1264321506023407 0.027834249660372734 0.1253478080034256 -0.013583391904830933 0.2628122568130493 0.03013196773827076 -0.01582355611026287 0.02548663318157196 0.05054497346282005 0.019732121378183365 0.161420539021492 0.1892215758562088 0.3536425530910492 -0.05232818052172661 0.13323205709457397 0.023533418774604797 -0.2047511786222458 -0.12619201838970184 -0.0053506875410676 0.03788969665765762 -0.0442090779542923 0.03853477165102959 0.030024362727999687 0.27560803294181824 -0.22602345049381256 -0.02278347872197628 -0.11929833889007568 -0.25466838479042053 0.20295953750610352 -0.1367243379354477 -0.17122569680213928 0.015592335723340511 -0.15219064056873322 0.304531991481781 0.18401171267032623 0.19867801666259766 -3.2711577659938484E-6 0.14974462985992432 0.2024182677268982 0.06039753183722496 -0.2667047083377838 -0.005595043301582336 -0.017311112955212593 -0.1451791375875473 0.05686723440885544 0.47573789954185486 -0.0023244197946041822 0.15506577491760254 -0.13342222571372986 -0.17875929176807404 0.030574336647987366 0.09274761378765106 0.02826027199625969 -0.12002812325954437 -0.09627491980791092 -0.1639920324087143 0.09909363836050034 0.3172789216041565 -0.020519867539405823 -0.12457242608070374 -0.016774097457528114 0.10493844002485275 0.10810593515634537 -0.07780855149030685 -0.18450193107128143 -0.07102774828672409 -0.1103116050362587 -0.1834554523229599 0.1559021770954132 -0.04306747764348984 0.35710451006889343 0.20958758890628815 -0.014576885849237442 0.014032421633601189 -0.03925636038184166 -0.07231882959604263 0.15322427451610565 -0.3240923285484314 0.11944659054279327 -0.3371782898902893 -0.21843895316123962 0.11116590350866318 0.1356976479291916 0.07174371927976608 -0.16346052289009094 0.06046460196375847 0.1332276463508606 -0.1924387514591217 0.2176923006772995 -0.025536207482218742 -0.04449514299631119 0.14724530279636383
found 0.2189422994852066 -0.12442951649427414 -0.23233182728290558 0.1184573695063591 0.09342948347330093 -0.2778678834438324 0.09394138306379318 0.05107545107603073 0.24228155612945557 -0.19448895752429962 0.019414475187659264 -0.08397161960601807 0.2585395574569702 -0.12288868427276611 -0.019266964867711067 0.04673890769481659 0.18365278840065002 0.24550260603427887 -0.34754475951194763 -0.11963541805744171 -0.008002253249287605 -0.013605275191366673 0.1527325063943863 -0.048802826553583145 -0.10207883268594742 -0.23331986367702484 -0.008211723528802395 0.17675821483135223 -0.20478668808937073 0.22447939217090607 0.15234632790088654 -0.13262255489826202 0.06840803474187851 0.004760616458952427 0.2963694930076599 0.048685092478990555 0.20238728821277618 0.020512200891971588 0.0321720726788044 -0.17185482382774353 -0.14492034912109375 -0.019726555794477463 -0.03813844919204712 -0.21552084386348724 -0.04848501458764076 0.03463844954967499 0.11890454590320587 0.30222535133361816 0.0036584408953785896 -0.13647325336933136 -0.15860362350940704 -0.23323747515678406 0.0164103452116251 -0.11052305996417999 -0.1391662210226059 -0.02192435972392559 0.022555800154805183 -0.04253710061311722 0.011853119358420372 -0.28151509165763855 -0.08057781308889389 0.04920463263988495 -0.22174738347530365 -0.20997850596904755 0.23712630569934845 0.1683397740125656 0.03667250648140907 0.02755666710436344 -0.008573684841394424 0.1345406025648117 0.14784657955169678 0.11766590178012848 0.1789240837097168 0.23465242981910706 -0.3449966609477997 0.020022323355078697 -0.21646733582019806 -0.05351870134472847 -0.10766181349754333 0.17507046461105347 -0.007856489159166813 0.15320980548858643 -0.21826505661010742 -0.057083044201135635 -0.2285022884607315 0.032124973833560944 0.2137542963027954 -0.25978830456733704 -0.06902896612882614 -0.24447274208068848 0.03328868746757507 0.10860149562358856 -0.24631467461585999 -0.17323535680770874 0.073218435049057 0.08247943222522736 0.0733761340379715 0.018005069345235825 0.02673393115401268 0.14201194047927856
same 0.01809258945286274 0.2596752941608429 0.39076951146125793 0.13227488100528717 0.054232656955718994 -0.0746246799826622 0.03053387440741062 -0.137637659907341 0.2147504836320877 -0.09499336034059525 -0.027885552495718002 -0.12711572647094727 -0.15170904994010925 -0.048957012593746185 0.40051329135894775 -0.010267584584653378 0.1404878944158554 0.4875361919403076 0.03638584911823273 -0.19188274443149567 -0.04425964504480362 0.24340642988681793 0.11970466375350952 -0.23115608096122742 -0.1657652109861374 0.5826011300086975 -0.1139984056353569 0.0901629850268364 0.11980731040239334 0.0261001605540514 -0.13850876688957214 0.24481818079948425 -0.14585983753204346 -0.11578188091516495 0.0058788093738257885 0.27933669090270996 0.0842302143573761 0.010296640917658806 -0.020622435957193375 0.1825704574584961 0.10518622398376465 0.282292902469635 -0.14919613301753998 0.19909082353115082 -0.30687248706817627 -0.26092177629470825 -0.1303122490644455 -0.018489381298422813 0.2679988443851471 -0.08062919974327087 -0.07161865383386612 -0.0012173105496913195 -0.13554798066616058 -0.1757337749004364 0.22919034957885742 -0.459760457277298 0.15831966698169708 -0.3798930048942566 -0.12080391496419907 -0.12963400781154633 -0.3614254295825958 -0.28911951184272766 -0.35540351271629333 -0.21063560247421265 0.12176338583230972 -0.18711894750595093 0.1572779417037964 -0.14980363845825195 -0.04381399229168892 0.639616847038269 -0.243259459733963 0.21875780820846558 0.07335823774337769 -0.20754632353782654 -0.029591882601380348 -0.5202111005783081 -0.0037598831113427877 0.2046797275543213 0.3006227910518646 -0.4022446274757385 -0.2842736542224884 -0.24481423199176788 0.17180199921131134 -0.14235946536064148 -0.2529577314853668 -0.13633455336093903 0.037731755524873734 0.08864036947488785 0.12592726945877075 -0.3292788565158844 -0.14546382427215576 -0.028967609629034996 -0.05643633380532265 -0.062516950070858 0.1038086861371994 0.21974940598011017 -0.061977751553058624 0.1106656864285469 -0.03260010480880737 0.5941368341445923
are -0.4222958981990814 -0.3099988102912903 -0.1481442004442215 0.21650296449661255 -0.36681288480758667 0.06402581930160522 -0.29741448163986206 0.22053083777427673 0.18675187230110168 -0.059512559324502945 0.42058229446411133 -0.6107009649276733 0.3002495765686035 0.1061621829867363 -0.027794552966952324 0.5700256824493408 0.13873249292373657 0.19477573037147522 0.21890367567539215 -0.21297740936279297 -0.042157284915447235 -0.15740856528282166 -0.009878969751298428 -0.10225378721952438 0.07655514031648636 0.0640304833650589 -0.10343675315380096 0.3696514368057251 -0.09859895706176758 0.13349947333335876 0.41284987330436707 -0.010358337312936783 -0.054467473179101944 0.26343196630477905 -0.0802484005689621 0.10897450149059296 -0.07089582830667496 0.14949145913124084 0.17322586476802826 0.3973639905452728 -0.2070665955543518 -0.21063002943992615 0.09025028347969055 0.07231218367815018 0.12372667342424393 -0.17989273369312286 -0.04245369881391525 -0.03885702043771744 0.19267168641090393 0.12413249909877777 0.12432149797677994 0.10417263954877853 -0.11710517108440399 0.026047922670841217 0.5512292385101318 0.2968791425228119 -0.39587533473968506 -0.041151728481054306 0.36653757095336914 0.3179812431335449 -0.39092016220092773 0.07151741534471512 -0.05736229196190834 -0.19109149277210236 -0.36174920201301575 -0.2205800861120224 0.42383626103401184 0.5658041834831238 -0.25935879349708557 0.025067167356610298 0.1794290542602539 0.10421086102724075 -0.004920291714370251 -0.09542029350996017 0.24907639622688293 -0.028775589540600777 0.13420510292053223 -0.384449303150177 0.045632053166627884 0.19621247053146362 -0.007306296844035387 -0.022994033992290497 -0.31686994433403015 0.5109169483184814 0.396634042263031 -0.1670839786529541 -0.08628136664628983 0.3843800127506256 -0.17755824327468872 0.13456428050994873 -0.12080550938844681 0.2900247871875763 -0.14081406593322754 0.1513432264328003 0.10158643126487732 -0.0420486144721508 -0.16096825897693634 -0.28726503252983093 -0.3816191852092743 -0.12482511252164841
does 0.539769172668457 0.0785016417503357 -0.1314505636692047 -0.2922467887401581 0.21678906679153442 -0.1555529236793518 0.2599666118621826 0.2542896270751953 -0.1350698173046112 -0.022939607501029968 -0.16448798775672913 0.20091180503368378 0.21000011265277863 -2.4341532844118774E-4 0.08707896620035172 0.18159368634223938 0.18580910563468933 0.36742377281188965 -0.03272997960448265 0.03554102033376694 -0.4452127516269684 -0.04269784316420555 -0.35582268238067627 0.35285305976867676 0.1722547560930252 -0.15647509694099426 -0.09183670580387115 -0.15099529922008514 -0.4356003403663635 0.21096131205558777 -0.09356435388326645 -0.15139758586883545 -0.02183525636792183 -0.1076086163520813 -0.15793229639530182 -0.2157101184129715 -0.16399461030960083 0.291470468044281 0.22292460501194 -0.2500653564929962 0.1803838312625885 -0.0011987832840532064 0.34040871262550354 0.07025133818387985 -0.19274643063545227 -0.06024659052491188 -0.15719226002693176 8.422775426879525E-4 -0.1543285995721817 0.009427797049283981 0.16155336797237396 -0.5028460621833801 -0.1900789588689804 -0.19955112040042877 0.3164311647415161 0.1306382268667221 -0.039051152765750885 0.1073940247297287 -0.14060252904891968 -0.07390514016151428 0.038672372698783875 0.007851267233490944 0.11075492203235626 0.19685788452625275 -0.5452699065208435 0.35402756929397583 -0.35256803035736084 -0.1243303120136261 0.06184150278568268 -0.0376492440700531 -0.2188080996274948 0.32721686363220215 0.07573572546243668 0.10030118376016617 -0.11415158957242966 0.36960580945014954 0.43315792083740234 0.2714352607727051 0.2597138583660126 -0.045362070202827454 0.2899911105632782 0.16774068772792816 -0.10279683768749237 0.028981009498238564 0.26761746406555176 -0.12352210283279419 -0.7539151906967163 0.01151792611926794 -0.03398335352540016 -0.03582669049501419 0.16049103438854218 -0.5774355530738831 -0.4221033453941345 -0.12212077528238297 0.1817987859249115 -0.03809795528650284 0.3314884603023529 -0.12534457445144653 -0.11391275376081467 -0.03218889981508255
by -0.07483740895986557 0.15521319210529327 -0.039167024195194244 0.07385306060314178 -0.2079937905073166 0.02943856082856655 -0.04080380126833916 0.07222902774810791 -0.1504354029893875 -0.034211449325084686 -0.008737835101783276 -0.13866500556468964 0.15238259732723236 0.06435848772525787 0.07455642521381378 0.011025380343198776 -0.044225700199604034 -0.02925528585910797 -0.24089112877845764 0.07080545276403427 0.20040619373321533 -0.07002821564674377 0.1893552988767624 -0.1083315908908844 0.14577826857566833 0.11216967552900314 0.1379321813583374 -0.11209120601415634 -0.033733271062374115 0.17011241614818573 0.13390187919139862 0.05543085187673569 -0.07421477884054184 0.0661163255572319 -0.038536347448825836 0.0983593687415123 -3.7362088914960623E-4 -0.011498888023197651 0.18393327295780182 0.006494569126516581 0.02288438007235527 -0.0639769434928894 -0.08813652396202087 0.1264658272266388 -0.05265083536505699 -0.07633969187736511 0.0025358335115015507 -0.03409038484096527 -0.06398232281208038 0.057700932025909424 0.2592044174671173 0.029930636286735535 0.0024138367734849453 -0.021584218367934227 0.035139456391334534 -0.06980137526988983 0.0980171337723732 -0.23273487389087677 -0.10712691396474838 -0.252076655626297 -0.0827360600233078 -0.0061887954361736774 -0.0860801711678505 -0.17598214745521545 0.21926458179950714 0.14984230697155 0.022052502259612083 -0.08281101286411285 -0.1475209891796112 -0.03127184510231018 0.2248898446559906 0.0710429921746254 0.16284243762493134 0.08519939333200455 -0.002105590421706438 -0.07197662442922592 0.0560113899409771 -0.22318609058856964 0.10618404299020767 0.07640735059976578 0.25283896923065186 -0.19997768104076385 0.046130843460559845 -0.12358181923627853 -0.12430408596992493 -0.19107873737812042 -0.08449670672416687 -0.22355738282203674 -0.09288330376148224 -0.1040358692407608 0.1706530749797821 -0.07902352511882782 -0.16682009398937225 0.08946441113948822 -0.01642679236829281 0.03372013196349144 -0.08926166594028473 0.06367015093564987 0.18970215320587158 0.08954241126775742
national -0.0631645917892456 0.09383035451173782 0.13281530141830444 0.03830335661768913 -0.09430258721113205 -0.013065749779343605 0.006296874955296516 -0.08735359460115433 0.011693372391164303 0.08176912367343903 0.035827457904815674 -0.07540368288755417 -0.041760414838790894 0.013303595595061779 0.04681435227394104 0.05796467140316963 -0.07799606025218964 0.12634482979774475 0.003682950744405389 0.022899651899933815 -0.03386605530977249 0.06067340075969696 0.0477491170167923 -0.08021434396505356 0.10566551238298416 0.143380805850029 -0.04892105236649513 -0.04261166602373123 0.016656408086419106 0.014943871647119522 0.01832331344485283 -0.06796979904174805 0.08784563839435577 -0.0745057761669159 0.0025517542380839586 0.13250812888145447 -0.004818430170416832 0.0028143241070210934 -0.022129427641630173 0.059516556560993195 0.05095861852169037 -0.09393701702356339 0.0032480088993906975 -0.02163141779601574 -0.037890318781137466 -0.012568305246531963 -0.03836044296622276 0.029586322605609894 0.09473945945501328 -0.08185134083032608 -0.016473907977342606 0.0945357158780098 0.030447563156485558 -0.052687518298625946 -0.011258288286626339 -0.11128608882427216 0.004062658175826073 -0.047216638922691345 0.01938082091510296 0.025874869897961617 -0.03522184118628502 0.12116008251905441 -0.004044124390929937 0.04437806457281113 -0.045776840299367905 -0.04415012523531914 0.07400932163000107 -0.06586698442697525 -0.001953672617673874 0.11981970816850662 -0.049830786883831024 0.10423091799020767 -0.030006568878889084 0.07230857759714127 -0.04244447126984596 -0.08700695633888245 -0.05026503652334213 0.047039810568094254 0.07661456614732742 -0.01770457997918129 0.08025342226028442 -0.047931790351867676 0.08438669890165329 0.010195566341280937 -0.1438891738653183 0.029873376712203026 0.09897837787866592 0.036681659519672394 0.0525350347161293 -0.07316333055496216 -0.10860541462898254 -0.062463488429784775 0.09369011968374252 -0.09645291417837143 -0.039283379912376404 -0.034511931240558624 0.010867682285606861 -0.005241486243903637 -0.07548236846923828 0.02520194835960865
where -0.6090807914733887 -0.09597603976726532 0.10280436277389526 0.03740265965461731 -0.29832470417022705 0.10541961342096329 -0.19424305856227875 -0.2558262050151825 -0.0799558088183403 0.176536425948143 -0.17696544528007507 0.3941442370414734 0.19670334458351135 0.27331411838531494 0.32762351632118225 -0.30443283915519714 0.043253276497125626 0.13244716823101044 0.30777016282081604 0.053534239530563354 0.16759178042411804 0.3228519558906555 -0.006592264864593744 -0.29902148246765137 -0.022072769701480865 -0.012829038314521313 -0.0583576038479805 -0.1849883496761322 0.19447997212409973 -0.14893798530101776 -0.13110008835792542 0.15176482498645782 0.07472661882638931 0.006270974408835173 0.4418475329875946 0.03947409614920616 0.14832550287246704 -0.08113386482000351 0.13329176604747772 0.18030290305614471 -0.08870257437229156 -0.1454383134841919 -0.04792386665940285 0.3488729000091553 -0.10376168042421341 -0.15353494882583618 0.09868688136339188 -0.18319302797317505 0.047945134341716766 -0.045105669647455215 -0.27100670337677 0.3278908431529999 0.21206115186214447 -0.07737742364406586 0.1487070471048355 -0.14475470781326294 0.009236914105713367 0.06359125673770905 0.3305654525756836 -0.13915474712848663 -0.08671438694000244 -0.2030974179506302 0.0676560029387474 -0.12788785994052887 -0.39103901386260986 0.011035912670195103 0.08241703361272812 -0.1354774534702301 0.0399811677634716 0.08452528715133667 0.0749935582280159 -0.153772234916687 -0.024267395958304405 -0.023566676303744316 0.13242118060588837 -0.2843848466873169 -0.05958985164761543 -0.17363068461418152 0.14810924232006073 0.0499771311879158 -0.1220225989818573 0.4441482126712799 0.16145925223827362 0.37793755531311035 -0.4303506910800934 -0.18841320276260376 -0.38103237748146057 -0.02791210077702999 0.004809555131942034 0.10907639563083649 0.5341361165046692 -0.40225949883461 0.09078048169612885 0.2777050733566284 -0.019874783232808113 -0.10414931178092957 0.08376649022102356 0.09796151518821716 0.41625863313674927 -0.26402750611305237
after -0.103423111140728 0.3282472491264343 -0.15035390853881836 0.029692135751247406 -0.02978125400841236 0.15281669795513153 -0.27727416157722473 -0.1009773388504982 -0.10502560436725616 0.09983789920806885 -0.06546556204557419 -0.21517178416252136 0.24901728332042694 0.2453024834394455 0.14407134056091309 0.021006925031542778 0.06872619688510895 -0.08051010966300964 -0.08964890241622925 -0.002006916096433997 0.056899167597293854 0.05250782147049904 -0.050822094082832336 -0.3397502899169922 -0.011142994277179241 0.3356687128543854 0.17859382927417755 -0.06497568637132645 -0.22337788343429565 0.1712055802345276 0.07318410277366638 0.2600672245025635 0.1354372501373291 -0.0627623200416565 -0.1250581443309784 0.1905466616153717 0.20443055033683777 0.08989910781383514 0.12354264408349991 -0.08403454720973969 0.1041298359632492 0.05659306421875954 0.05884990468621254 0.21552042663097382 -0.14586728811264038 -0.10815209150314331 0.4121503233909607 0.08283504843711853 -0.041145436465740204 0.026042375713586807 0.037802599370479584 -0.05304732918739319 0.16374275088310242 -0.12637141346931458 0.09107910096645355 -0.05279657617211342 -0.10861711204051971 -0.08768495172262192 0.11738691478967667 -0.16700010001659393 0.0025373431853950024 -0.014674914069473743 -0.07034198194742203 -0.10302800685167313 -0.28106650710105896 0.06789891421794891 0.19317036867141724 -0.1828462928533554 0.3553932309150696 0.2811166048049927 0.22325465083122253 -0.17296649515628815 0.18800587952136993 0.46255558729171753 0.14792373776435852 -0.07099257409572601 0.05349845066666603 -0.25363603234291077 -0.10266061872243881 0.11546124517917633 -0.14492882788181305 -0.3200606405735016 0.14772361516952515 0.02818610519170761 -0.29948994517326355 -0.058883607387542725 -0.23352450132369995 -0.1359463930130005 -0.15065541863441467 0.039017632603645325 0.005643016658723354 -0.1839556097984314 -0.13347689807415009 0.03230847418308258 -0.1755208820104599 0.09465476125478745 -0.12655919790267944 0.13033436238765717 0.10233859717845917 0.02736378088593483
so -0.3137631118297577 -0.0913822203874588 -0.4280957579612732 -0.02541740983724594 0.16948220133781433 -0.23880523443222046 0.19976972043514252 0.01034377608448267 -0.24048194289207458 0.07225832343101501 -0.02052295207977295 0.06281600892543793 0.09476018697023392 0.10271992534399033 -0.1758183240890503 -0.11625052988529205 0.056782450526952744 -0.11150189489126205 0.11256488412618637 -0.1440601795911789 0.1815514862537384 0.16843566298484802 0.19758881628513336 0.024865740910172462 -0.05664197728037834 0.20506328344345093 0.04981934651732445 0.13292889297008514 -0.21208779513835907 0.1752263605594635 0.09142330288887024 -0.1919371336698532 -0.07245227694511414 0.04062673822045326 -0.13804425299167633 -0.13419941067695618 6.478576688095927E-4 0.06580256670713425 0.42081218957901 0.08871912956237793 -0.25290167331695557 -0.002699951408430934 0.07701162993907928 0.033846475183963776 0.14942669868469238 0.1102437973022461 0.11496975272893906 -0.1300605982542038 -0.08879527449607849 -0.02783152274787426 0.2233130782842636 0.08450403809547424 -0.02654457464814186 0.08262358605861664 -0.20100665092468262 0.08232825994491577 -0.2404099404811859 -0.010637685656547546 0.3128614127635956 -0.07276155799627304 0.06026443466544151 -0.07913085073232651 0.11522006243467331 0.04621313139796257 -0.0786103680729866 -0.1216338723897934 -0.3760048449039459 -0.10177695006132126 -0.1944231241941452 0.02036985009908676 -0.010564450174570084 -0.3676794171333313 0.2277439534664154 -0.15292280912399292 0.00526857003569603 -0.09858515113592148 -0.10335816442966461 0.13455772399902344 -0.24417056143283844 0.09715065360069275 0.07363274693489075 0.05863599479198456 0.22433975338935852 -0.18380528688430786 0.07710367441177368 -0.036002978682518005 0.1808588206768036 -0.21076445281505585 -0.10976026952266693 -0.041872862726449966 -0.049257099628448486 0.14719043672084808 -0.10919690877199173 0.20473238825798035 -0.11194935441017151 -0.0966024249792099 0.10597475618124008 -0.02902788482606411 -0.2942812740802765 -0.31949383020401
a -0.2466060072183609 -0.08951684087514877 -0.26616108417510986 -0.08488727360963821 -0.028846798464655876 -0.3158562481403351 -0.3165397346019745 0.10984034091234207 -0.60105299949646 -0.11769036948680878 -0.3103439211845398 -0.3294183313846588 -0.08705897629261017 0.1431940197944641 0.13904303312301636 -0.16202276945114136 -0.02056667022407055 0.11510678380727768 -0.1551225781440735 0.18251775205135345 0.07760130614042282 0.26325079798698425 -0.025820275768637657 -0.1912935972213745 0.32880502939224243 0.27946439385414124 0.1465456485748291 -0.2232179194688797 0.14038510620594025 0.0972837433218956 -0.22351007163524628 0.3237212598323822 0.17591366171836853 0.3696144223213196 -0.13475127518177032 0.03874210640788078 -0.3541565239429474 0.2634763717651367 0.0942521020770073 0.12901489436626434 0.1323738843202591 -0.3014589846134186 -0.12019580602645874 -0.3896547853946686 0.023761820048093796 -0.22152972221374512 -0.017980355769395828 0.2561753988265991 -0.18739540874958038 0.3020050823688507 -0.06885857880115509 0.2564469575881958 -0.3713497221469879 0.27201682329177856 -0.27388352155685425 -0.23025035858154297 0.18957078456878662 -0.12277115881443024 -0.15143921971321106 0.2761552929878235 -0.36417004466056824 0.09003989398479462 -0.3150085210800171 0.418415367603302 0.07612184435129166 0.32540252804756165 0.13976962864398956 -0.34498414397239685 -0.1912740170955658 -0.140994131565094 0.2909741699695587 0.10171299427747726 0.1764005571603775 -0.06753760576248169 -0.08168189972639084 0.09616103768348694 -0.12492877244949341 0.04343045875430107 -0.17616647481918335 -0.11633972823619843 0.3912539482116699 -0.32575732469558716 0.06221175938844681 -0.18551105260849 -0.24296455085277557 0.06524147093296051 0.24250538647174835 0.337631493806839 -0.12646186351776123 0.13082711398601532 -0.08251543343067169 0.08880443871021271 -0.1241227388381958 -0.228306382894516 -0.07188602536916733 -0.021832013502717018 0.06235940009355545 -0.04653039574623108 -0.23955613374710083 0.258745402097702
think 0.07935446500778198 0.09457028657197952 -0.027434658259153366 0.19070321321487427 0.1971442699432373 -0.16526256501674652 -0.016434205695986748 0.013765104115009308 0.028955919668078423 -0.11449688673019409 0.260842502117157 0.1105872318148613 -0.11118219792842865 -0.06405898183584213 0.09872404485940933 0.2661149799823761 0.052090298384428024 -0.054468002170324326 -0.033367741852998734 0.01791621558368206 0.15732304751873016 0.2549614906311035 0.030582860112190247 0.10618600994348526 -0.3389699459075928 -0.31321877241134644 0.11316512525081635 0.028188401833176613 0.014963784255087376 -0.22035378217697144 0.1301906853914261 0.3714284300804138 -0.06804424524307251 0.0846407562494278 0.35988861322402954 -0.17056895792484283 -0.05579986050724983 -0.014732671901583672 -0.20452401041984558 -0.13811947405338287 9.413430234417319E-4 0.2588839530944824 -0.07494781166315079 0.21852105855941772 0.11036314815282822 0.316125750541687 0.15934839844703674 0.32757115364074707 -0.18628424406051636 -0.004589549731463194 0.11591361463069916 0.17013849318027496 -0.010144276544451714 0.24823598563671112 0.052083395421504974 0.2936755120754242 -0.052222318947315216 -0.054617006331682205 -0.14088432490825653 0.2751708924770355 0.07739593088626862 -0.33536744117736816 0.05027551203966141 0.19692546129226685 -0.18517804145812988 -0.224539652466774 -0.15671062469482422 -0.04671972617506981 0.22077369689941406 0.3185676634311676 0.07144247740507126 -0.26781395077705383 0.07178596407175064 -0.3354748487472534 -0.09233049303293228 -0.06020822748541832 0.09843455255031586 0.24334706366062164 1.8470246868673712E-4 -0.21471573412418365 -0.20907606184482574 0.07077158987522125 -0.002455375390127301 -0.05512923374772072 -0.256796658039093 -0.06401541829109192 0.485899418592453 -0.14159102737903595 -0.11643949151039124 -0.03083186410367489 0.1282016634941101 -0.10968267917633057 0.009117914363741875 -0.1227080374956131 -0.06670556962490082 -0.12509775161743164 0.09106504172086716 -0.24961206316947937 -0.10295893996953964 0.22938333451747894
set 0.029215853661298752 0.16084781289100647 0.0026332305278629065 -6.1422138242051E-4 0.11663251370191574 0.09466006606817245 -0.22188852727413177 0.04277933016419411 0.1827322393655777 -0.0555027537047863 0.14556090533733368 -0.2439974546432495 0.26710960268974304 0.08083698898553848 0.09542454779148102 -0.0775386318564415 0.014138130471110344 0.14581985771656036 0.0868043377995491 0.2069905698299408 -0.0366063229739666 -0.06124699115753174 0.1561650037765503 -0.1390252709388733 -0.07498649507761002 -0.09992081671953201 -0.19384291768074036 -0.1290690153837204 0.02377360127866268 0.15139034390449524 -0.0020863779354840517 0.018644733354449272 0.1715252697467804 -0.1787818819284439 0.058084454387426376 5.45064511243254E-4 0.07325024902820587 -0.11794189363718033 0.05036487057805061 -0.08942092210054398 0.02374076470732689 -0.05433212220668793 0.018310273066163063 -0.04241868108510971 -0.054232023656368256 0.03012356534600258 0.09520689398050308 0.04972448945045471 0.10234224051237106 -0.2189456969499588 -0.17931124567985535 0.03335957229137421 0.24771209061145782 -0.11948797106742859 0.12280791997909546 0.02363414503633976 0.07953107357025146 -0.09872476011514664 -0.027775781229138374 0.013993916101753712 -0.0962095782160759 0.03118925169110298 -0.2370087057352066 -0.058355048298835754 0.10605895519256592 0.06721904128789902 0.005930644925683737 0.07029405236244202 0.07409540563821793 0.05180649086833 0.20939798653125763 -0.09431145340204239 -0.10433431714773178 0.1955312043428421 -0.10268285870552063 -0.06405742466449738 -0.044808827340602875 -0.005760222673416138 0.05609968304634094 0.2749556601047516 -0.04086100682616234 -0.01941840909421444 0.013983558863401413 0.08756653219461441 0.08874010294675827 -0.007088122423738241 -0.019592899829149246 -0.2770747244358063 0.08439989387989044 -0.3047260344028473 0.1268433779478073 -3.632339648902416E-4 -0.15200072526931763 -0.10862128436565399 -0.018334107473492622 -0.0012519883457571268 0.25472554564476013 0.018517864868044853 -0.02197176031768322 0.18112337589263916
